svm_type c_svc
kernel_type rbf
gamma 0.00502513
nr_class 4
total_sv 105
rho 0.00697073 -0.286855 -0.872087 -0.280869 -0.798996 -0.857729
label 0 1 2 3
nr_sv 29 27 30 19
SV
0.819623167163676 0.5318753340268591 0.01283317938115364 0:0 1:0 2:2.35388 3:4.7488 4:4.68046 5:4.50252 6:8.90254 7:2.25379 8:7.33075 9:0 10:0 11:6.92126 12:0 13:0 14:0 15:0 16:0 17:0 18:6.08686 19:4.62799 20:0 21:0 22:0 23:9.48252 24:0 25:0 26:1.35674 27:6.57146 28:0 29:0 30:0 31:1.93102 32:0 33:0 34:0 35:0 36:2.20727 37:2.49496 38:0 39:7.0354 40:0 41:7.99983 42:0 43:0 44:0 45:0 46:4.83223 47:0 48:3.21888 49:4.16392 50:0 51:5.9537 52:0 53:0 54:0 55:0 56:0 57:0 58:0 59:0 60:0 61:0 62:0 63:0 64:0 65:0 66:0 67:0 68:0 69:0 70:0 71:0 72:0 73:0 74:0 75:0 76:0 77:0 78:2.62237 79:0 80:0 81:0 82:0 83:0 84:0 85:0 86:0 87:0 88:0 89:0 90:2.30259 91:0 92:0 93:0 94:0 95:0 96:0 97:0 98:0 99:0 100:0 101:0 102:0 103:0 104:0 105:0 106:0 107:0 108:0 109:0 110:0 111:0 112:0 113:0 114:0 115:0 116:0 117:0 118:0 119:0 120:2.85702 121:1.05461 122:0 123:0 124:0 125:2.35388 126:0 127:0 128:0 129:0 130:0 131:0 132:0 133:0 134:0 135:0 136:0 137:0 138:0 139:0 140:0 141:0 142:2.3279 143:0 144:0 145:0 146:0 147:0 148:0 149:0 150:0 151:0 152:0 153:0 154:0 155:0 156:0 157:0 158:0 159:0 160:0 161:0 162:4.64949 163:0 164:0 165:0 166:0 167:0 168:1.43759 169:0 170:4.12611 171:0 172:0 173:0 174:0 175:0 176:0 177:0 178:0 179:0 180:0 181:0 182:0 183:0 184:0 185:0 186:0 187:0 188:0 189:0 190:0 191:0 192:0 193:0 194:0 195:0 196:0 197:0 198:0 199:0 
0.9696432390579585 0.6865329168110784 0.1229106579920394 0:0 1:0 2:6.93431 3:7.3691 4:9.02035 5:6.93917 6:10.3329 7:6.94043 8:6.64591 9:14.8842 10:0 11:4.91084 12:0 13:0 14:4.76352 15:0 16:6.26204 17:0 18:0 19:8.05226 20:1.56065 21:0 22:0 23:9.48252 24:9.48325 25:0 26:4.61005 27:7.77388 28:0 29:0 30:2.52573 31:5.03888 32:4.71081 33:4.29965 34:0 35:0 36:0 37:2.49496 38:0 39:5.67612 40:0 41:9.35911 42:0 43:0 44:0 45:5.67612 46:8.02429 47:1.30933 48:0 49:9.44685 50:0 51:0 52:2.09964 53:0 54:0 55:0 56:0 57:0 58:0 59:0 60:0 61:2.16282 62:0 63:2.90042 64:0 65:0 66:0 67:0 68:0 69:0 70:0 71:0 72:0 73:0 74:0 75:0 76:0 77:0 78:0 79:0 80:0 81:0 82:0 83:0 84:0 85:0 86:0 87:0 88:0 89:0 90:2.30259 91:0 92:0 93:0 94:0 95:0 96:0 97:0 98:0 99:0 100:0 101:3.81601 102:0 103:0 104:0 105:0 106:0 107:0 108:0 109:0 110:0 111:0 112:0 113:0 114:0 115:0 116:0 117:0 118:0 119:0 120:0 121:2.03248 122:0 123:0 124:1.68342 125:0 126:0 127:0 128:0 129:0 130:0 131:0 132:0 133:0 134:0 135:0 136:0 137:0 138:3.28341 139:4.33962 140:0 141:0 142:3.94148 143:2.81341 144:2.02117 145:0 146:0 147:4.22841 148:0 149:0 150:0 151:1.30933 152:0 153:0 154:0 155:0 156:0 157:4.28163 158:3.69919 159:0 160:2.35869 161:3.73724 162:6.79004 163:3.89872 164:0 165:6.22636 166:0 167:0 168:4.0134 169:0 170:4.12611 171:2.63432 172:3.55501 173:0 174:2.09964 175:2.96906 176:0 177:2.12026 178:2.12026 179:4.09201 180:1.51413 181:0 182:0 183:0 184:0 185:0 186:0 187:0 188:0 189:0 190:0 191:0 192:0 193:0 194:0 195:0 196:0 197:0 198:2.00248 199:0 
0.586304329719244 1 1 0:0 1:0 2:0 3:0 4:0 5:0 6:0 7:0 8:0 9:0 10:0 11:0 12:0 13:0 14:0 15:0 16:2.62417 17:3.87893 18:0 19:0 20:1.56065 21:0 22:0 23:0 24:0 25:0 26:0 27:0 28:0 29:0 30:0 31:0 32:1.6874 33:0 34:0 35:0 36:3.73724 37:0 38:0 39:0 40:0 41:0 42:0 43:0 44:0 45:0 46:0 47:0 48:0 49:0 50:0 51:0 52:0 53:0 54:0 55:0 56:0 57:0 58:0 59:0 60:0 61:0 62:0 63:0 64:0 65:0 66:0 67:2.04022 68:0 69:0 70:0 71:0 72:0 73:0 74:0 75:0 76:0 77:0 78:0 79:0 80:0 81:0 82:0 83:0 84:0 85:0 86:0 87:0 88:0 89:0 90:0 91:0 92:0 93:0 94:0 95:0 96:0 97:0 98:0 99:0 100:0 101:0 102:0 103:0 104:0 105:0 106:0 107:0 108:0 109:0 110:0 111:0 112:0 113:0 114:0 115:0 116:0 117:0 118:0 119:0 120:0 121:1.05461 122:0 123:0 124:1.68342 125:0 126:0 127:0 128:0 129:0 130:0 131:0 132:0 133:0 134:0 135:0 136:0 137:0 138:0 139:1.02862 140:0 141:0 142:0 143:0 144:0 145:0 146:0 147:0 148:0 149:0 150:0 151:2.21689 152:0 153:0 154:0 155:0 156:0 157:0 158:0 159:0 160:0 161:0 162:0 163:0 164:0 165:0 166:0 167:0 168:0 169:0 170:0 171:1.25527 172:0 173:0 174:0 175:0 176:0 177:0 178:0 179:0 180:0 181:0 182:0 183:0 184:0 185:0 186:0 187:0 188:0 189:0 190:0 191:0 192:0 193:0 194:0 195:0 196:0 197:0 198:0 199:0 
0.0340905215233918 0.05086873739417752 0.3012291369432918 0:0 1:0 2:0 3:1.70101 4:0 5:0 6:2.69563 7:5.88114 8:4.99584 9:0 10:0 11:0 12:0 13:0 14:0 15:0 16:0 17:3.12949 18:0 19:0 20:0 21:0 22:0 23:0 24:0 25:0 26:0 27:0 28:0 29:0 30:0 31:0 32:0 33:3.05073 34:0 35:0 36:2.20727 37:0 38:0 39:0 40:0 41:0 42:0 43:0 44:0 45:0 46:2.30259 47:0 48:3.21888 49:0 50:0 51:0 52:0 53:0 54:0 55:0 56:0 57:0 58:0 59:0 60:0 61:0 62:0 63:0 64:0 65:0 66:0 67:2.04022 68:0 69:0 70:0 71:0 72:0 73:0 74:0 75:0 76:0 77:0 78:0 79:0 80:0 81:0 82:0 83:0 84:0 85:0 86:0 87:0 88:0 89:0 90:0 91:0 92:0 93:0 94:0 95:0 96:0 97:0 98:0 99:0 100:0 101:0 102:0 103:0 104:0 105:0 106:0 107:0 108:0 109:0 110:0 111:0 112:0 113:0 114:0 115:0 116:0 117:0 118:0 119:0 120:0 121:0 122:0 123:0 124:0 125:0 126:0 127:0 128:0 129:0 130:0 131:0 132:0 133:0 134:0 135:0 136:0 137:0 138:0 139:1.02862 140:0 141:0 142:0 143:0 144:0 145:0 146:0 147:0 148:0 149:0 150:0 151:0 152:0 153:0 154:0 155:0 156:0 157:0 158:0 159:0 160:0 161:0 162:1.94841 163:1.09362 164:0 165:0 166:0 167:0 168:0 169:0 170:0 171:1.25527 172:0 173:0 174:0 175:0 176:3.77891 177:0 178:0 179:0 180:1.51413 181:0 182:0 183:0 184:0 185:0 186:0 187:0 188:0 189:0 190:0 191:0 192:0 193:0 194:0 195:0 196:0 197:0 198:0 199:0 
0.6650472110423479 0.6908543188879558 0.1882359079962165 0:0 1:0 2:0 3:0 4:0 5:0 6:0 7:6.94043 8:0 9:2.81341 10:0 11:0 12:0 13:8.29598 14:0 15:0 16:0 17:0 18:0 19:0 20:3.27519 21:3.21888 22:0 23:0 24:0 25:0 26:1.35674 27:0 28:0 29:6.08686 30:0 31:5.94647 32:0 33:0 34:0 35:0 36:0 37:5.9537 38:0 39:0 40:0 41:0 42:0 43:0 44:0 45:0 46:0 47:0 48:0 49:0 50:0 51:0 52:0 53:0 54:0 55:0 56:0 57:0 58:0 59:0 60:0 61:2.16282 62:0 63:0 64:0 65:0 66:0 67:0 68:0 69:0 70:0 71:0 72:0 73:0 74:0 75:0 76:0 77:0 78:0 79:0 80:0 81:0 82:0 83:0 84:0 85:0 86:0 87:0 88:0 89:0 90:0 91:0 92:0 93:0 94:0 95:0 96:0 97:0 98:0 99:0 100:0 101:0 102:0 103:0 104:0 105:0 106:0 107:0 108:0 109:0 110:0 111:0 112:0 113:0 114:0 115:0 116:0 117:0 118:0 119:0 120:0 121:0.502527 122:0 123:2.43612 124:0 125:0 126:0 127:0 128:0 129:0 130:0 131:0 132:0 133:0 134:0 135:0 136:0 137:0 138:0 139:1.02862 140:0 141:0 142:0 143:0 144:0 145:0 146:0 147:0 148:0 149:0 150:0 151:0 152:1.91393 153:1.58475 154:0 155:0 156:0 157:0 158:0 159:0 160:1.90298 161:2.20727 162:0 163:0 164:0 165:0 166:0 167:2.23026 168:3.01694 169:0 170:6.2861 171:2.12535 172:0 173:0 174:0 175:1.70645 176:3.03915 177:0 178:2.12026 179:1.7148 180:0 181:2.27789 182:0 183:0 184:0 185:0 186:0 187:0 188:0 189:0 190:0 191:0 192:0 193:0 194:0 195:0 196:0 197:0 198:0 199:0 
1 1 1 0:0 1:0 2:0 3:0 4:0 5:0 6:0 7:2.25379 8:0 9:0 10:0 11:0 12:0 13:0 14:0 15:0 16:0 17:0 18:0 19:0 20:0 21:0 22:0 23:0 24:0 25:0 26:0 27:0 28:0 29:0 30:0 31:0 32:0 33:0 34:0 35:0 36:0 37:0 38:0 39:0 40:0 41:0 42:0 43:0 44:0 45:0 46:2.30259 47:0 48:0 49:1.98413 50:0 51:0 52:0 53:0 54:0 55:0 56:0 57:0 58:0 59:0 60:0 61:0 62:0 63:0 64:0 65:0 66:5.58763 67:0 68:0 69:0 70:0 71:0 72:0 73:0 74:0 75:0 76:0 77:0 78:0 79:4.62799 80:0 81:0 82:0 83:0 84:0 85:0 86:0 87:0 88:0 89:0 90:0 91:0 92:0 93:0 94:0 95:0 96:0 97:0 98:0 99:3.15825 100:5.67612 101:0 102:0 103:0 104:0 105:0 106:0 107:0 108:0 109:0 110:0 111:0 112:0 113:0 114:0 115:0 116:0 117:0 118:0 119:0 120:1.6874 121:1.5475 122:0 123:0 124:0 125:0 126:0 127:0 128:0 129:0 130:0 131:0 132:0 133:0 134:0 135:0 136:0 137:0 138:0 139:1.02862 140:3.42652 141:0 142:2.3279 143:0 144:0 145:0 146:0 147:1.77196 148:0 149:0 150:0 151:0 152:0 153:0 154:0 155:0 156:0 157:0 158:0 159:0 160:0 161:0 162:0 163:0 164:0 165:0 166:0 167:0 168:0 169:0 170:0 171:0 172:0 173:0 174:0 175:0 176:0 177:0 178:0 179:0 180:0 181:0 182:0 183:0 184:0 185:0 186:0 187:0 188:0 189:0 190:0 191:0 192:0 193:0 194:0 195:0 196:0 197:0 198:0 199:0 
0.5791429556327055 0.8517686496912902 0.3832491762234391 0:0 1:0 2:6.57146 3:0 4:0 5:0 6:0 7:5.88114 8:0 9:2.81341 10:0 11:0 12:0 13:7.01288 14:2.81341 15:0 16:0 17:0 18:0 19:0 20:2.64241 21:5.45003 22:0 23:0 24:0 25:0 26:2.84726 27:0 28:0 29:0 30:0 31:0 32:0 33:0 34:0 35:0 36:0 37:4.22433 38:0 39:0 40:0 41:0 42:0 43:0 44:0 45:0 46:0 47:0 48:0 49:0 50:0 51:0 52:0 53:0 54:0 55:0 56:0 57:0 58:0 59:0 60:0 61:0 62:0 63:0 64:0 65:0 66:0 67:0 68:0 69:0 70:0 71:0 72:0 73:0 74:0 75:0 76:0 77:0 78:0 79:0 80:0 81:0 82:0 83:0 84:0 85:0 86:0 87:0 88:0 89:0 90:0 91:0 92:0 93:0 94:0 95:0 96:0 97:0 98:0 99:0 100:0 101:0 102:0 103:0 104:0 105:0 106:0 107:0 108:0 109:0 110:0 111:0 112:0 113:0 114:0 115:0 116:0 117:0 118:0 119:0 120:0 121:0.502527 122:0 123:0 124:0 125:0 126:0 127:0 128:0 129:0 130:8.05226 131:0 132:0 133:0 134:0 135:0 136:0 137:0 138:0 139:0 140:0 141:0 142:0 143:0 144:0 145:2.78973 146:0 147:0 148:0 149:0 150:0 151:0 152:0 153:0 154:0 155:0 156:0 157:0 158:0 159:0 160:1.90298 161:2.20727 162:0 163:0 164:0 165:0 166:0 167:0 168:1.43759 169:0 170:1.96611 171:0 172:0 173:0 174:0 175:1.70645 176:0 177:0 178:0 179:0 180:2.56364 181:0 182:0 183:0 184:0 185:0 186:0 187:0 188:0 189:0 190:0 191:0 192:0 193:0 194:0 195:0 196:0 197:0 198:0 199:0 
0.3677297353584588 0.6768249994932507 0.7295195150753734 0:0 1:0 2:0 3:0 4:5.32207 5:0 6:2.69563 7:0 8:2.38055 9:0 10:0 11:0 12:0 13:0 14:0 15:0 16:0 17:0 18:2.90042 19:0 20:0 21:0 22:3.21888 23:0 24:0 25:0 26:2.29715 27:0 28:0 29:0 30:0 31:0 32:0 33:3.05073 34:0 35:0 36:0 37:0 38:0 39:0 40:0 41:0 42:0 43:0 44:0 45:0 46:2.30259 47:0 48:0 49:3.35943 50:0 51:0 52:0 53:0 54:0 55:0 56:0 57:0 58:0 59:0 60:0 61:0 62:0 63:0 64:0 65:0 66:0 67:0 68:0 69:0 70:0 71:0 72:0 73:0 74:0 75:0 76:0 77:0 78:0 79:0 80:0 81:0 82:0 83:0 84:0 85:0 86:0 87:0 88:0 89:0 90:0 91:0 92:0 93:0 94:0 95:0 96:0 97:0 98:0 99:0 100:0 101:0 102:0 103:0 104:0 105:0 106:0 107:0 108:0 109:0 110:0 111:0 112:0 113:0 114:0 115:0 116:0 117:0 118:0 119:0 120:0 121:0 122:0 123:0 124:0.994252 125:0 126:0 127:0 128:0 129:0 130:0 131:0 132:0 133:0 134:0 135:0 136:0 137:0 138:0 139:2.15867 140:0 141:0 142:0 143:0 144:0 145:0 146:0 147:0 148:0 149:0 150:0 151:0 152:0 153:1.58475 154:0 155:0 156:0 157:0 158:0 159:0 160:0 161:0 162:0 163:1.09362 164:2.23026 165:0 166:0 167:0 168:0 169:0 170:0 171:0 172:0 173:0 174:0 175:0 176:0 177:0 178:0 179:0 180:0 181:0 182:0 183:0 184:0 185:0 186:0 187:0 188:0 189:0 190:0 191:0 192:0 193:0 194:0 195:0 196:0 197:0 198:3.39049 199:0 
0.9154287992366319 1 1 0:0 1:0 2:2.35388 3:0 4:0 5:0 6:0 7:0 8:0 9:0 10:0 11:0 12:0 13:0 14:0 15:0 16:0 17:0 18:4.91084 19:0 20:1.56065 21:0 22:0 23:0 24:0 25:0 26:1.35674 27:0 28:0 29:0 30:2.52573 31:0 32:1.6874 33:0 34:0 35:0 36:2.20727 37:0 38:0 39:0 40:0 41:0 42:0 43:0 44:0 45:0 46:0 47:0 48:0 49:0 50:0 51:0 52:0 53:0 54:0 55:0 56:0 57:0 58:0 59:0 60:0 61:2.16282 62:0 63:0 64:0 65:0 66:0 67:0 68:0 69:0 70:0 71:0 72:0 73:0 74:0 75:0 76:0 77:0 78:0 79:0 80:0 81:0 82:0 83:0 84:0 85:0 86:0 87:0 88:0 89:0 90:0 91:0 92:0 93:0 94:0 95:0 96:0 97:0 98:0 99:0 100:0 101:0 102:0 103:0 104:0 105:0 106:0 107:0 108:0 109:0 110:0 111:0 112:0 113:0 114:0 115:0 116:0 117:0 118:0 119:0 120:0 121:1.19918 122:0 123:0 124:0 125:0 126:0 127:0 128:0 129:0 130:0 131:0 132:0 133:0 134:0 135:0 136:0 137:0 138:0 139:0 140:0 141:0 142:0 143:0 144:0 145:0 146:0 147:1.77196 148:0 149:0 150:0 151:0 152:0 153:0 154:0 155:0 156:0 157:3.45439 158:0 159:0 160:0 161:0 162:0 163:1.09362 164:0 165:0 166:0 167:0 168:0 169:2.55748 170:0 171:1.25527 172:0 173:0 174:0 175:1.00786 176:0 177:0 178:0 179:0 180:0 181:0 182:0 183:0 184:0 185:0 186:0 187:0 188:0 189:0 190:0 191:0 192:0 193:0 194:0 195:0 196:0 197:0 198:0 199:0 
0.2591594151063006 0.2240799326969732 0.03766058650092147 0:0 1:0 2:2.35388 3:0 4:0 5:0 6:0 7:2.25379 8:0 9:0 10:0 11:0 12:0 13:0 14:4.76352 15:0 16:0 17:1.84833 18:6.92126 19:0 20:3.27519 21:0 22:0 23:0 24:0 25:0 26:0 27:3.98546 28:0 29:0 30:2.52573 31:1.93102 32:0 33:1.80181 34:0 35:0 36:0 37:0 38:0 39:0 40:0 41:0 42:0 43:0 44:0 45:0 46:3.89862 47:0 48:0 49:0 50:0 51:0 52:0 53:0 54:0 55:0 56:0 57:0 58:0 59:0 60:0 61:2.16282 62:0 63:0 64:0 65:0 66:0 67:0 68:0 69:0 70:0 71:0 72:0 73:0 74:0 75:0 76:0 77:0 78:0 79:0 80:0 81:0 82:0 83:0 84:0 85:0 86:0 87:0 88:0 89:0 90:0 91:0 92:0 93:0 94:0 95:0 96:0 97:0 98:0 99:0 100:0 101:0 102:0 103:0 104:0 105:0 106:0 107:0 108:0 109:0 110:0 111:0 112:0 113:0 114:0 115:0 116:0 117:0 118:0 119:0 120:0 121:0.502527 122:0 123:0 124:1.68342 125:0 126:0 127:0 128:0 129:0 130:0 131:0 132:0 133:0 134:0 135:0 136:0 137:0 138:0 139:2.15867 140:0 141:0 142:0 143:0 144:0 145:0 146:0 147:0 148:0 149:0 150:0 151:0 152:0 153:0 154:0 155:0 156:0 157:3.45439 158:0 159:0 160:0 161:0 162:0 163:1.85167 164:0 165:3.77617 166:0 167:3.77617 168:0 169:0 170:0 171:1.25527 172:0 173:0 174:4.40634 175:1.70645 176:0 177:0 178:0 179:2.90341 180:1.51413 181:0 182:0 183:0 184:0 185:0 186:0 187:0 188:0 189:0 190:0 191:0 192:0 193:0 194:0 195:0 196:0 197:0 198:0 199:0 
0.6545271069976576 0.4169865231276562 0 0:0 1:0 2:0 3:5.4385 4:0 5:9.03589 6:4.56409 7:0 8:0 9:6.71363 10:0 11:4.91084 12:0 13:0 14:6.71363 15:0 16:5.50711 17:1.84833 18:0 19:0 20:4.59753 21:0 22:0 23:0 24:4.33019 25:0 26:0 27:0 28:0 29:0 30:0 31:0 32:1.6874 33:1.80181 34:0 35:0 36:0 37:0 38:0 39:0 40:0 41:0 42:0 43:0 44:0 45:0 46:0 47:0 48:0 49:5.53922 50:0 51:0 52:2.09964 53:0 54:0 55:0 56:0 57:0 58:0 59:0 60:0 61:0 62:0 63:0 64:0 65:0 66:0 67:0 68:0 69:0 70:0 71:0 72:0 73:0 74:0 75:2.12026 76:0 77:0 78:0 79:0 80:0 81:0 82:0 83:0 84:0 85:0 86:0 87:0 88:0 89:0 90:0 91:0 92:0 93:0 94:0 95:0 96:0 97:0 98:0 99:0 100:0 101:0 102:0 103:0 104:0 105:0 106:0 107:0 108:0 109:0 110:0 111:0 112:0 113:0 114:0 115:0 116:0 117:0 118:0 119:0 120:0 121:1.40293 122:0 123:0 124:1.68342 125:0 126:0 127:0 128:0 129:0 130:0 131:0 132:0 133:0 134:0 135:0 136:0 137:0 138:0 139:1.7416 140:0 141:0 142:0 143:0 144:0 145:1.64766 146:0 147:0 148:0 149:0 150:0 151:1.30933 152:1.91393 153:3.32577 154:0 155:0 156:0 157:2.04022 158:0 159:0 160:0 161:0 162:4.08896 163:1.09362 164:0 165:0 166:0 167:2.23026 168:1.43759 169:0 170:0 171:1.25527 172:0 173:0 174:0 175:1.00786 176:0 177:0 178:0 179:0 180:0 181:0 182:0 183:0 184:0 185:0 186:0 187:0 188:0 189:0 190:0 191:0 192:0 193:0 194:0 195:0 196:0 197:0 198:0 199:0 
0.5803059934658948 0.5141892014401623 0.07112679407179391 0:0 1:0 2:0 3:0 4:0 5:2.65926 6:0 7:0 8:8.08885 9:2.81341 10:0 11:0 12:0 13:0 14:0 15:0 16:0 17:1.84833 18:0 19:0 20:0 21:0 22:0 23:0 24:2.55748 25:0 26:2.29715 27:0 28:0 29:4.91084 30:0 31:0 32:1.6874 33:0 34:0 35:3.04703 36:0 37:0 38:0 39:0 40:0 41:0 42:0 43:0 44:0 45:0 46:2.30259 47:0 48:8.39946 49:1.98413 50:0 51:0 52:0 53:0 54:0 55:0 56:0 57:0 58:0 59:0 60:0 61:0 62:0 63:0 64:0 65:0 66:0 67:2.04022 68:0 69:0 70:0 71:0 72:0 73:0 74:0 75:0 76:0 77:0 78:0 79:0 80:0 81:0 82:0 83:0 84:0 85:0 86:0 87:0 88:0 89:0 90:0 91:0 92:0 93:0 94:0 95:0 96:0 97:0 98:0 99:0 100:0 101:2.25379 102:0 103:0 104:0 105:0 106:0 107:0 108:0 109:0 110:0 111:0 112:0 113:0 114:0 115:0 116:0 117:0 118:0 119:0 120:0 121:0.850852 122:0 123:0 124:0.994252 125:0 126:0 127:0 128:0 129:0 130:0 131:0 132:0 133:0 134:0 135:0 136:0 137:0 138:0 139:1.02862 140:0 141:0 142:0 143:0 144:0 145:0 146:0 147:0 148:0 149:0 150:0 151:0 152:0 153:0 154:0 155:0 156:0 157:0 158:4.58505 159:0 160:1.12393 161:0 162:0 163:0 164:0 165:2.23026 166:0 167:0 168:0 169:0 170:0 171:0 172:0 173:0 174:2.09964 175:1.70645 176:2.45196 177:0 178:0 179:4.09201 180:1.51413 181:0 182:0 183:0 184:0 185:0 186:0 187:0 188:0 189:0 190:0 191:0 192:0 193:0 194:0 195:0 196:0 197:0 198:0 199:0 
0.6236554514591218 0.5816427607604654 0.3606327742251492 0:0 1:0 2:0 3:0 4:0 5:0 6:0 7:2.25379 8:0 9:0 10:0 11:2.90042 12:0 13:0 14:2.81341 15:0 16:0 17:3.87893 18:0 19:0 20:0 21:0 22:3.21888 23:0 24:0 25:0 26:1.35674 27:0 28:0 29:0 30:0 31:1.93102 32:0 33:1.80181 34:0 35:0 36:0 37:0 38:0 39:0 40:0 41:0 42:0 43:0 44:0 45:3.35241 46:0 47:0 48:0 49:0 50:0 51:0 52:0 53:0 54:0 55:0 56:0 57:0 58:0 59:0 60:0 61:0 62:2.90042 63:0 64:0 65:0 66:0 67:0 68:0 69:0 70:0 71:0 72:0 73:0 74:0 75:0 76:0 77:0 78:0 79:0 80:0 81:0 82:0 83:0 84:0 85:0 86:0 87:0 88:0 89:0 90:2.30259 91:0 92:0 93:0 94:0 95:0 96:0 97:0 98:0 99:0 100:0 101:0 102:0 103:0 104:0 105:0 106:0 107:0 108:0 109:0 110:0 111:0 112:0 113:0 114:0 115:0 116:0 117:0 118:0 119:0 120:0 121:0.850852 122:0 123:0 124:1.68342 125:0 126:0 127:0 128:0 129:0 130:0 131:0 132:0 133:0 134:0 135:0 136:0 137:0 138:0 139:1.02862 140:0 141:0 142:0 143:0 144:0 145:0 146:0 147:0 148:0 149:0 150:0 151:1.30933 152:0 153:1.58475 154:0 155:0 156:0 157:0 158:5.21358 159:0 160:0 161:0 162:1.94841 163:0 164:0 165:0 166:0 167:0 168:0 169:0 170:4.12611 171:1.25527 172:4.40634 173:0 174:0 175:0 176:0 177:0 178:4.44961 179:0 180:1.51413 181:0 182:0 183:0 184:0 185:0 186:0 187:0 188:0 189:0 190:0 191:0 192:0 193:0 194:0 195:0 196:0 197:0 198:0 199:0 
0.2728702324904115 0.06560084151704833 0 0:0 1:0 2:0 3:2.88005 4:0 5:0 6:0 7:0 8:0 9:0 10:0 11:2.90042 12:0 13:0 14:0 15:0 16:0 17:3.87893 18:0 19:0 20:0 21:0 22:9.48252 23:0 24:0 25:0 26:3.78768 27:0 28:0 29:0 30:2.52573 31:0 32:0 33:3.05073 34:0 35:0 36:0 37:0 38:0 39:0 40:0 41:0 42:0 43:0 44:0 45:5.67612 46:0 47:0 48:0 49:4.16392 50:0 51:0 52:0 53:0 54:0 55:0 56:0 57:0 58:0 59:0 60:0 61:0 62:0 63:0 64:0 65:0 66:0 67:0 68:0 69:0 70:0 71:0 72:0 73:0 74:0 75:0 76:0 77:0 78:0 79:0 80:0 81:0 82:0 83:0 84:0 85:0 86:0 87:0 88:0 89:0 90:0 91:0 92:0 93:0 94:0 95:0 96:0 97:0 98:0 99:0 100:0 101:0 102:0 103:0 104:0 105:0 106:0 107:0 108:0 109:0 110:0 111:0 112:0 113:0 114:0 115:0 116:0 117:0 118:0 119:0 120:0 121:0.850852 122:0 123:0 124:2.37258 125:0 126:0 127:2.65926 128:0 129:0 130:0 131:0 132:0 133:0 134:0 135:0 136:0 137:0 138:0 139:0 140:0 141:0 142:0 143:0 144:0 145:3.4578 146:0 147:0 148:0 149:0 150:0 151:0 152:0 153:1.58475 154:0 155:0 156:0 157:0 158:0 159:2.1848 160:0 161:0 162:0 163:0 164:0 165:0 166:0 167:0 168:1.43759 169:0 170:0 171:0 172:0 173:0 174:0 175:1.70645 176:0 177:0 178:0 179:0 180:1.51413 181:0 182:0 183:0 184:0 185:0 186:0 187:0 188:0 189:0 190:0 191:0 192:0 193:0 194:0 195:0 196:0 197:0 198:0 199:0 
0.4439100094395352 0.24094690777981 0.09846793956090617 0:0 1:0 2:0 3:0 4:0 5:0 6:2.69563 7:0 8:4.03062 9:2.81341 10:0 11:0 12:0 13:0 14:0 15:0 16:0 17:1.84833 18:6.92126 19:0 20:0 21:0 22:0 23:0 24:0 25:0 26:0 27:0 28:0 29:0 30:0 31:0 32:1.6874 33:0 34:0 35:0 36:2.20727 37:0 38:0 39:0 40:0 41:0 42:0 43:0 44:0 45:0 46:2.30259 47:0 48:0 49:0 50:0 51:0 52:0 53:0 54:0 55:0 56:0 57:0 58:0 59:0 60:0 61:0 62:0 63:0 64:0 65:0 66:0 67:0 68:0 69:0 70:0 71:0 72:0 73:0 74:0 75:0 76:0 77:0 78:0 79:0 80:0 81:0 82:0 83:0 84:0 85:0 86:0 87:0 88:0 89:0 90:0 91:0 92:0 93:0 94:0 95:0 96:0 97:0 98:0 99:0 100:0 101:0 102:0 103:0 104:0 105:0 106:0 107:0 108:0 109:0 110:0 111:0 112:0 113:0 114:0 115:0 116:0 117:0 118:0 119:0 120:0 121:1.31131 122:0 123:0 124:0.994252 125:0 126:0 127:5.58076 128:0 129:0 130:0 131:0 132:0 133:0 134:0 135:0 136:0 137:0 138:0 139:1.02862 140:0 141:0 142:0 143:0 144:0 145:1.64766 146:0 147:0 148:0 149:0 150:0 151:0 152:0 153:2.68321 154:0 155:0 156:0 157:0 158:5.70111 159:0 160:2.35869 161:0 162:1.94841 163:1.09362 164:0 165:0 166:0 167:0 168:1.43759 169:0 170:0 171:2.12535 172:0 173:0 174:2.09964 175:0 176:0 177:0 178:0 179:0 180:2.56364 181:0 182:0 183:0 184:0 185:0 186:0 187:0 188:0 189:0 190:0 191:0 192:0 193:0 194:0 195:0 196:0 197:0 198:0 199:0 
0.7004487071690825 1 1 0:0 1:0 2:0 3:1.70101 4:2.23026 5:0 6:2.69563 7:0 8:0 9:0 10:0 11:0 12:0 13:0 14:0 15:0 16:0 17:0 18:0 19:5.73628 20:0 21:0 22:0 23:0 24:0 25:0 26:0 27:2.35388 28:0 29:2.90042 30:4.27643 31:0 32:0 33:1.80181 34:0 35:0 36:0 37:0 38:0 39:0 40:0 41:0 42:0 43:0 44:0 45:0 46:0 47:0 48:0 49:0 50:0 51:0 52:0 53:0 54:0 55:0 56:0 57:0 58:0 59:0 60:0 61:0 62:2.90042 63:0 64:0 65:0 66:0 67:0 68:0 69:0 70:0 71:0 72:0 73:0 74:0 75:0 76:0 77:0 78:0 79:0 80:0 81:0 82:0 83:0 84:0 85:0 86:0 87:0 88:0 89:0 90:0 91:0 92:0 93:0 94:0 95:0 96:0 97:0 98:0 99:0 100:0 101:0 102:0 103:0 104:0 105:0 106:0 107:0 108:0 109:0 110:0 111:0 112:0 113:0 114:0 115:0 116:0 117:0 118:0 119:0 120:0 121:0.502527 122:2.59027 123:0 124:0.994252 125:0 126:0 127:0 128:0 129:0 130:0 131:0 132:0 133:0 134:0 135:0 136:0 137:0 138:0 139:0 140:0 141:0 142:0 143:0 144:0 145:0 146:0 147:0 148:0 149:0 150:0 151:0 152:0 153:2.68321 154:0 155:0 156:0 157:0 158:0 159:0 160:0 161:0 162:0 163:0 164:0 165:0 166:0 167:0 168:0 169:0 170:0 171:0 172:0 173:2.09964 174:0 175:0 176:0 177:0 178:0 179:0 180:3.17757 181:0 182:0 183:0 184:0 185:0 186:0 187:0 188:0 189:0 190:0 191:0 192:0 193:0 194:0 195:0 196:0 197:0 198:0 199:0 
0.3229392064698295 0.8442146670663777 0.2318687582645276 0:0 1:0 2:0 3:1.70101 4:0 5:0 6:0 7:0 8:0 9:0 10:0 11:0 12:0 13:0 14:0 15:0 16:0 17:1.84833 18:0 19:0 20:1.56065 21:0 22:8.98633 23:0 24:0 25:0 26:2.84726 27:0 28:0 29:0 30:0 31:0 32:0 33:3.05073 34:0 35:0 36:2.20727 37:4.22433 38:0 39:0 40:0 41:0 42:0 43:0 44:0 45:0 46:0 47:0 48:0 49:1.98413 50:0 51:0 52:0 53:0 54:0 55:0 56:0 57:0 58:0 59:0 60:0 61:0 62:0 63:0 64:0 65:0 66:0 67:0 68:0 69:0 70:0 71:0 72:0 73:0 74:0 75:0 76:0 77:0 78:0 79:0 80:0 81:0 82:0 83:0 84:0 85:0 86:0 87:0 88:0 89:0 90:0 91:0 92:0 93:0 94:0 95:0 96:0 97:0 98:0 99:0 100:0 101:0 102:0 103:0 104:0 105:0 106:0 107:0 108:0 109:0 110:0 111:0 112:0 113:0 114:0 115:0 116:0 117:0 118:0 119:0 120:0 121:0 122:0 123:0 124:0.994252 125:2.35388 126:0 127:0 128:0 129:0 130:0 131:0 132:0 133:0 134:0 135:0 136:0 137:0 138:0 139:1.7416 140:0 141:0 142:0 143:0 144:0 145:0 146:0 147:0 148:0 149:0 150:0 151:0 152:0 153:0 154:0 155:0 156:0 157:0 158:0 159:0 160:1.12393 161:0 162:0 163:1.09362 164:0 165:0 166:0 167:0 168:3.01694 169:0 170:0 171:1.25527 172:0 173:3.55501 174:0 175:0 176:1.44817 177:0 178:2.12026 179:1.7148 180:0 181:0 182:0 183:0 184:0 185:0 186:0 187:0 188:0 189:0 190:0 191:0 192:0 193:0 194:0 195:0 196:0 197:0 198:0 199:0 
0.3907285222362977 0.4850500240884502 0.1828362920410654 0:0 1:0 2:3.98546 3:0 4:0 5:0 6:4.56409 7:0 8:0 9:8.99511 10:0 11:0 12:0 13:0 14:2.81341 15:0 16:0 17:0 18:0 19:0 20:4.59753 21:0 22:0 23:0 24:0 25:0 26:0 27:0 28:0 29:0 30:2.52573 31:4.05247 32:2.85702 33:0 34:0 35:0 36:0 37:0 38:0 39:0 40:0 41:0 42:0 43:0 44:0 45:3.35241 46:2.30259 47:0 48:0 49:0 50:0 51:0 52:0 53:0 54:0 55:0 56:0 57:0 58:0 59:0 60:0 61:0 62:0 63:0 64:0 65:0 66:0 67:0 68:0 69:0 70:0 71:0 72:0 73:0 74:0 75:0 76:0 77:0 78:0 79:0 80:0 81:0 82:0 83:0 84:0 85:0 86:0 87:0 88:0 89:0 90:0 91:0 92:0 93:0 94:0 95:0 96:0 97:0 98:0 99:0 100:0 101:0 102:0 103:0 104:0 105:0 106:0 107:0 108:0 109:0 110:0 111:0 112:0 113:0 114:0 115:0 116:0 117:0 118:0 119:0 120:0 121:0.850852 122:0 123:0 124:0.994252 125:0 126:0 127:0 128:0 129:0 130:0 131:0 132:0 133:0 134:0 135:0 136:0 137:0 138:0 139:0 140:0 141:0 142:0 143:2.81341 144:0 145:0 146:0 147:0 148:0 149:0 150:0 151:1.30933 152:0 153:1.58475 154:0 155:0 156:0 157:0 158:0 159:0 160:0 161:0 162:0 163:0 164:0 165:3.77617 166:0 167:0 168:2.43405 169:2.55748 170:0 171:2.12535 172:0 173:2.09964 174:5.01037 175:1.00786 176:1.44817 177:0 178:2.12026 179:0 180:0 181:0 182:0 183:0 184:0 185:0 186:0 187:0 188:0 189:0 190:0 191:0 192:0 193:0 194:0 195:0 196:0 197:0 198:0 199:0 
0.6091148226378305 1 1 0:0 1:0 2:0 3:0 4:0 5:0 6:0 7:0 8:0 9:0 10:0 11:0 12:0 13:0 14:0 15:0 16:4.4431 17:4.41066 18:0 19:0 20:0 21:0 22:0 23:0 24:0 25:0 26:0 27:0 28:0 29:0 30:2.52573 31:0 32:0 33:1.80181 34:0 35:0 36:3.73724 37:0 38:0 39:0 40:0 41:0 42:0 43:0 44:0 45:0 46:0 47:0 48:0 49:0 50:0 51:0 52:0 53:0 54:0 55:0 56:0 57:0 58:0 59:0 60:0 61:0 62:0 63:0 64:3.28341 65:0 66:0 67:2.04022 68:0 69:0 70:0 71:0 72:0 73:0 74:0 75:0 76:0 77:0 78:0 79:0 80:0 81:0 82:0 83:0 84:0 85:0 86:0 87:0 88:0 89:0 90:0 91:0 92:0 93:0 94:0 95:0 96:0 97:0 98:0 99:0 100:0 101:0 102:0 103:0 104:0 105:0 106:0 107:0 108:0 109:0 110:0 111:0 112:0 113:0 114:0 115:0 116:0 117:0 118:0 119:0 120:0 121:0.850852 122:0 123:0 124:0 125:0 126:0 127:0 128:0 129:0 130:0 131:0 132:0 133:0 134:0 135:0 136:0 137:0 138:0 139:0 140:0 141:0 142:0 143:0 144:0 145:0 146:0 147:0 148:0 149:0 150:0 151:2.21689 152:0 153:0 154:0 155:0 156:0 157:0 158:0 159:0 160:0 161:2.20727 162:0 163:1.09362 164:0 165:0 166:0 167:0 168:0 169:0 170:0 171:0 172:0 173:0 174:0 175:1.70645 176:0 177:0 178:0 179:1.7148 180:0 181:0 182:0 183:0 184:0 185:0 186:0 187:0 188:0 189:0 190:0 191:0 192:0 193:0 194:0 195:0 196:0 197:0 198:0 199:0 
0.5025293190804893 0.3317762886236995 0 0:0 1:0 2:0 3:0 4:3.77617 5:0 6:0 7:0 8:0 9:0 10:0 11:0 12:0 13:0 14:4.76352 15:0 16:0 17:4.41066 18:6.08686 19:8.73919 20:0 21:0 22:0 23:0 24:0 25:0 26:0 27:7.99823 28:0 29:0 30:2.52573 31:0 32:2.85702 33:1.80181 34:0 35:6.39453 36:0 37:0 38:0 39:0 40:0 41:0 42:0 43:0 44:0 45:0 46:2.30259 47:0 48:0 49:0 50:0 51:0 52:0 53:0 54:1.94841 55:0 56:0 57:0 58:0 59:0 60:0 61:0 62:0 63:0 64:0 65:0 66:0 67:0 68:0 69:0 70:0 71:0 72:0 73:0 74:0 75:0 76:0 77:0 78:0 79:0 80:0 81:0 82:0 83:0 84:0 85:0 86:0 87:0 88:0 89:0 90:0 91:0 92:0 93:0 94:0 95:0 96:0 97:0 98:0 99:0 100:0 101:0 102:0 103:0 104:0 105:0 106:0 107:0 108:0 109:0 110:0 111:0 112:0 113:0 114:0 115:0 116:0 117:0 118:0 119:0 120:0 121:0.850852 122:0 123:0 124:1.68342 125:0 126:0 127:0 128:0 129:0 130:0 131:0 132:0 133:0 134:0 135:0 136:0 137:0 138:0 139:3.28873 140:0 141:0 142:0 143:0 144:0 145:0 146:0 147:0 148:0 149:0 150:0 151:0 152:0 153:0 154:0 155:0 156:0 157:0 158:0 159:0 160:0 161:0 162:1.94841 163:0 164:0 165:0 166:0 167:0 168:0 169:0 170:0 171:0 172:0 173:0 174:0 175:1.70645 176:2.45196 177:0 178:0 179:0 180:0 181:0 182:0 183:0 184:0 185:0 186:0 187:0 188:0 189:0 190:0 191:0 192:0 193:0 194:0 195:0 196:0 197:0 198:0 199:0 
0.05621178808372571 0.2004464939984886 0.4251622413735066 0:0 1:0 2:2.35388 3:0 4:0 5:0 6:6.43256 7:0 8:4.99584 9:0 10:0 11:0 12:0 13:0 14:0 15:0 16:0 17:0 18:0 19:0 20:0 21:0 22:0 23:0 24:0 25:0 26:0 27:0 28:2.99573 29:2.90042 30:2.52573 31:1.93102 32:2.85702 33:0 34:0 35:0 36:0 37:2.49496 38:0 39:0 40:0 41:0 42:0 43:0 44:0 45:0 46:0 47:0 48:3.21888 49:1.98413 50:0 51:0 52:0 53:0 54:0 55:0 56:0 57:0 58:0 59:0 60:0 61:2.16282 62:0 63:0 64:0 65:0 66:0 67:0 68:0 69:0 70:0 71:0 72:0 73:0 74:0 75:0 76:0 77:0 78:0 79:0 80:0 81:0 82:0 83:0 84:0 85:0 86:0 87:0 88:0 89:0 90:0 91:0 92:0 93:0 94:0 95:0 96:0 97:0 98:0 99:0 100:0 101:0 102:0 103:0 104:0 105:0 106:0 107:0 108:0 109:0 110:0 111:0 112:0 113:0 114:0 115:0 116:0 117:0 118:0 119:0 120:0 121:0 122:0 123:0 124:0 125:0 126:0 127:0 128:0 129:0 130:0 131:0 132:0 133:0 134:0 135:0 136:0 137:0 138:0 139:0 140:0 141:0 142:0 143:0 144:0 145:0 146:0 147:0 148:0 149:0 150:0 151:0 152:0 153:1.58475 154:0 155:0 156:0 157:2.04022 158:0 159:0 160:1.12393 161:0 162:0 163:1.09362 164:0 165:0 166:0 167:0 168:0 169:0 170:0 171:3.27554 172:0 173:0 174:2.09964 175:0 176:0 177:0 178:0 179:0 180:0 181:0 182:0 183:0 184:0 185:0 186:0 187:0 188:0 189:0 190:0 191:0 192:0 193:0 194:0 195:0 196:0 197:0 198:0 199:0 
0 0.7514528247883039 1 0:0 1:0 2:0 3:4.43867 4:2.23026 5:2.65926 6:0 7:0 8:0 9:0 10:0 11:0 12:0 13:0 14:0 15:0 16:0 17:3.12949 18:0 19:0 20:0 21:0 22:3.21888 23:0 24:0 25:0 26:1.35674 27:0 28:0 29:0 30:0 31:3.2695 32:2.85702 33:0 34:0 35:0 36:0 37:0 38:0 39:0 40:0 41:0 42:0 43:0 44:0 45:3.35241 46:0 47:0 48:0 49:0 50:0 51:0 52:0 53:0 54:0 55:0 56:0 57:0 58:0 59:0 60:0 61:0 62:0 63:0 64:0 65:0 66:0 67:0 68:0 69:0 70:0 71:0 72:0 73:0 74:0 75:0 76:0 77:0 78:0 79:0 80:0 81:0 82:0 83:0 84:0 85:0 86:0 87:0 88:0 89:0 90:0 91:0 92:0 93:0 94:0 95:0 96:0 97:0 98:0 99:0 100:0 101:0 102:0 103:0 104:0 105:0 106:0 107:0 108:0 109:0 110:0 111:0 112:0 113:0 114:0 115:0 116:0 117:0 118:0 119:0 120:0 121:0.850852 122:0 123:0 124:0 125:0 126:0 127:0 128:0 129:0 130:0 131:0 132:0 133:0 134:0 135:0 136:0 137:0 138:0 139:0 140:0 141:0 142:0 143:0 144:0 145:0 146:0 147:0 148:0 149:0 150:0 151:0 152:0 153:0 154:0 155:0 156:0 157:0 158:0 159:0 160:1.12393 161:0 162:1.94841 163:1.09362 164:0 165:0 166:0 167:0 168:0 169:0 170:0 171:1.25527 172:0 173:0 174:0 175:0 176:1.44817 177:0 178:0 179:0 180:2.56364 181:0 182:0 183:0 184:0 185:0 186:0 187:0 188:0 189:0 190:0 191:0 192:0 193:0 194:0 195:0 196:0 197:0 198:0 199:0 
0.4937348802543997 0.4090211005997539 0.07629007491174548 0:0 1:0 2:0 3:1.70101 4:0 5:0 6:0 7:0 8:0 9:0 10:0 11:0 12:0 13:2.38055 14:0 15:0 16:0 17:0 18:0 19:0 20:1.56065 21:0 22:9.48252 23:0 24:0 25:0 26:2.84726 27:0 28:0 29:0 30:0 31:0 32:0 33:0 34:0 35:3.04703 36:2.20727 37:2.49496 38:0 39:0 40:0 41:0 42:0 43:0 44:0 45:7.0354 46:0 47:0 48:0 49:0 50:0 51:0 52:2.09964 53:0 54:0 55:0 56:0 57:0 58:0 59:0 60:0 61:0 62:0 63:0 64:0 65:0 66:0 67:0 68:0 69:0 70:0 71:0 72:0 73:0 74:0 75:0 76:3.21888 77:0 78:0 79:0 80:0 81:0 82:0 83:0 84:0 85:0 86:0 87:0 88:0 89:0 90:0 91:0 92:0 93:0 94:0 95:0 96:0 97:0 98:0 99:0 100:0 101:0 102:0 103:0 104:0 105:0 106:0 107:0 108:0 109:0 110:0 111:0 112:0 113:0 114:0 115:0 116:0 117:0 118:0 119:0 120:0 121:1.19918 122:0 123:0 124:0.994252 125:0 126:0 127:2.65926 128:0 129:0 130:0 131:0 132:0 133:0 134:0 135:0 136:0 137:0 138:0 139:0 140:0 141:0 142:0 143:0 144:0 145:0 146:2.90042 147:0 148:0 149:0 150:0 151:0 152:0 153:2.68321 154:0 155:0 156:0 157:0 158:0 159:0 160:0 161:4.63221 162:1.94841 163:1.85167 164:0 165:0 166:0 167:0 168:1.43759 169:0 170:3.32892 171:1.25527 172:0 173:0 174:0 175:0 176:0 177:0 178:0 179:0 180:3.17757 181:0 182:0 183:0 184:0 185:0 186:0 187:0 188:0 189:0 190:0 191:0 192:0 193:0 194:0 195:0 196:0 197:0 198:0 199:0 
0.9527754398462799 0.6729547332073695 0.1159676676590964 0:0 1:0 2:0 3:6.61754 4:5.32207 5:2.65926 6:10.1695 7:0 8:7.61114 9:11.2416 10:0 11:6.08686 12:0 13:2.38055 14:0 15:0 16:6.84761 17:7.08504 18:0 19:2.73337 20:3.27519 21:0 22:0 23:8.98633 24:2.55748 25:0 26:3.54032 27:7.52588 28:0 29:2.90042 30:4.27643 31:4.05247 32:3.5412 33:5.03022 34:0 35:0 36:0 37:4.22433 38:0 39:3.35241 40:0 41:7.0354 42:0 43:0 44:0 45:0 46:7.36188 47:0 48:8.39946 49:6.74187 50:0 51:0 52:0 53:0 54:0 55:0 56:0 57:0 58:0 59:0 60:0 61:3.66198 62:0 63:2.90042 64:0 65:0 66:0 67:0 68:0 69:0 70:0 71:0 72:0 73:0 74:0 75:3.58992 76:0 77:0 78:1.54881 79:0 80:0 81:0 82:0 83:0 84:0 85:0 86:0 87:0 88:0 89:0 90:2.30259 91:0 92:0 93:0 94:0 95:0 96:0 97:0 98:0 99:0 100:0 101:0 102:0 103:0 104:0 105:0 106:0 107:0 108:0 109:0 110:0 111:0 112:0 113:0 114:0 115:0 116:0 117:0 118:0 119:0 120:0 121:1.70753 122:0 123:5.11246 124:2.08655 125:6.1423 126:0 127:2.65926 128:0 129:0 130:2.73337 131:0 132:0 133:0 134:0 135:3.59357 136:0 137:1.83258 138:0 139:4.00171 140:0 141:5.80159 142:0 143:0 144:3.42214 145:0 146:0 147:1.77196 148:0 149:0 150:0 151:2.21689 152:0 153:2.68321 154:0 155:0 156:0 157:2.04022 158:0 159:0 160:2.35869 161:3.73724 162:7.35056 163:2.85375 164:3.77617 165:8.67656 166:0 167:0 168:4.59629 169:0 170:3.32892 171:3.27554 172:2.09964 173:0 174:3.55501 175:1.70645 176:0 177:0 178:2.12026 179:2.90341 180:0 181:0 182:0 183:0 184:0 185:0 186:0 187:0 188:0 189:0 190:0 191:0 192:0 193:0 194:0 195:0 196:0 197:0 198:0 199:0 
0.9662492729273706 0.6773557481433231 0.1048508739873131 0:0 1:0 2:0 3:0 4:2.23026 5:4.50252 6:0 7:2.25379 8:7.33075 9:4.76352 10:0 11:6.92126 12:0 13:0 14:8.99511 15:0 16:2.62417 17:9.44658 18:0 19:5.73628 20:2.64241 21:0 22:0 23:8.39946 24:4.33019 25:0 26:6.14107 27:0 28:0 29:0 30:4.27643 31:6.37736 32:1.6874 33:7.45137 34:0 35:15.0274 36:0 37:0 38:0 39:0 40:0 41:7.0354 42:0 43:0 44:0 45:0 46:5.49465 47:0 48:0 49:0 50:0 51:0 52:0 53:0 54:0 55:0 56:0 57:0 58:0 59:0 60:0 61:0 62:0 63:0 64:0 65:0 66:0 67:2.04022 68:0 69:0 70:0 71:0 72:0 73:0 74:0 75:0 76:0 77:0 78:0 79:0 80:0 81:0 82:2.99573 83:0 84:0 85:0 86:0 87:0 88:0 89:0 90:2.30259 91:0 92:0 93:0 94:0 95:0 96:0 97:0 98:0 99:0 100:0 101:0 102:0 103:0 104:0 105:0 106:0 107:0 108:0 109:0 110:0 111:0 112:0 113:0 114:0 115:0 116:0 117:0 118:0 119:0 120:0 121:1.05461 122:0 123:0 124:3.06174 125:0 126:0 127:0 128:0 129:0 130:0 131:0 132:6.08444 133:0 134:0 135:0 136:0 137:0 138:0 139:1.7416 140:0 141:0 142:0 143:0 144:0 145:0 146:0 147:1.77196 148:0 149:0 150:0 151:2.74778 152:0 153:1.58475 154:0 155:0 156:0 157:4.28163 158:0 159:0 160:1.90298 161:0 162:4.64949 163:2.60971 164:3.77617 165:4.68046 166:3.77617 167:0 168:3.43051 169:0 170:0 171:1.25527 172:0 173:0 174:0 175:0 176:0 177:0 178:0 179:3.5987 180:1.51413 181:0 182:0 183:0 184:0 185:0 186:0 187:0 188:0 189:0 190:0 191:0 192:0 193:0 194:0 195:0 196:0 197:0 198:5.22535 199:0 
0.8549655027056817 1 0.7932162287487293 0:0 1:0 2:0 3:0 4:0 5:0 6:2.69563 7:0 8:0 9:0 10:0 11:0 12:0 13:0 14:0 15:0 16:0 17:1.84833 18:0 19:0 20:0 21:0 22:0 23:9.48252 24:0 25:0 26:0 27:0 28:0 29:0 30:0 31:0 32:0 33:0 34:0 35:0 36:0 37:0 38:0 39:0 40:0 41:8.7479 42:0 43:0 44:0 45:0 46:0 47:0 48:0 49:0 50:0 51:0 52:0 53:0 54:0 55:0 56:0 57:0 58:0 59:0 60:0 61:0 62:0 63:0 64:0 65:0 66:0 67:0 68:0 69:0 70:0 71:0 72:0 73:0 74:0 75:0 76:0 77:0 78:0 79:0 80:0 81:0 82:0 83:0 84:0 85:0 86:0 87:0 88:0 89:0 90:3.89862 91:0 92:0 93:0 94:0 95:0 96:0 97:0 98:0 99:0 100:0 101:2.25379 102:0 103:0 104:0 105:0 106:0 107:0 108:0 109:0 110:0 111:0 112:0 113:0 114:0 115:0 116:0 117:0 118:0 119:0 120:0 121:0 122:0 123:0 124:0 125:0 126:0 127:0 128:0 129:0 130:0 131:0 132:0 133:0 134:0 135:0 136:0 137:0 138:0 139:0 140:0 141:0 142:0 143:0 144:0 145:0 146:0 147:0 148:0 149:0 150:0 151:1.30933 152:0 153:0 154:0 155:0 156:0 157:0 158:0 159:0 160:0 161:0 162:0 163:0 164:0 165:0 166:0 167:0 168:0 169:0 170:0 171:0 172:0 173:0 174:0 175:0 176:0 177:0 178:0 179:0 180:0 181:0 182:0 183:0 184:0 185:0 186:0 187:0 188:0 189:0 190:0 191:0 192:0 193:0 194:0 195:0 196:0 197:0 198:0 199:0 
0.2209868598629662 0.2429744726564647 0.0934291873085311 0:0 1:0 2:0 3:1.70101 4:5.32207 5:2.65926 6:7.52554 7:2.25379 8:0 9:7.34142 10:0 11:0 12:0 13:0 14:0 15:0 16:0 17:0 18:2.90042 19:0 20:0 21:0 22:0 23:0 24:0 25:0 26:1.35674 27:4.93988 28:0 29:0 30:0 31:0 32:1.6874 33:0 34:0 35:3.04703 36:0 37:0 38:0 39:0 40:0 41:0 42:0 43:0 44:0 45:3.35241 46:0 47:0 48:0 49:1.98413 50:0 51:0 52:0 53:0 54:0 55:0 56:0 57:0 58:0 59:0 60:0 61:0 62:0 63:0 64:0 65:0 66:0 67:0 68:0 69:0 70:0 71:0 72:0 73:0 74:0 75:0 76:0 77:0 78:0 79:0 80:0 81:0 82:0 83:0 84:0 85:0 86:0 87:0 88:0 89:0 90:0 91:0 92:0 93:0 94:0 95:0 96:0 97:0 98:0 99:0 100:0 101:0 102:0 103:0 104:0 105:0 106:0 107:0 108:0 109:0 110:0 111:0 112:0 113:0 114:0 115:0 116:0 117:0 118:0 119:0 120:0 121:0.502527 122:0 123:0 124:1.68342 125:0 126:0 127:0 128:0 129:0 130:0 131:0 132:0 133:0 134:0 135:0 136:0 137:0 138:0 139:2.87166 140:0 141:0 142:0 143:2.81341 144:0 145:0 146:0 147:0 148:0 149:0 150:0 151:0 152:0 153:0 154:0 155:0 156:0 157:0 158:0 159:0 160:1.12393 161:2.20727 162:1.94841 163:0 164:0 165:0 166:0 167:0 168:0 169:0 170:0 171:0 172:0 173:0 174:0 175:1.00786 176:0 177:0 178:2.12026 179:0 180:0 181:0 182:0 183:0 184:0 185:0 186:0 187:0 188:0 189:0 190:0 191:0 192:0 193:0 194:0 195:0 196:0 197:0 198:0 199:0 
0.6225109123227948 0.3300770818634182 0 0:0 1:0 2:6.93431 3:1.70101 4:0 5:0 6:6.43256 7:3.81601 8:4.99584 9:2.81341 10:0 11:0 12:0 13:4.03062 14:0 15:0 16:0 17:3.12949 18:4.91084 19:2.73337 20:2.64241 21:8.39946 22:0 23:0 24:0 25:0 26:0 27:4.93988 28:9.22518 29:6.08686 30:0 31:3.2695 32:4.02663 33:0 34:0 35:0 36:2.20727 37:4.22433 38:0 39:0 40:0 41:0 42:0 43:0 44:0 45:3.35241 46:0 47:0 48:3.21888 49:1.98413 50:0 51:0 52:0 53:0 54:0 55:0 56:0 57:0 58:0 59:0 60:0 61:2.16282 62:0 63:0 64:0 65:0 66:0 67:0 68:0 69:0 70:0 71:0 72:0 73:0 74:0 75:0 76:0 77:0 78:0 79:0 80:0 81:0 82:0 83:0 84:0 85:0 86:0 87:0 88:0 89:0 90:0 91:0 92:0 93:0 94:0 95:0 96:0 97:0 98:0 99:0 100:0 101:0 102:0 103:0 104:0 105:0 106:0 107:0 108:0 109:0 110:0 111:0 112:0 113:0 114:0 115:0 116:0 117:0 118:0 119:0 120:0 121:1.5475 122:0 123:0 124:0 125:0 126:0 127:0 128:0 129:0 130:0 131:0 132:0 133:0 134:0 135:0 136:0 137:0 138:0 139:1.02862 140:0 141:0 142:0 143:0 144:0 145:0 146:0 147:0 148:0 149:0 150:0 151:0 152:0 153:0 154:0 155:0 156:0 157:2.04022 158:0 159:0 160:1.90298 161:0 162:1.94841 163:1.09362 164:0 165:3.77617 166:0 167:0 168:3.01694 169:0 170:0 171:2.99543 172:0 173:0 174:2.09964 175:1.70645 176:0 177:0 178:0 179:0 180:1.51413 181:0 182:0 183:0 184:0 185:0 186:0 187:0 188:0 189:0 190:0 191:0 192:0 193:0 194:0 195:0 196:0 197:0 198:0 199:0 
0.2864806515758819 1 1 0:0 1:0 2:0 3:0 4:0 5:0 6:0 7:0 8:5.68069 9:0 10:0 11:2.90042 12:0 13:0 14:0 15:0 16:2.62417 17:0 18:0 19:2.73337 20:1.56065 21:0 22:0 23:0 24:0 25:0 26:1.35674 27:0 28:0 29:0 30:0 31:0 32:0 33:1.80181 34:0 35:0 36:0 37:0 38:0 39:0 40:0 41:0 42:0 43:0 44:0 45:0 46:0 47:0 48:0 49:0 50:0 51:0 52:0 53:0 54:0 55:0 56:0 57:0 58:0 59:0 60:0 61:0 62:0 63:0 64:0 65:0 66:0 67:0 68:0 69:0 70:0 71:0 72:0 73:0 74:0 75:0 76:0 77:0 78:0 79:0 80:0 81:0 82:0 83:0 84:0 85:0 86:0 87:0 88:0 89:0 90:0 91:0 92:0 93:0 94:0 95:0 96:0 97:0 98:0 99:0 100:0 101:0 102:0 103:0 104:0 105:0 106:0 107:0 108:0 109:0 110:0 111:0 112:0 113:0 114:0 115:0 116:0 117:0 118:0 119:0 120:0 121:0 122:0 123:0 124:0 125:0 126:0 127:0 128:0 129:0 130:0 131:0 132:0 133:0 134:0 135:0 136:0 137:0 138:0 139:1.7416 140:0 141:0 142:2.3279 143:0 144:0 145:0 146:0 147:0 148:0 149:0 150:0 151:0 152:0 153:1.58475 154:0 155:0 156:0 157:0 158:0 159:0 160:0 161:0 162:3.29895 163:1.85167 164:0 165:0 166:0 167:0 168:0 169:0 170:0 171:0 172:0 173:0 174:2.09964 175:0 176:1.44817 177:0 178:0 179:0 180:1.51413 181:0 182:0 183:0 184:0 185:0 186:0 187:0 188:0 189:0 190:0 191:0 192:0 193:0 194:0 195:0 196:0 197:0 198:0 199:0 
-0.4131242899109021 0.3040929688955141 0.09289409619028684 0:0 1:0 2:0 3:0 4:0 5:0 6:0 7:0 8:0 9:0 10:0 11:0 12:0 13:0 14:0 15:0 16:0 17:0 18:0 19:0 20:1.56065 21:0 22:0 23:0 24:2.55748 25:0 26:1.35674 27:0 28:0 29:0 30:0 31:0 32:0 33:1.80181 34:3.61745 35:0 36:0 37:0 38:0 39:0 40:0 41:0 42:0 43:0 44:0 45:0 46:2.30259 47:0 48:0 49:0 50:0 51:0 52:2.09964 53:7.0354 54:4.64949 55:0 56:0 57:0 58:0 59:0 60:0 61:2.16282 62:0 63:0 64:0 65:3.28341 66:5.10981 67:0 68:0 69:0 70:0 71:0 72:3.50656 73:0 74:0 75:0 76:0 77:0 78:2.62237 79:0 80:0 81:5.25061 82:0 83:0 84:0 85:0 86:0 87:0 88:0 89:0 90:4.83223 91:0 92:0 93:0 94:0 95:0 96:0 97:0 98:0 99:0 100:0 101:2.25379 102:0 103:0 104:0 105:0 106:0 107:0 108:0 109:0 110:0 111:0 112:0 113:0 114:0 115:0 116:0 117:0 118:0 119:0 120:0 121:0.850852 122:0 123:0 124:0 125:0 126:0 127:0 128:3.42214 129:0 130:0 131:0 132:0 133:0 134:0 135:0 136:5.11613 137:4.37308 138:0 139:1.02862 140:0 141:0 142:0 143:0 144:4.24166 145:0 146:0 147:0 148:0 149:0 150:3.66198 151:1.30933 152:0 153:0 154:0 155:0 156:0 157:2.04022 158:0 159:0 160:0 161:0 162:0 163:0 164:0 165:0 166:0 167:0 168:1.43759 169:0 170:0 171:1.25527 172:3.55501 173:0 174:0 175:1.00786 176:0 177:0 178:2.12026 179:1.7148 180:0 181:0 182:0 183:0 184:0 185:0 186:0 187:0 188:0 189:0 190:0 191:0 192:0 193:0 194:0 195:0 196:0 197:0 198:0 199:0 
-0.5037315020649332 0.3297200935670243 0.0161387916996748 0:0 1:0 2:0 3:0 4:0 5:0 6:0 7:0 8:0 9:0 10:0 11:0 12:0 13:0 14:0 15:0 16:0 17:0 18:0 19:0 20:1.56065 21:0 22:0 23:0 24:2.55748 25:0 26:2.84726 27:0 28:0 29:0 30:0 31:0 32:0 33:0 34:3.61745 35:0 36:0 37:0 38:0 39:0 40:0 41:0 42:0 43:0 44:0 45:0 46:3.89862 47:0 48:0 49:0 50:0 51:0 52:3.55501 53:7.0354 54:4.64949 55:3.21888 56:0 57:0 58:7.19093 59:0 60:0 61:2.16282 62:0 63:0 64:3.28341 65:3.28341 66:5.10981 67:0 68:0 69:0 70:0 71:0 72:3.50656 73:0 74:0 75:0 76:0 77:0 78:3.69592 79:0 80:2.73337 81:6.50799 82:0 83:0 84:0 85:0 86:0 87:0 88:0 89:0 90:3.89862 91:0 92:0 93:0 94:0 95:0 96:0 97:0 98:0 99:0 100:0 101:2.25379 102:0 103:0 104:0 105:0 106:0 107:0 108:0 109:0 110:0 111:0 112:0 113:0 114:0 115:0 116:0 117:0 118:0 119:0 120:0 121:1.5475 122:0 123:0 124:0 125:0 126:0 127:0 128:3.42214 129:0 130:0 131:0 132:0 133:0 134:0 135:0 136:4.78201 137:4.37308 138:0 139:1.02862 140:0 141:0 142:0 143:0 144:4.24166 145:1.64766 146:0 147:0 148:0 149:0 150:3.66198 151:1.30933 152:0 153:2.68321 154:0 155:0 156:0 157:3.45439 158:0 159:0 160:0 161:0 162:0 163:1.09362 164:2.23026 165:0 166:6.22636 167:5.81974 168:1.43759 169:0 170:0 171:1.25527 172:3.55501 173:0 174:0 175:1.00786 176:0 177:0 178:2.12026 179:1.7148 180:0 181:0 182:0 183:0 184:0 185:0 186:0 187:0 188:0 189:0 190:0 191:0 192:0 193:0 194:0 195:0 196:0 197:0 198:0 199:2.00248 
-0.5219703294127592 0.5350657324698217 0.4466454326625718 0:0 1:0 2:0 3:0 4:0 5:0 6:0 7:0 8:0 9:0 10:0 11:0 12:0 13:0 14:0 15:1.94251 16:0 17:0 18:0 19:0 20:1.56065 21:0 22:0 23:0 24:0 25:0 26:2.29715 27:0 28:0 29:0 30:0 31:0 32:0 33:0 34:2.3472 35:0 36:0 37:0 38:0 39:0 40:0 41:0 42:0 43:0 44:0 45:0 46:0 47:0 48:0 49:0 50:0 51:0 52:0 53:0 54:6.00002 55:0 56:0 57:0 58:0 59:0 60:3.42652 61:0 62:0 63:0 64:3.28341 65:0 66:0 67:0 68:0 69:0 70:0 71:0 72:3.50656 73:0 74:0 75:0 76:0 77:3.21888 78:0 79:0 80:0 81:3.10109 82:0 83:0 84:0 85:0 86:0 87:0 88:2.90042 89:0 90:2.30259 91:0 92:0 93:0 94:0 95:0 96:0 97:0 98:0 99:0 100:0 101:0 102:0 103:0 104:0 105:0 106:0 107:0 108:0 109:0 110:0 111:0 112:0 113:0 114:0 115:0 116:0 117:0 118:0 119:0 120:0 121:0.502527 122:0 123:0 124:1.68342 125:0 126:0 127:0 128:0 129:0 130:0 131:0 132:0 133:0 134:0 135:0 136:0 137:3.10283 138:0 139:0 140:0 141:0 142:0 143:0 144:0 145:0 146:0 147:0 148:0 149:0 150:5.64375 151:0 152:0 153:0 154:0 155:0 156:0 157:0 158:0 159:0 160:0 161:0 162:0 163:1.85167 164:0 165:0 166:3.77617 167:2.23026 168:0 169:0 170:0 171:0 172:0 173:0 174:0 175:1.00786 176:1.44817 177:0 178:0 179:1.7148 180:0 181:0 182:0 183:0 184:0 185:0 186:0 187:0 188:0 189:0 190:0 191:0 192:0 193:0 194:0 195:0 196:0 197:0 198:2.00248 199:0 
-1 1 1 0:0 1:0 2:0 3:0 4:0 5:0 6:0 7:0 8:0 9:0 10:0 11:0 12:0 13:0 14:0 15:0 16:0 17:1.84833 18:6.92126 19:0 20:0 21:0 22:0 23:0 24:0 25:0 26:0 27:0 28:0 29:0 30:0 31:0 32:0 33:0 34:1.38629 35:0 36:0 37:0 38:0 39:0 40:0 41:0 42:0 43:0 44:0 45:0 46:0 47:0 48:0 49:0 50:0 51:0 52:0 53:0 54:0 55:0 56:0 57:0 58:0 59:0 60:0 61:0 62:0 63:0 64:0 65:0 66:0 67:0 68:0 69:0 70:0 71:0 72:5.93712 73:0 74:3.50656 75:0 76:0 77:0 78:0 79:0 80:0 81:0 82:0 83:0 84:0 85:0 86:0 87:0 88:0 89:0 90:0 91:0 92:0 93:0 94:0 95:0 96:0 97:0 98:0 99:0 100:0 101:0 102:0 103:0 104:0 105:0 106:0 107:0 108:0 109:0 110:0 111:0 112:0 113:0 114:0 115:0 116:0 117:0 118:0 119:0 120:0 121:0 122:0 123:0 124:0 125:0 126:0 127:0 128:3.42214 129:0 130:0 131:0 132:0 133:0 134:0 135:0 136:0 137:0 138:0 139:0 140:0 141:0 142:0 143:0 144:0 145:0 146:0 147:0 148:0 149:0 150:0 151:0 152:0 153:0 154:0 155:0 156:0 157:0 158:0 159:0 160:1.12393 161:0 162:0 163:0 164:0 165:0 166:0 167:0 168:0 169:0 170:0 171:0 172:0 173:0 174:0 175:0 176:0 177:0 178:0 179:0 180:0 181:0 182:0 183:0 184:0 185:0 186:0 187:0 188:0 189:0 190:0 191:0 192:0 193:0 194:0 195:0 196:0 197:0 198:0 199:0 
-1 1 1 0:0 1:0 2:0 3:0 4:0 5:0 6:0 7:0 8:0 9:0 10:0 11:0 12:0 13:0 14:0 15:1.14728 16:0 17:0 18:0 19:0 20:0 21:0 22:0 23:0 24:0 25:0 26:0 27:0 28:0 29:0 30:0 31:0 32:0 33:1.80181 34:1.38629 35:0 36:0 37:0 38:0 39:0 40:0 41:0 42:0 43:0 44:0 45:0 46:0 47:0 48:0 49:0 50:0 51:2.49496 52:2.09964 53:0 54:0 55:0 56:0 57:0 58:0 59:0 60:0 61:0 62:2.90042 63:0 64:3.28341 65:0 66:3.62556 67:4.86857 68:0 69:0 70:0 71:0 72:0 73:0 74:0 75:0 76:0 77:0 78:0 79:0 80:0 81:6.50799 82:0 83:0 84:0 85:0 86:0 87:0 88:0 89:0 90:0 91:3.42652 92:0 93:0 94:0 95:0 96:0 97:0 98:3.28341 99:0 100:0 101:0 102:0 103:0 104:0 105:0 106:0 107:0 108:0 109:0 110:0 111:0 112:0 113:0 114:0 115:0 116:0 117:0 118:0 119:0 120:3.5412 121:0 122:0 123:0 124:0 125:0 126:0 127:0 128:0 129:0 130:0 131:0 132:0 133:0 134:0 135:0 136:0 137:0 138:0 139:0 140:0 141:0 142:0 143:0 144:0 145:0 146:0 147:0 148:0 149:0 150:0 151:0 152:0 153:0 154:0 155:0 156:0 157:0 158:0 159:0 160:0 161:0 162:0 163:0 164:0 165:0 166:0 167:0 168:0 169:0 170:3.32892 171:0 172:0 173:2.09964 174:0 175:0 176:0 177:0 178:0 179:0 180:0 181:0 182:0 183:0 184:0 185:0 186:0 187:0 188:0 189:0 190:0 191:0 192:0 193:0 194:0 195:0 196:0 197:0 198:0 199:0 
-1 1 1 0:0 1:0 2:0 3:0 4:0 5:0 6:0 7:0 8:0 9:0 10:0 11:0 12:0 13:0 14:0 15:0 16:0 17:0 18:0 19:0 20:0 21:0 22:0 23:0 24:0 25:0 26:0 27:0 28:0 29:0 30:0 31:0 32:0 33:0 34:1.38629 35:0 36:0 37:0 38:0 39:0 40:0 41:0 42:0 43:0 44:0 45:0 46:0 47:0 48:0 49:0 50:0 51:0 52:0 53:0 54:0 55:0 56:0 57:0 58:0 59:0 60:0 61:2.16282 62:0 63:0 64:0 65:0 66:0 67:0 68:0 69:0 70:0 71:0 72:0 73:0 74:0 75:0 76:0 77:0 78:0 79:0 80:0 81:0 82:0 83:0 84:0 85:0 86:0 87:0 88:0 89:0 90:0 91:0 92:0 93:0 94:0 95:0 96:0 97:0 98:0 99:0 100:0 101:0 102:0 103:0 104:0 105:0 106:0 107:0 108:0 109:0 110:0 111:0 112:0 113:0 114:0 115:0 116:0 117:0 118:0 119:0 120:0 121:0 122:0 123:0 124:0.994252 125:0 126:0 127:2.65926 128:0 129:0 130:0 131:0 132:0 133:0 134:0 135:0 136:1.83258 137:0 138:0 139:0 140:0 141:0 142:0 143:0 144:0 145:2.78973 146:0 147:0 148:0 149:0 150:2.16282 151:1.30933 152:1.91393 153:2.68321 154:0 155:0 156:0 157:0 158:2.1848 159:0 160:0 161:0 162:0 163:0 164:0 165:0 166:0 167:0 168:0 169:0 170:0 171:1.25527 172:0 173:0 174:0 175:1.70645 176:1.44817 177:0 178:0 179:0 180:0 181:0 182:0 183:0 184:0 185:0 186:0 187:0 188:0 189:0 190:0 191:0 192:0 193:0 194:0 195:0 196:0 197:0 198:2.00248 199:0 
-0.4181265496860273 0.3012854915852261 0.08430948900074106 0:0 1:0 2:0 3:0 4:0 5:0 6:0 7:0 8:0 9:0 10:0 11:0 12:0 13:0 14:0 15:1.94251 16:0 17:0 18:0 19:0 20:0 21:0 22:0 23:0 24:0 25:0 26:0 27:0 28:0 29:0 30:0 31:0 32:0 33:0 34:2.3472 35:0 36:0 37:0 38:0 39:0 40:0 41:0 42:0 43:0 44:0 45:0 46:0 47:0 48:0 49:0 50:7.95102 51:6.51044 52:2.09964 53:0 54:4.64949 55:5.45003 56:3.21888 57:7.40012 58:0 59:0 60:0 61:0 62:0 63:2.90042 64:0 65:3.28341 66:2.14132 67:0 68:0 69:3.15825 70:0 71:5.93712 72:0 73:3.50656 74:0 75:2.12026 76:3.21888 77:0 78:3.69592 79:4.62799 80:6.52262 81:0 82:0 83:0 84:6.08444 85:0 86:3.59357 87:0 88:2.90042 89:4.91084 90:0 91:0 92:5.80159 93:3.42652 94:8.17667 95:0 96:7.73057 97:2.62417 98:6.89061 99:3.15825 100:0 101:2.25379 102:0 103:0 104:0 105:0 106:0 107:0 108:0 109:0 110:0 111:0 112:0 113:0 114:0 115:0 116:0 117:0 118:0 119:0 120:4.02663 121:1.31131 122:0 123:0 124:0 125:0 126:6.2654 127:0 128:4.82311 129:0 130:0 131:0 132:0 133:0 134:0 135:0 136:6.05226 137:4.37308 138:0 139:0 140:0 141:0 142:0 143:0 144:4.24166 145:2.78973 146:0 147:4.62381 148:0 149:0 150:2.16282 151:3.12445 152:0 153:1.58475 154:0 155:0 156:0 157:0 158:0 159:0 160:1.12393 161:0 162:0 163:0 164:2.23026 165:0 166:2.23026 167:0 168:0 169:0 170:0 171:0 172:2.09964 173:0 174:0 175:0 176:0 177:2.12026 178:0 179:2.90341 180:1.51413 181:5.43572 182:7.74004 183:0 184:0 185:0 186:0 187:0 188:0 189:0 190:0 191:0 192:0 193:0 194:0 195:0 196:0 197:0 198:0 199:4.77851 
-0.6727831859854508 0.4978694883596743 0.1183177255289126 0:0 1:0 2:0 3:0 4:0 5:0 6:0 7:0 8:0 9:0 10:0 11:0 12:0 13:0 14:0 15:1.94251 16:0 17:0 18:0 19:0 20:1.56065 21:0 22:0 23:0 24:0 25:0 26:0 27:0 28:0 29:0 30:0 31:0 32:2.85702 33:0 34:1.38629 35:0 36:0 37:0 38:0 39:0 40:0 41:0 42:0 43:0 44:0 45:0 46:0 47:0 48:0 49:0 50:9.38314 51:5.23595 52:2.09964 53:0 54:4.08896 55:3.21888 56:3.21888 57:3.10109 58:0 59:3.42652 60:0 61:0 62:2.90042 63:0 64:5.5593 65:3.28341 66:2.14132 67:0 68:0 69:3.15825 70:3.50656 71:0 72:0 73:3.50656 74:0 75:2.12026 76:0 77:0 78:3.25036 79:0 80:4.62799 81:0 82:0 83:0 84:3.59357 85:0 86:3.59357 87:0 88:0 89:6.92126 90:2.30259 91:0 92:5.80159 93:3.42652 94:3.42652 95:0 96:6.26204 97:2.62417 98:3.28341 99:0 100:0 101:2.25379 102:0 103:0 104:0 105:0 106:0 107:0 108:0 109:0 110:0 111:0 112:0 113:0 114:0 115:0 116:0 117:0 118:0 119:0 120:1.6874 121:1.40293 122:2.59027 123:0 124:0 125:0 126:5.58875 127:0 128:4.82311 129:0 130:0 131:0 132:0 133:0 134:0 135:0 136:6.22692 137:4.37308 138:0 139:0 140:0 141:0 142:0 143:0 144:4.24166 145:2.78973 146:0 147:4.94688 148:0 149:0 150:0 151:1.30933 152:0 153:0 154:0 155:0 156:0 157:0 158:0 159:0 160:2.35869 161:0 162:0 163:0 164:2.23026 165:0 166:2.23026 167:0 168:0 169:0 170:0 171:1.25527 172:2.09964 173:0 174:0 175:0 176:0 177:3.58992 178:0 179:2.90341 180:1.51413 181:7.01464 182:6.35933 183:0 184:0 185:0 186:0 187:0 188:0 189:0 190:0 191:0 192:0 193:0 194:0 195:0 196:0 197:0 198:0 199:3.39049 
-0.3968463797777197 0.2863121166494497 0.07762257437272518 0:0 1:0 2:0 3:0 4:0 5:0 6:0 7:0 8:0 9:0 10:0 11:0 12:0 13:0 14:0 15:1.94251 16:0 17:0 18:0 19:0 20:0 21:0 22:0 23:0 24:0 25:0 26:0 27:0 28:0 29:0 30:0 31:0 32:0 33:0 34:1.38629 35:0 36:0 37:0 38:0 39:0 40:0 41:0 42:0 43:0 44:0 45:0 46:0 47:0 48:0 49:0 50:7.95102 51:6.51044 52:2.09964 53:0 54:4.64949 55:5.45003 56:3.21888 57:7.40012 58:0 59:0 60:0 61:0 62:0 63:2.90042 64:0 65:3.28341 66:2.14132 67:0 68:0 69:3.15825 70:0 71:5.93712 72:0 73:3.50656 74:0 75:2.12026 76:3.21888 77:0 78:3.69592 79:4.62799 80:6.52262 81:0 82:0 83:0 84:3.59357 85:0 86:3.59357 87:0 88:2.90042 89:4.91084 90:0 91:0 92:5.80159 93:3.42652 94:8.17667 95:3.42652 96:7.73057 97:2.62417 98:6.89061 99:3.15825 100:0 101:2.25379 102:0 103:0 104:0 105:0 106:0 107:0 108:0 109:0 110:0 111:0 112:0 113:0 114:0 115:0 116:0 117:0 118:0 119:0 120:4.02663 121:1.31131 122:0 123:0 124:0 125:0 126:6.06552 127:0 128:4.82311 129:0 130:0 131:0 132:0 133:0 134:0 135:0 136:6.05226 137:4.37308 138:0 139:0 140:0 141:0 142:0 143:0 144:4.24166 145:2.78973 146:0 147:4.62381 148:0 149:0 150:2.16282 151:3.12445 152:0 153:1.58475 154:0 155:0 156:0 157:0 158:0 159:0 160:1.12393 161:0 162:0 163:0 164:2.23026 165:0 166:2.23026 167:0 168:0 169:0 170:0 171:0 172:2.09964 173:0 174:0 175:0 176:0 177:2.12026 178:0 179:2.90341 180:1.51413 181:5.43572 182:7.28293 183:0 184:0 185:0 186:0 187:0 188:0 189:0 190:0 191:0 192:0 193:0 194:0 195:0 196:0 197:0 198:0 199:4.77851 
-0.4688547433649046 0.356242569483336 0.02203885501524869 0:0 1:0 2:0 3:0 4:0 5:0 6:0 7:0 8:0 9:0 10:0 11:0 12:0 13:0 14:0 15:0 16:0 17:0 18:0 19:0 20:0 21:0 22:0 23:0 24:0 25:0 26:0 27:0 28:0 29:0 30:0 31:0 32:0 33:0 34:1.38629 35:0 36:0 37:0 38:0 39:0 40:0 41:0 42:0 43:0 44:0 45:0 46:0 47:0 48:0 49:0 50:0 51:2.49496 52:5.01037 53:0 54:3.29895 55:0 56:0 57:0 58:0 59:0 60:0 61:0 62:7.56847 63:0 64:3.28341 65:0 66:0 67:0 68:5.36715 69:0 70:0 71:0 72:0 73:0 74:0 75:2.12026 76:3.21888 77:0 78:2.62237 79:0 80:0 81:0 82:0 83:0 84:0 85:0 86:0 87:0 88:0 89:0 90:0 91:0 92:0 93:0 94:0 95:0 96:4.4431 97:0 98:0 99:0 100:0 101:0 102:0 103:0 104:0 105:0 106:0 107:0 108:0 109:0 110:0 111:0 112:0 113:0 114:0 115:0 116:0 117:0 118:0 119:0 120:3.5412 121:0.502527 122:0 123:0 124:0 125:0 126:4.95042 127:0 128:5.27412 129:0 130:0 131:0 132:0 133:0 134:0 135:0 136:5.11613 137:1.83258 138:0 139:0 140:0 141:0 142:0 143:0 144:0 145:1.64766 146:0 147:3.00018 148:0 149:0 150:0 151:2.74778 152:0 153:0 154:0 155:0 156:0 157:3.45439 158:0 159:2.1848 160:0 161:0 162:0 163:0 164:0 165:0 166:2.23026 167:0 168:0 169:0 170:0 171:0 172:0 173:0 174:0 175:0 176:0 177:0 178:2.12026 179:0 180:0 181:0 182:6.71047 183:0 184:0 185:0 186:0 187:0 188:0 189:0 190:0 191:0 192:0 193:0 194:0 195:0 196:0 197:0 198:0 199:4.20243 
-0.6259256339460022 0.5174458205466236 0.1511807421275821 0:0 1:0 2:0 3:0 4:0 5:0 6:0 7:0 8:0 9:0 10:0 11:0 12:0 13:0 14:0 15:1.94251 16:0 17:0 18:0 19:0 20:0 21:0 22:0 23:0 24:0 25:0 26:0 27:0 28:0 29:0 30:0 31:0 32:0 33:0 34:2.3472 35:0 36:0 37:0 38:0 39:0 40:0 41:0 42:0 43:0 44:0 45:0 46:0 47:0 48:0 49:0 50:0 51:0 52:0 53:0 54:1.94841 55:0 56:3.21888 57:3.10109 58:0 59:0 60:0 61:0 62:0 63:0 64:0 65:0 66:0 67:0 68:0 69:0 70:0 71:0 72:0 73:0 74:0 75:0 76:3.21888 77:0 78:2.62237 79:0 80:0 81:6.50799 82:0 83:0 84:0 85:0 86:0 87:0 88:0 89:0 90:2.30259 91:0 92:5.80159 93:0 94:7.19093 95:0 96:0 97:0 98:3.28341 99:3.15825 100:0 101:0 102:0 103:0 104:0 105:0 106:0 107:0 108:0 109:0 110:0 111:0 112:0 113:0 114:0 115:0 116:0 117:0 118:0 119:0 120:3.5412 121:0.850852 122:0 123:0 124:0 125:3.98546 126:4.52709 127:0 128:0 129:0 130:0 131:0 132:0 133:3.59357 134:0 135:0 136:5.11613 137:3.10283 138:0 139:0 140:0 141:0 142:0 143:0 144:2.02117 145:0 146:0 147:1.77196 148:0 149:0 150:3.66198 151:0 152:0 153:0 154:0 155:0 156:0 157:0 158:0 159:0 160:0 161:0 162:0 163:0 164:4.68046 165:0 166:0 167:0 168:0 169:0 170:0 171:0 172:0 173:0 174:0 175:0 176:1.44817 177:0 178:0 179:0 180:0 181:0 182:6.71047 183:0 184:0 185:0 186:0 187:0 188:0 189:0 190:0 191:0 192:0 193:0 194:0 195:0 196:0 197:0 198:0 199:6.97846 
-0.007215185101771437 0.001413528362253878 0.04570187256740043 0:0 1:0 2:0 3:0 4:0 5:0 6:0 7:0 8:0 9:0 10:0 11:0 12:0 13:0 14:0 15:0 16:0 17:0 18:0 19:0 20:0 21:0 22:0 23:0 24:0 25:0 26:0 27:0 28:0 29:0 30:0 31:0 32:0 33:0 34:2.3472 35:0 36:0 37:0 38:0 39:0 40:0 41:0 42:0 43:0 44:0 45:0 46:0 47:0 48:0 49:0 50:0 51:2.49496 52:4.40634 53:0 54:0 55:0 56:0 57:0 58:0 59:0 60:0 61:0 62:6.92126 63:0 64:3.28341 65:0 66:0 67:0 68:5.36715 69:0 70:0 71:0 72:0 73:0 74:0 75:0 76:0 77:0 78:1.54881 79:0 80:0 81:0 82:0 83:0 84:0 85:0 86:0 87:0 88:0 89:0 90:0 91:0 92:0 93:0 94:0 95:0 96:4.4431 97:0 98:0 99:0 100:0 101:0 102:0 103:0 104:0 105:0 106:0 107:0 108:0 109:0 110:0 111:0 112:0 113:0 114:0 115:0 116:0 117:0 118:0 119:0 120:1.6874 121:0.850852 122:0 123:0 124:0 125:0 126:4.52709 127:0 128:5.27412 129:0 130:0 131:0 132:0 133:0 134:0 135:0 136:5.11613 137:1.83258 138:0 139:0 140:0 141:0 142:0 143:0 144:0 145:1.64766 146:0 147:1.77196 148:0 149:0 150:0 151:2.21689 152:0 153:0 154:0 155:0 156:0 157:3.45439 158:0 159:2.1848 160:0 161:0 162:0 163:0 164:0 165:0 166:2.23026 167:0 168:0 169:0 170:0 171:0 172:0 173:0 174:0 175:0 176:0 177:0 178:2.12026 179:0 180:0 181:0 182:6.35933 183:0 184:0 185:0 186:0 187:0 188:0 189:0 190:0 191:0 192:0 193:0 194:0 195:0 196:0 197:0 198:0 199:4.20243 
-0.766616539147206 0.8454618708533991 0.5714507115947309 0:0 1:0 2:0 3:0 4:0 5:0 6:0 7:0 8:0 9:0 10:0 11:0 12:0 13:0 14:0 15:0 16:0 17:0 18:0 19:0 20:0 21:0 22:0 23:0 24:0 25:0 26:1.35674 27:0 28:0 29:0 30:0 31:0 32:1.6874 33:0 34:2.3472 35:0 36:0 37:0 38:0 39:0 40:0 41:0 42:0 43:0 44:0 45:0 46:0 47:0 48:0 49:0 50:0 51:0 52:0 53:0 54:0 55:0 56:0 57:0 58:0 59:0 60:0 61:3.66198 62:0 63:0 64:0 65:0 66:0 67:0 68:0 69:0 70:0 71:0 72:0 73:5.93712 74:0 75:2.12026 76:0 77:0 78:0 79:0 80:0 81:0 82:0 83:0 84:0 85:0 86:3.59357 87:0 88:0 89:2.90042 90:0 91:0 92:0 93:0 94:0 95:3.42652 96:0 97:0 98:0 99:0 100:0 101:0 102:0 103:0 104:0 105:0 106:0 107:0 108:0 109:0 110:0 111:0 112:0 113:0 114:0 115:0 116:0 117:0 118:0 119:0 120:0 121:0.502527 122:0 123:0 124:0 125:0 126:5.2963 127:0 128:0 129:0 130:0 131:0 132:0 133:0 134:0 135:0 136:3.10283 137:0 138:0 139:0 140:0 141:0 142:0 143:0 144:0 145:0 146:0 147:0 148:0 149:0 150:3.66198 151:0 152:1.91393 153:1.58475 154:0 155:0 156:0 157:0 158:0 159:2.1848 160:1.12393 161:0 162:0 163:1.09362 164:0 165:0 166:2.23026 167:2.23026 168:1.43759 169:0 170:0 171:1.25527 172:0 173:0 174:0 175:0 176:0 177:5.05957 178:0 179:0 180:0 181:0 182:0 183:0 184:0 185:0 186:0 187:0 188:0 189:0 190:0 191:0 192:0 193:0 194:0 195:0 196:0 197:0 198:0 199:3.39049 
-0.8157502773511123 0.80690286553219 0.5570420688445185 0:0 1:0 2:0 3:0 4:0 5:0 6:0 7:0 8:0 9:0 10:0 11:0 12:0 13:0 14:0 15:0 16:0 17:0 18:0 19:0 20:0 21:0 22:0 23:0 24:0 25:0 26:0 27:0 28:0 29:0 30:0 31:0 32:0 33:0 34:2.3472 35:0 36:0 37:0 38:0 39:0 40:0 41:0 42:0 43:0 44:0 45:0 46:0 47:0 48:0 49:0 50:0 51:0 52:0 53:0 54:0 55:0 56:0 57:3.10109 58:0 59:0 60:0 61:0 62:0 63:0 64:0 65:0 66:0 67:4.28163 68:0 69:0 70:0 71:0 72:0 73:0 74:0 75:2.12026 76:0 77:0 78:0 79:6.52262 80:0 81:3.10109 82:0 83:0 84:0 85:0 86:0 87:0 88:0 89:0 90:0 91:0 92:0 93:0 94:0 95:0 96:0 97:0 98:0 99:3.15825 100:0 101:0 102:0 103:0 104:0 105:0 106:0 107:0 108:0 109:0 110:0 111:0 112:0 113:0 114:0 115:0 116:0 117:0 118:0 119:0 120:4.02663 121:0 122:0 123:0 124:0 125:0 126:0 127:0 128:0 129:0 130:0 131:0 132:0 133:0 134:0 135:0 136:4.37308 137:0 138:0 139:0 140:0 141:0 142:0 143:0 144:0 145:0 146:0 147:4.22841 148:0 149:0 150:0 151:1.30933 152:0 153:0 154:0 155:0 156:0 157:0 158:0 159:3.69919 160:0 161:0 162:0 163:0 164:0 165:0 166:3.77617 167:0 168:0 169:0 170:1.96611 171:0 172:0 173:0 174:0 175:0 176:0 177:0 178:0 179:0 180:0 181:0 182:0 183:0 184:0 185:0 186:0 187:0 188:0 189:0 190:0 191:0 192:0 193:0 194:0 195:0 196:0 197:0 198:0 199:3.39049 
-1 1 1 0:0 1:0 2:0 3:0 4:0 5:0 6:0 7:0 8:0 9:0 10:0 11:0 12:0 13:0 14:0 15:0 16:0 17:0 18:0 19:0 20:0 21:0 22:0 23:0 24:0 25:0 26:0 27:0 28:0 29:0 30:0 31:0 32:0 33:1.80181 34:2.3472 35:0 36:0 37:0 38:0 39:0 40:0 41:0 42:0 43:0 44:0 45:0 46:0 47:0 48:0 49:0 50:0 51:0 52:0 53:0 54:0 55:0 56:0 57:0 58:0 59:0 60:0 61:0 62:0 63:0 64:0 65:0 66:0 67:0 68:0 69:0 70:0 71:0 72:0 73:0 74:0 75:0 76:0 77:0 78:1.54881 79:0 80:0 81:0 82:0 83:0 84:0 85:0 86:0 87:0 88:0 89:0 90:0 91:0 92:0 93:0 94:0 95:0 96:0 97:0 98:0 99:0 100:0 101:0 102:0 103:0 104:0 105:0 106:0 107:0 108:0 109:0 110:0 111:0 112:0 113:0 114:0 115:0 116:0 117:0 118:0 119:0 120:0 121:0 122:5.43597 123:0 124:0 125:0 126:0 127:0 128:0 129:0 130:0 131:0 132:0 133:0 134:0 135:0 136:0 137:3.10283 138:0 139:0 140:0 141:0 142:0 143:0 144:0 145:0 146:0 147:0 148:0 149:0 150:0 151:0 152:0 153:0 154:0 155:0 156:0 157:0 158:0 159:0 160:0 161:0 162:0 163:0 164:0 165:0 166:5.32207 167:0 168:2.43405 169:0 170:0 171:2.12535 172:0 173:0 174:0 175:0 176:0 177:0 178:4.44961 179:0 180:0 181:0 182:0 183:0 184:0 185:0 186:0 187:0 188:0 189:0 190:0 191:0 192:0 193:0 194:0 195:0 196:0 197:0 198:0 199:3.39049 
-0.6334973832431055 0.5334076391295375 0.1904840685900218 0:0 1:0 2:0 3:0 4:0 5:0 6:0 7:0 8:0 9:0 10:0 11:0 12:0 13:0 14:0 15:0 16:0 17:0 18:0 19:0 20:0 21:0 22:0 23:0 24:0 25:0 26:0 27:0 28:0 29:0 30:0 31:0 32:0 33:0 34:1.38629 35:0 36:0 37:0 38:0 39:0 40:0 41:0 42:0 43:0 44:0 45:0 46:0 47:0 48:0 49:0 50:0 51:0 52:2.09964 53:0 54:3.29895 55:0 56:0 57:3.10109 58:0 59:0 60:0 61:0 62:6.92126 63:0 64:0 65:0 66:0 67:0 68:4.33019 69:7.53652 70:3.50656 71:0 72:0 73:0 74:0 75:0 76:0 77:0 78:0 79:0 80:0 81:0 82:0 83:0 84:0 85:0 86:6.08444 87:0 88:0 89:2.90042 90:0 91:0 92:3.42652 93:3.42652 94:0 95:0 96:0 97:2.62417 98:0 99:0 100:0 101:0 102:0 103:0 104:0 105:0 106:0 107:0 108:0 109:0 110:0 111:0 112:0 113:0 114:0 115:0 116:0 117:0 118:0 119:0 120:0 121:1.19918 122:0 123:0 124:0 125:0 126:0 127:0 128:2.02117 129:0 130:0 131:0 132:0 133:0 134:0 135:0 136:4.78201 137:0 138:0 139:0 140:0 141:0 142:0 143:0 144:2.02117 145:1.64766 146:0 147:0 148:0 149:0 150:0 151:0 152:0 153:2.68321 154:0 155:0 156:0 157:0 158:0 159:0 160:1.12393 161:0 162:0 163:0 164:0 165:0 166:4.68046 167:0 168:0 169:0 170:0 171:0 172:0 173:0 174:0 175:0 176:0 177:2.12026 178:3.58992 179:1.7148 180:1.51413 181:2.27789 182:0 183:0 184:0 185:0 186:0 187:0 188:0 189:0 190:0 191:0 192:0 193:0 194:0 195:0 196:0 197:0 198:0 199:3.39049 
-0.1030959009801074 0.07969760079414839 0 0:0 1:0 2:0 3:0 4:0 5:0 6:0 7:0 8:0 9:0 10:0 11:0 12:0 13:0 14:0 15:1.14728 16:0 17:0 18:0 19:0 20:0 21:0 22:0 23:0 24:0 25:0 26:0 27:0 28:0 29:0 30:0 31:0 32:0 33:0 34:5.22992 35:0 36:0 37:0 38:0 39:0 40:0 41:0 42:0 43:0 44:0 45:0 46:0 47:0 48:0 49:0 50:0 51:0 52:0 53:8.7479 54:3.29895 55:0 56:0 57:0 58:0 59:0 60:7.19093 61:3.66198 62:0 63:0 64:0 65:0 66:0 67:2.04022 68:0 69:0 70:0 71:0 72:0 73:0 74:0 75:0 76:0 77:0 78:4.04153 79:0 80:0 81:3.10109 82:0 83:6.08444 84:0 85:7.54151 86:0 87:0 88:0 89:2.90042 90:2.30259 91:0 92:0 93:0 94:0 95:0 96:0 97:0 98:0 99:0 100:0 101:0 102:0 103:0 104:0 105:0 106:0 107:0 108:0 109:0 110:0 111:0 112:0 113:0 114:0 115:0 116:0 117:0 118:0 119:0 120:2.85702 121:0.502527 122:0 123:0 124:0 125:0 126:0 127:0 128:0 129:0 130:0 131:0 132:0 133:0 134:0 135:0 136:0 137:4.37308 138:0 139:0 140:0 141:0 142:0 143:0 144:0 145:0 146:0 147:0 148:0 149:0 150:2.16282 151:1.30933 152:0 153:0 154:0 155:0 156:0 157:2.04022 158:0 159:2.1848 160:1.90298 161:2.20727 162:0 163:0 164:0 165:0 166:7.36564 167:0 168:0 169:0 170:1.96611 171:0 172:0 173:0 174:0 175:1.00786 176:0 177:0 178:0 179:2.90341 180:0 181:0 182:0 183:0 184:0 185:0 186:0 187:0 188:0 189:0 190:0 191:0 192:0 193:0 194:0 195:0 196:0 197:0 198:3.39049 199:0 
-0.5548039293032208 0.3767744958811324 0.04552873174747593 0:0 1:0 2:0 3:0 4:0 5:0 6:0 7:0 8:0 9:0 10:0 11:0 12:0 13:0 14:0 15:0 16:0 17:0 18:0 19:0 20:0 21:0 22:0 23:0 24:0 25:0 26:2.29715 27:0 28:0 29:0 30:0 31:0 32:0 33:0 34:4.43229 35:0 36:0 37:0 38:0 39:0 40:0 41:0 42:0 43:0 44:0 45:0 46:0 47:0 48:0 49:0 50:0 51:0 52:0 53:0 54:4.64949 55:0 56:0 57:0 58:0 59:0 60:3.42652 61:5.16113 62:0 63:0 64:0 65:3.28341 66:0 67:0 68:0 69:3.15825 70:0 71:0 72:9.15015 73:0 74:0 75:0 76:0 77:0 78:1.54881 79:0 80:0 81:0 82:0 83:12.8109 84:0 85:13.0772 86:0 87:0 88:0 89:0 90:2.30259 91:0 92:0 93:0 94:0 95:0 96:0 97:0 98:0 99:0 100:0 101:0 102:0 103:0 104:0 105:0 106:0 107:0 108:0 109:0 110:0 111:0 112:0 113:0 114:0 115:0 116:0 117:0 118:0 119:0 120:0 121:0.502527 122:0 123:0 124:2.92898 125:0 126:0 127:0 128:3.42214 129:0 130:0 131:0 132:0 133:0 134:0 135:0 136:0 137:4.78201 138:0 139:0 140:0 141:0 142:0 143:0 144:0 145:0 146:0 147:0 148:0 149:0 150:0 151:0 152:0 153:0 154:0 155:0 156:0 157:0 158:0 159:0 160:2.68203 161:0 162:0 163:0 164:0 165:0 166:6.57016 167:2.23026 168:0 169:0 170:0 171:0 172:0 173:0 174:0 175:1.00786 176:0 177:0 178:0 179:1.7148 180:0 181:0 182:0 183:0 184:0 185:0 186:0 187:0 188:0 189:0 190:0 191:0 192:0 193:0 194:0 195:0 196:0 197:0 198:4.77851 199:0 
-0.768861425352527 0.5519279020178524 0.1492277831035818 0:0 1:0 2:0 3:0 4:0 5:0 6:0 7:0 8:0 9:0 10:0 11:0 12:0 13:0 14:0 15:2.73774 16:0 17:0 18:0 19:0 20:1.56065 21:0 22:0 23:0 24:0 25:0 26:4.33779 27:0 28:0 29:0 30:0 31:0 32:1.6874 33:1.80181 34:5.14045 35:0 36:0 37:0 38:0 39:0 40:0 41:0 42:0 43:0 44:0 45:0 46:0 47:0 48:0 49:0 50:0 51:4.22433 52:2.09964 53:10.3235 54:1.94841 55:3.21888 56:0 57:0 58:0 59:0 60:11.6429 61:8.74759 62:0 63:0 64:0 65:0 66:2.14132 67:4.28163 68:0 69:0 70:3.50656 71:0 72:7.35891 73:0 74:0 75:2.12026 76:0 77:3.21888 78:4.56266 79:0 80:0 81:9.13554 82:2.99573 83:12.2106 84:0 85:7.54151 86:0 87:0 88:0 89:0 90:3.89862 91:0 92:0 93:0 94:0 95:0 96:2.62417 97:0 98:0 99:0 100:0 101:0 102:0 103:0 104:0 105:0 106:0 107:0 108:0 109:0 110:0 111:0 112:0 113:0 114:0 115:0 116:0 117:0 118:0 119:0 120:0 121:0.502527 122:0 123:0 124:2.08655 125:0 126:0 127:0 128:5.64263 129:0 130:0 131:0 132:0 133:0 134:0 135:0 136:1.83258 137:4.37308 138:0 139:0 140:0 141:0 142:0 143:0 144:0 145:0 146:6.08686 147:0 148:0 149:0 150:6.03808 151:1.30933 152:0 153:0 154:0 155:0 156:0 157:0 158:0 159:0 160:1.12393 161:0 162:0 163:2.29509 164:0 165:0 166:7.36564 167:4.68046 168:0 169:0 170:0 171:1.25527 172:3.55501 173:0 174:0 175:0 176:1.44817 177:2.12026 178:2.12026 179:3.5987 180:1.51413 181:0 182:0 183:0 184:0 185:0 186:0 187:0 188:0 189:0 190:0 191:0 192:0 193:0 194:0 195:0 196:0 197:0 198:0 199:0 
-0.6510876811855559 0.46549921197613 0.09615320124600199 0:0 1:0 2:0 3:0 4:0 5:0 6:0 7:0 8:0 9:0 10:0 11:0 12:0 13:0 14:0 15:1.14728 16:0 17:0 18:0 19:0 20:0 21:0 22:0 23:0 24:0 25:0 26:0 27:0 28:0 29:0 30:0 31:0 32:0 33:0 34:4.94207 35:0 36:0 37:0 38:0 39:0 40:0 41:0 42:0 43:0 44:0 45:0 46:0 47:0 48:0 49:0 50:0 51:0 52:3.55501 53:5.67612 54:0 55:0 56:0 57:0 58:5.80159 59:0 60:10.0942 61:4.53893 62:2.90042 63:0 64:3.28341 65:0 66:2.14132 67:4.86857 68:0 69:0 70:0 71:7.35891 72:0 73:0 74:0 75:0 76:3.21888 77:3.21888 78:3.69592 79:0 80:0 81:3.10109 82:0 83:6.08444 84:0 85:0 86:0 87:0 88:0 89:0 90:2.30259 91:0 92:0 93:0 94:0 95:0 96:0 97:0 98:0 99:0 100:0 101:0 102:0 103:0 104:0 105:0 106:0 107:0 108:0 109:0 110:0 111:0 112:0 113:0 114:0 115:0 116:0 117:0 118:0 119:0 120:4.02663 121:0.850852 122:0 123:0 124:0 125:0 126:0 127:0 128:5.27412 129:0 130:2.73337 131:0 132:0 133:0 134:0 135:0 136:5.85917 137:1.83258 138:0 139:0 140:0 141:0 142:0 143:0 144:0 145:0 146:2.90042 147:0 148:0 149:0 150:0 151:0 152:0 153:1.58475 154:0 155:0 156:0 157:5.69581 158:0 159:2.1848 160:1.12393 161:0 162:0 163:1.09362 164:0 165:0 166:8.67656 167:0 168:0 169:2.55748 170:3.32892 171:0 172:0 173:2.09964 174:0 175:0 176:0 177:0 178:0 179:0 180:0 181:0 182:0 183:0 184:0 185:0 186:0 187:0 188:0 189:0 190:0 191:0 192:0 193:0 194:0 195:0 196:0 197:0 198:0 199:3.39049 
-0.544206566497639 0.3845478057504277 0.09879345675794217 0:0 1:0 2:0 3:0 4:0 5:0 6:0 7:0 8:0 9:0 10:0 11:0 12:0 13:0 14:0 15:0 16:0 17:0 18:0 19:0 20:0 21:0 22:0 23:0 24:0 25:0 26:3.23757 27:0 28:0 29:0 30:0 31:0 32:0 33:0 34:4.43229 35:0 36:2.20727 37:0 38:0 39:0 40:0 41:0 42:0 43:0 44:0 45:0 46:0 47:0 48:0 49:0 50:0 51:0 52:0 53:3.35241 54:0 55:0 56:0 57:0 58:0 59:0 60:11.6429 61:2.16282 62:0 63:0 64:3.28341 65:0 66:0 67:4.28163 68:0 69:0 70:0 71:3.50656 72:3.50656 73:0 74:0 75:2.12026 76:0 77:0 78:2.62237 79:2.73337 80:0 81:3.10109 82:0 83:12.5233 84:0 85:12.2106 86:0 87:0 88:0 89:0 90:2.30259 91:0 92:0 93:0 94:0 95:0 96:0 97:0 98:0 99:0 100:0 101:0 102:0 103:0 104:0 105:0 106:0 107:0 108:0 109:0 110:0 111:0 112:0 113:0 114:0 115:0 116:0 117:0 118:0 119:0 120:0 121:0.502527 122:0 123:0 124:0.994252 125:0 126:0 127:0 128:3.42214 129:0 130:0 131:0 132:0 133:0 134:0 135:0 136:0 137:1.83258 138:0 139:0 140:0 141:0 142:0 143:0 144:0 145:0 146:0 147:1.77196 148:0 149:0 150:0 151:0 152:0 153:0 154:0 155:0 156:0 157:0 158:0 159:2.1848 160:3.311 161:0 162:0 163:0 164:0 165:0 166:7.5782 167:2.23026 168:0 169:0 170:0 171:0 172:0 173:0 174:0 175:2.1151 176:0 177:0 178:0 179:0 180:0 181:0 182:0 183:0 184:0 185:0 186:0 187:0 188:0 189:0 190:0 191:0 192:0 193:0 194:0 195:0 196:0 197:0 198:5.59044 199:0 
-0.3627927676081634 0.3246113757995268 0.2137362011634713 0:0 1:0 2:0 3:0 4:0 5:0 6:0 7:0 8:0 9:0 10:0 11:0 12:0 13:0 14:0 15:0 16:0 17:0 18:0 19:0 20:0 21:0 22:0 23:0 24:0 25:0 26:0 27:0 28:0 29:0 30:0 31:0 32:1.6874 33:0 34:5.3932 35:0 36:0 37:0 38:0 39:0 40:0 41:0 42:0 43:0 44:0 45:0 46:0 47:0 48:0 49:0 50:0 51:0 52:0 53:0 54:1.94841 55:0 56:0 57:0 58:0 59:0 60:0 61:2.16282 62:0 63:0 64:0 65:0 66:0 67:2.04022 68:0 69:0 70:3.50656 71:0 72:0 73:0 74:0 75:0 76:0 77:0 78:1.54881 79:0 80:0 81:0 82:0 83:6.08444 84:0 85:7.54151 86:0 87:0 88:0 89:0 90:2.30259 91:0 92:0 93:0 94:0 95:0 96:0 97:0 98:0 99:0 100:0 101:0 102:0 103:0 104:0 105:0 106:0 107:0 108:0 109:0 110:0 111:0 112:0 113:0 114:0 115:0 116:0 117:0 118:0 119:0 120:0 121:0 122:0 123:0 124:0 125:0 126:0 127:0 128:4.24166 129:0 130:0 131:3.59357 132:0 133:0 134:0 135:0 136:0 137:3.10283 138:0 139:0 140:0 141:0 142:0 143:0 144:0 145:0 146:0 147:0 148:0 149:0 150:0 151:0 152:0 153:0 154:0 155:0 156:0 157:2.04022 158:0 159:0 160:1.12393 161:4.63221 162:0 163:0 164:0 165:0 166:6.57016 167:2.23026 168:0 169:0 170:0 171:0 172:2.09964 173:0 174:0 175:0 176:0 177:0 178:0 179:0 180:0 181:0 182:0 183:0 184:0 185:0 186:0 187:0 188:0 189:0 190:0 191:0 192:0 193:0 194:0 195:0 196:0 197:0 198:0 199:0 
-0.8536773019688194 0.6135807521743739 0.1695735728270499 0:0 1:0 2:0 3:0 4:0 5:0 6:0 7:0 8:0 9:0 10:0 11:0 12:0 13:0 14:0 15:2.99375 16:0 17:0 18:0 19:0 20:1.56065 21:0 22:0 23:0 24:0 25:0 26:2.29715 27:2.35388 28:0 29:0 30:0 31:0 32:3.5412 33:1.80181 34:4.57836 35:0 36:0 37:0 38:0 39:0 40:0 41:0 42:0 43:0 44:0 45:0 46:2.30259 47:0 48:0 49:0 50:0 51:0 52:2.09964 53:14.971 54:0 55:0 56:0 57:0 58:0 59:0 60:8.94128 61:5.16113 62:0 63:0 64:0 65:0 66:3.62556 67:0 68:4.33019 69:0 70:0 71:3.50656 72:11.5807 73:0 74:3.50656 75:0 76:3.21888 77:7.68119 78:4.56266 79:5.73628 80:0 81:3.10109 82:8.82516 83:9.3772 84:0 85:3.59357 86:0 87:0 88:0 89:2.90042 90:3.89862 91:0 92:0 93:3.42652 94:0 95:0 96:2.62417 97:0 98:0 99:0 100:0 101:0 102:0 103:0 104:0 105:0 106:0 107:0 108:0 109:0 110:0 111:0 112:0 113:0 114:0 115:0 116:0 117:0 118:0 119:0 120:1.6874 121:1.19918 122:0 123:2.43612 124:2.37258 125:2.35388 126:0 127:0 128:5.95419 129:0 130:0 131:0 132:0 133:0 134:0 135:0 136:0 137:4.37308 138:0 139:1.02862 140:0 141:0 142:0 143:0 144:0 145:0 146:0 147:0 148:0 149:0 150:2.16282 151:2.21689 152:0 153:0 154:0 155:0 156:0 157:0 158:0 159:0 160:2.35869 161:0 162:1.94841 163:0 164:0 165:0 166:6.22636 167:5.32207 168:2.43405 169:2.55748 170:0 171:0 172:0 173:0 174:0 175:0 176:0 177:0 178:2.12026 179:0 180:0 181:0 182:0 183:0 184:0 185:0 186:0 187:0 188:0 189:0 190:0 191:0 192:0 193:0 194:0 195:0 196:0 197:0 198:0 199:2.00248 
-0.2233915301163021 0.1751756254460793 0.1418780281782568 0:0 1:0 2:0 3:0 4:0 5:0 6:0 7:0 8:0 9:0 10:0 11:0 12:0 13:0 14:0 15:0 16:0 17:0 18:0 19:0 20:0 21:0 22:0 23:0 24:0 25:0 26:1.35674 27:0 28:0 29:0 30:0 31:0 32:0 33:0 34:4.43229 35:0 36:0 37:0 38:0 39:0 40:0 41:0 42:0 43:0 44:0 45:0 46:0 47:0 48:0 49:0 50:0 51:0 52:0 53:0 54:0 55:0 56:0 57:0 58:3.42652 59:0 60:0 61:0 62:0 63:0 64:0 65:0 66:0 67:0 68:0 69:0 70:0 71:0 72:3.50656 73:0 74:0 75:0 76:0 77:0 78:2.62237 79:0 80:0 81:0 82:0 83:0 84:0 85:9.3772 86:0 87:0 88:0 89:0 90:2.30259 91:0 92:0 93:0 94:0 95:0 96:0 97:0 98:0 99:0 100:0 101:0 102:0 103:0 104:0 105:0 106:0 107:0 108:0 109:0 110:0 111:0 112:0 113:0 114:0 115:0 116:0 117:0 118:0 119:0 120:0 121:0 122:0 123:0 124:0 125:0 126:0 127:0 128:2.02117 129:0 130:0 131:0 132:0 133:0 134:0 135:0 136:0 137:3.10283 138:0 139:0 140:0 141:0 142:0 143:0 144:0 145:0 146:0 147:0 148:0 149:0 150:0 151:0 152:0 153:0 154:0 155:0 156:0 157:0 158:0 159:0 160:1.12393 161:0 162:0 163:0 164:0 165:0 166:8.67656 167:3.77617 168:0 169:0 170:0 171:0 172:0 173:0 174:0 175:0 176:0 177:0 178:0 179:0 180:0 181:0 182:0 183:0 184:0 185:0 186:0 187:0 188:0 189:0 190:0 191:0 192:0 193:0 194:0 195:0 196:0 197:0 198:0 199:0 
-0.101924317174902 0.2195026070254458 0.2803445479650535 0:0 1:0 2:0 3:0 4:0 5:0 6:0 7:0 8:0 9:0 10:0 11:0 12:0 13:0 14:0 15:0 16:0 17:0 18:0 19:0 20:0 21:0 22:0 23:0 24:0 25:0 26:0 27:0 28:0 29:0 30:0 31:0 32:0 33:0 34:4.43229 35:0 36:0 37:0 38:0 39:0 40:0 41:0 42:0 43:0 44:0 45:0 46:0 47:0 48:0 49:0 50:0 51:0 52:0 53:0 54:6.4348 55:0 56:0 57:0 58:0 59:0 60:0 61:0 62:0 63:0 64:0 65:3.28341 66:0 67:0 68:0 69:0 70:0 71:0 72:5.93712 73:0 74:0 75:0 76:0 77:0 78:3.25036 79:0 80:0 81:0 82:0 83:0 84:0 85:3.59357 86:0 87:0 88:0 89:0 90:2.30259 91:0 92:0 93:0 94:0 95:0 96:0 97:0 98:0 99:0 100:0 101:0 102:0 103:0 104:0 105:0 106:0 107:0 108:0 109:0 110:0 111:0 112:0 113:0 114:0 115:0 116:0 117:0 118:0 119:0 120:0 121:0 122:0 123:0 124:0 125:0 126:0 127:0 128:5.27412 129:0 130:0 131:0 132:0 133:0 134:0 135:0 136:0 137:0 138:0 139:0 140:0 141:0 142:0 143:0 144:0 145:0 146:0 147:0 148:0 149:0 150:0 151:0 152:0 153:0 154:0 155:0 156:0 157:0 158:0 159:0 160:1.12393 161:0 162:0 163:0 164:0 165:0 166:6.22636 167:0 168:0 169:0 170:0 171:0 172:0 173:0 174:0 175:0 176:1.44817 177:0 178:0 179:0 180:0 181:0 182:0 183:0 184:0 185:0 186:0 187:0 188:0 189:0 190:0 191:0 192:0 193:0 194:0 195:0 196:0 197:0 198:0 199:0 
-0.3428306336868349 0.3075790722835792 0.06795947510596732 0:0 1:0 2:0 3:0 4:0 5:0 6:0 7:2.25379 8:0 9:0 10:0 11:0 12:0 13:0 14:0 15:1.14728 16:0 17:0 18:0 19:0 20:0 21:0 22:0 23:0 24:0 25:0 26:0 27:0 28:0 29:0 30:0 31:0 32:0 33:0 34:4.83111 35:0 36:0 37:0 38:0 39:0 40:0 41:0 42:0 43:0 44:0 45:0 46:0 47:0 48:0 49:0 50:0 51:0 52:4.40634 53:9.87589 54:1.94841 55:0 56:0 57:0 58:0 59:0 60:3.42652 61:0 62:0 63:0 64:0 65:0 66:0 67:3.45439 68:0 69:0 70:0 71:0 72:3.50656 73:0 74:3.50656 75:0 76:3.21888 77:0 78:2.62237 79:0 80:0 81:0 82:0 83:0 84:0 85:0 86:0 87:0 88:0 89:0 90:3.89862 91:0 92:0 93:0 94:0 95:0 96:0 97:0 98:0 99:0 100:0 101:0 102:0 103:0 104:0 105:0 106:0 107:0 108:0 109:0 110:0 111:0 112:0 113:0 114:0 115:0 116:0 117:0 118:0 119:0 120:4.02663 121:0 122:0 123:0 124:0 125:0 126:0 127:0 128:2.02117 129:0 130:0 131:0 132:0 133:0 134:0 135:0 136:0 137:1.83258 138:0 139:1.02862 140:0 141:0 142:0 143:0 144:0 145:0 146:0 147:1.77196 148:0 149:0 150:2.16282 151:0 152:0 153:0 154:0 155:0 156:0 157:2.04022 158:0 159:0 160:1.12393 161:2.20727 162:0 163:1.09362 164:0 165:0 166:7.13066 167:0 168:1.43759 169:0 170:0 171:0 172:2.09964 173:2.09964 174:0 175:0 176:1.44817 177:0 178:0 179:0 180:0 181:0 182:0 183:0 184:0 185:0 186:0 187:0 188:0 189:0 190:0 191:0 192:0 193:0 194:0 195:0 196:0 197:0 198:2.00248 199:0 
-1 1 1 0:0 1:0 2:0 3:0 4:0 5:0 6:0 7:0 8:0 9:0 10:0 11:0 12:0 13:0 14:0 15:0 16:0 17:0 18:0 19:0 20:0 21:0 22:0 23:0 24:0 25:0 26:0 27:0 28:0 29:0 30:0 31:0 32:0 33:0 34:2.3472 35:0 36:0 37:0 38:0 39:0 40:0 41:0 42:0 43:0 44:0 45:0 46:0 47:0 48:0 49:0 50:6.39453 51:0 52:2.09964 53:0 54:0 55:0 56:0 57:0 58:0 59:0 60:0 61:0 62:4.91084 63:0 64:0 65:0 66:0 67:0 68:0 69:3.15825 70:0 71:0 72:0 73:0 74:0 75:0 76:0 77:0 78:0 79:0 80:0 81:0 82:0 83:0 84:0 85:0 86:0 87:0 88:0 89:0 90:0 91:0 92:0 93:0 94:0 95:0 96:0 97:0 98:0 99:0 100:0 101:0 102:0 103:0 104:0 105:0 106:0 107:0 108:0 109:0 110:0 111:0 112:0 113:0 114:0 115:0 116:0 117:0 118:0 119:0 120:0 121:0.502527 122:0 123:0 124:0 125:0 126:3.2121 127:0 128:0 129:0 130:0 131:0 132:0 133:0 134:0 135:0 136:0 137:1.83258 138:0 139:0 140:0 141:0 142:0 143:0 144:0 145:0 146:0 147:0 148:0 149:0 150:3.66198 151:2.21689 152:0 153:0 154:0 155:0 156:0 157:0 158:0 159:0 160:0 161:0 162:0 163:1.09362 164:0 165:0 166:0 167:0 168:0 169:0 170:0 171:0 172:0 173:0 174:0 175:0 176:0 177:0 178:0 179:0 180:1.51413 181:0 182:4.78041 183:0 184:0 185:0 186:0 187:0 188:0 189:0 190:0 191:0 192:0 193:0 194:0 195:0 196:0 197:0 198:2.00248 199:0 
-0.3552704013826077 -0.4843199676271587 0 0:0 1:0 2:0 3:0 4:0 5:0 6:0 7:0 8:0 9:0 10:0 11:0 12:0 13:0 14:0 15:0 16:0 17:1.84833 18:0 19:0 20:0 21:0 22:0 23:0 24:0 25:0 26:0 27:0 28:0 29:0 30:0 31:0 32:0 33:0 34:0 35:0 36:0 37:0 38:0 39:0 40:0 41:0 42:0 43:0 44:0 45:0 46:0 47:2.74778 48:0 49:0 50:0 51:0 52:0 53:0 54:0 55:0 56:0 57:0 58:0 59:0 60:0 61:0 62:0 63:0 64:0 65:0 66:0 67:0 68:0 69:0 70:0 71:0 72:0 73:0 74:0 75:0 76:0 77:0 78:1.54881 79:0 80:0 81:0 82:0 83:0 84:0 85:0 86:0 87:0 88:2.90042 89:0 90:0 91:0 92:0 93:0 94:0 95:0 96:0 97:0 98:0 99:0 100:0 101:5.37822 102:0 103:0 104:0 105:0 106:0 107:0 108:0 109:0 110:4.04555 111:4.04555 112:0 113:0 114:0 115:0 116:0 117:0 118:0 119:0 120:0 121:0.502527 122:2.59027 123:0 124:2.08655 125:0 126:0 127:0 128:0 129:0 130:0 131:3.59357 132:0 133:6.08444 134:0 135:0 136:0 137:0 138:0 139:0 140:0 141:5.80159 142:0 143:0 144:3.42214 145:0 146:4.91084 147:0 148:0 149:0 150:0 151:1.30933 152:0 153:0 154:0 155:0 156:0 157:0 158:0 159:0 160:1.12393 161:0 162:0 163:1.09362 164:0 165:0 166:0 167:0 168:1.43759 169:0 170:0 171:0 172:0 173:6.18536 174:0 175:0 176:0 177:0 178:0 179:0 180:0 181:0 182:0 183:0 184:0 185:0 186:0 187:0 188:0 189:0 190:0 191:0 192:0 193:0 194:0 195:0 196:0 197:0 198:2.00248 199:0 
-1 -1 0.05807999532822521 0:0 1:0 2:0 3:0 4:0 5:0 6:0 7:0 8:0 9:0 10:0 11:0 12:0 13:0 14:0 15:0 16:0 17:1.84833 18:0 19:0 20:1.56065 21:0 22:0 23:0 24:0 25:0 26:2.29715 27:0 28:0 29:0 30:0 31:0 32:0 33:3.05073 34:0 35:0 36:0 37:0 38:0 39:0 40:0 41:0 42:0 43:0 44:0 45:0 46:0 47:1.30933 48:0 49:0 50:0 51:0 52:0 53:0 54:1.94841 55:0 56:0 57:0 58:0 59:0 60:0 61:0 62:0 63:0 64:0 65:0 66:0 67:0 68:0 69:0 70:0 71:0 72:0 73:0 74:0 75:0 76:0 77:0 78:3.69592 79:0 80:0 81:0 82:0 83:0 84:0 85:0 86:0 87:0 88:0 89:0 90:0 91:0 92:0 93:0 94:0 95:0 96:0 97:0 98:0 99:0 100:0 101:2.25379 102:0 103:0 104:0 105:9.65388 106:0 107:9.65388 108:0 109:0 110:4.04555 111:0 112:0 113:0 114:0 115:0 116:0 117:0 118:0 119:0 120:1.6874 121:1.70753 122:0 123:0 124:0.994252 125:5.61705 126:0 127:0 128:0 129:0 130:0 131:0 132:3.59357 133:3.59357 134:0 135:0 136:0 137:0 138:0 139:1.02862 140:0 141:3.42652 142:0 143:0 144:2.02117 145:0 146:4.91084 147:0 148:0 149:0 150:0 151:1.30933 152:0 153:2.68321 154:0 155:0 156:0 157:0 158:0 159:0 160:0 161:0 162:0 163:0 164:0 165:0 166:0 167:4.68046 168:0 169:0 170:1.96611 171:2.63432 172:0 173:0 174:5.8617 175:1.00786 176:0 177:0 178:0 179:1.7148 180:0 181:2.27789 182:0 183:2.27789 184:0 185:0 186:0 187:0 188:0 189:0 190:0 191:0 192:0 193:0 194:0 195:0 196:0 197:0 198:2.00248 199:0 
-0.4575179504748694 -0.4570259268103884 0.0474900660053922 0:0 1:0 2:0 3:2.88005 4:0 5:0 6:0 7:0 8:0 9:0 10:0 11:0 12:0 13:0 14:0 15:0 16:0 17:0 18:0 19:0 20:0 21:0 22:0 23:0 24:0 25:0 26:0 27:0 28:0 29:0 30:0 31:0 32:0 33:3.05073 34:0 35:0 36:0 37:0 38:0 39:0 40:0 41:0 42:0 43:0 44:0 45:0 46:0 47:5.01895 48:0 49:0 50:0 51:2.49496 52:3.55501 53:0 54:0 55:0 56:0 57:0 58:0 59:0 60:0 61:0 62:0 63:0 64:0 65:0 66:0 67:0 68:0 69:0 70:0 71:0 72:0 73:0 74:0 75:0 76:0 77:0 78:1.54881 79:2.73337 80:0 81:0 82:0 83:0 84:0 85:0 86:0 87:0 88:0 89:0 90:0 91:0 92:0 93:0 94:0 95:0 96:0 97:0 98:0 99:0 100:0 101:0 102:0 103:0 104:0 105:0 106:0 107:0 108:0 109:0 110:0 111:0 112:0 113:0 114:9.65388 115:0 116:0 117:0 118:0 119:0 120:3.5412 121:1.31131 122:2.59027 123:2.43612 124:1.68342 125:5.61705 126:0 127:0 128:0 129:0 130:2.73337 131:0 132:0 133:0 134:3.59357 135:7.54151 136:0 137:0 138:0 139:0 140:3.42652 141:0 142:0 143:0 144:2.02117 145:5.87382 146:0 147:0 148:0 149:0 150:0 151:2.74778 152:1.91393 153:0 154:0 155:0 156:0 157:0 158:0 159:0 160:1.12393 161:8.70646 162:0 163:0 164:3.77617 165:0 166:0 167:0 168:0 169:0 170:0 171:0 172:0 173:0 174:0 175:0 176:0 177:0 178:0 179:0 180:0 181:0 182:0 183:0 184:0 185:0 186:0 187:0 188:0 189:0 190:0 191:0 192:0 193:0 194:0 195:0 196:0 197:0 198:0 199:0 
-0.7661595206616623 -0.7793712646739525 0.01133814954732513 0:0 1:0 2:0 3:3.56975 4:0 5:0 6:0 7:0 8:0 9:0 10:0 11:0 12:0 13:0 14:0 15:0 16:0 17:0 18:0 19:0 20:0 21:0 22:0 23:0 24:0 25:0 26:0 27:0 28:0 29:0 30:0 31:1.93102 32:0 33:3.05073 34:0 35:0 36:0 37:0 38:0 39:0 40:0 41:0 42:0 43:0 44:0 45:0 46:0 47:5.23175 48:0 49:0 50:0 51:4.22433 52:5.8617 53:0 54:0 55:0 56:0 57:0 58:0 59:0 60:0 61:0 62:0 63:0 64:0 65:0 66:2.14132 67:0 68:0 69:0 70:0 71:0 72:0 73:0 74:0 75:0 76:0 77:0 78:4.76948 79:2.73337 80:0 81:0 82:0 83:0 84:0 85:0 86:0 87:0 88:0 89:0 90:2.30259 91:0 92:0 93:0 94:0 95:0 96:0 97:0 98:0 99:0 100:0 101:0 102:0 103:0 104:0 105:0 106:0 107:0 108:0 109:0 110:0 111:0 112:0 113:0 114:9.65388 115:0 116:0 117:0 118:0 119:0 120:4.71081 121:1.40293 122:2.59027 123:2.43612 124:2.37258 125:5.61705 126:0 127:0 128:0 129:0 130:8.05226 131:0 132:0 133:0 134:3.59357 135:7.54151 136:0 137:0 138:0 139:0 140:5.80159 141:0 142:0 143:0 144:2.02117 145:5.87382 146:0 147:0 148:0 149:0 150:0 151:3.65534 152:1.91393 153:0 154:0 155:0 156:0 157:0 158:2.1848 159:0 160:1.12393 161:9.39879 162:0 163:0 164:3.77617 165:0 166:0 167:0 168:0 169:0 170:4.69172 171:0 172:0 173:0 174:0 175:0 176:0 177:0 178:0 179:0 180:0 181:0 182:0 183:0 184:0 185:0 186:0 187:0 188:0 189:0 190:0 191:0 192:0 193:0 194:0 195:0 196:0 197:0 198:0 199:0 
-0.7626433005467259 -0.6582572467967266 0.3232930123099184 0:0 1:0 2:0 3:3.56975 4:0 5:0 6:0 7:0 8:0 9:0 10:0 11:0 12:0 13:0 14:0 15:0 16:0 17:0 18:0 19:0 20:0 21:0 22:0 23:0 24:0 25:0 26:0 27:0 28:0 29:0 30:0 31:1.93102 32:0 33:0 34:0 35:0 36:0 37:0 38:0 39:0 40:0 41:0 42:0 43:0 44:0 45:0 46:0 47:5.01895 48:0 49:0 50:0 51:2.49496 52:5.01037 53:0 54:0 55:0 56:0 57:0 58:0 59:0 60:0 61:0 62:0 63:0 64:0 65:0 66:2.14132 67:0 68:0 69:0 70:0 71:0 72:0 73:0 74:0 75:0 76:0 77:0 78:4.56266 79:0 80:0 81:0 82:0 83:0 84:0 85:0 86:0 87:0 88:0 89:0 90:2.30259 91:0 92:0 93:0 94:0 95:0 96:0 97:0 98:0 99:0 100:0 101:0 102:0 103:0 104:0 105:0 106:0 107:0 108:0 109:0 110:0 111:0 112:0 113:0 114:0 115:0 116:0 117:0 118:0 119:0 120:3.5412 121:0.502527 122:0 123:0 124:1.68342 125:0 126:0 127:0 128:0 129:0 130:7.63091 131:0 132:0 133:0 134:0 135:0 136:0 137:0 138:0 139:0 140:3.42652 141:0 142:0 143:0 144:0 145:0 146:0 147:0 148:0 149:0 150:0 151:2.74778 152:0 153:0 154:0 155:0 156:0 157:0 158:2.1848 159:0 160:0 161:6.50243 162:0 163:0 164:0 165:0 166:0 167:0 168:0 169:0 170:0 171:0 172:0 173:0 174:0 175:0 176:0 177:0 178:0 179:0 180:0 181:0 182:0 183:0 184:0 185:0 186:0 187:0 188:0 189:0 190:0 191:0 192:0 193:0 194:0 195:0 196:0 197:0 198:0 199:0 
-0.783005792966621 -0.5701880693330991 0.7971863604876716 0:0 1:0 2:0 3:0 4:0 5:0 6:0 7:0 8:0 9:0 10:0 11:0 12:0 13:0 14:0 15:0 16:0 17:3.12949 18:0 19:0 20:0 21:0 22:0 23:0 24:0 25:0 26:1.35674 27:0 28:0 29:0 30:0 31:1.93102 32:0 33:0 34:0 35:0 36:0 37:0 38:0 39:0 40:0 41:0 42:0 43:0 44:0 45:0 46:0 47:2.21689 48:0 49:0 50:0 51:0 52:0 53:0 54:0 55:0 56:0 57:0 58:0 59:0 60:0 61:0 62:0 63:0 64:0 65:0 66:0 67:0 68:0 69:0 70:0 71:0 72:0 73:0 74:0 75:0 76:0 77:0 78:1.54881 79:0 80:0 81:0 82:0 83:0 84:0 85:0 86:0 87:0 88:0 89:0 90:0 91:0 92:0 93:0 94:0 95:0 96:0 97:4.4431 98:0 99:0 100:0 101:0 102:0 103:0 104:0 105:0 106:4.04555 107:0 108:0 109:0 110:0 111:0 112:0 113:0 114:0 115:0 116:0 117:0 118:0 119:0 120:1.6874 121:1.05461 122:0 123:0 124:0 125:0 126:0 127:0 128:0 129:0 130:0 131:0 132:0 133:0 134:0 135:0 136:0 137:0 138:0 139:0 140:0 141:0 142:0 143:2.81341 144:0 145:0 146:0 147:0 148:0 149:0 150:0 151:0 152:0 153:0 154:0 155:0 156:0 157:0 158:0 159:2.1848 160:1.12393 161:0 162:0 163:1.09362 164:0 165:0 166:0 167:0 168:0 169:0 170:0 171:0 172:0 173:0 174:0 175:0 176:0 177:4.44961 178:2.12026 179:0 180:0 181:0 182:0 183:2.27789 184:0 185:0 186:0 187:0 188:0 189:0 190:0 191:0 192:0 193:0 194:0 195:0 196:0 197:0 198:0 199:0 
-0.9727894573928255 -0.3758863870337042 1 0:0 1:0 2:0 3:0 4:0 5:0 6:0 7:0 8:0 9:0 10:0 11:0 12:0 13:0 14:0 15:0 16:0 17:0 18:0 19:0 20:0 21:0 22:0 23:0 24:0 25:0 26:4.17799 27:2.35388 28:0 29:0 30:0 31:0 32:0 33:0 34:0 35:0 36:0 37:0 38:0 39:0 40:0 41:0 42:0 43:0 44:0 45:0 46:0 47:3.12445 48:0 49:0 50:0 51:0 52:0 53:0 54:0 55:0 56:0 57:0 58:0 59:0 60:0 61:0 62:0 63:0 64:0 65:0 66:0 67:0 68:0 69:0 70:0 71:0 72:0 73:0 74:0 75:0 76:0 77:0 78:0 79:0 80:0 81:0 82:0 83:0 84:0 85:0 86:0 87:0 88:0 89:0 90:0 91:0 92:0 93:0 94:0 95:0 96:0 97:0 98:0 99:0 100:0 101:0 102:0 103:0 104:0 105:0 106:0 107:0 108:0 109:0 110:0 111:0 112:0 113:0 114:0 115:0 116:0 117:0 118:0 119:0 120:0 121:0.850852 122:0 123:0 124:2.59444 125:2.35388 126:0 127:0 128:0 129:0 130:0 131:0 132:3.59357 133:0 134:0 135:0 136:0 137:0 138:0 139:0 140:0 141:0 142:0 143:0 144:0 145:0 146:0 147:1.77196 148:0 149:0 150:0 151:1.30933 152:1.91393 153:0 154:0 155:0 156:0 157:0 158:0 159:0 160:0 161:0 162:0 163:1.09362 164:4.68046 165:0 166:0 167:0 168:0 169:0 170:3.32892 171:1.25527 172:0 173:0 174:0 175:0 176:0 177:0 178:0 179:0 180:0 181:0 182:0 183:0 184:0 185:0 186:0 187:0 188:0 189:0 190:0 191:0 192:0 193:0 194:0 195:0 196:0 197:0 198:2.00248 199:0 
-0.5721644628186693 -0.5407708552902413 0.3872137483954223 0:0 1:0 2:0 3:0 4:0 5:0 6:0 7:0 8:0 9:0 10:0 11:0 12:0 13:0 14:0 15:0 16:0 17:0 18:0 19:0 20:0 21:0 22:0 23:0 24:0 25:0 26:0 27:0 28:0 29:0 30:0 31:0 32:0 33:0 34:0 35:0 36:0 37:0 38:0 39:0 40:0 41:0 42:0 43:0 44:0 45:0 46:0 47:1.30933 48:0 49:0 50:0 51:0 52:0 53:0 54:0 55:0 56:0 57:0 58:0 59:0 60:0 61:0 62:0 63:0 64:0 65:0 66:0 67:0 68:0 69:0 70:0 71:0 72:0 73:0 74:0 75:0 76:0 77:0 78:0 79:0 80:0 81:0 82:0 83:0 84:0 85:0 86:0 87:0 88:0 89:0 90:0 91:0 92:0 93:0 94:0 95:0 96:0 97:0 98:0 99:0 100:0 101:0 102:0 103:0 104:0 105:0 106:0 107:0 108:6.84972 109:0 110:0 111:0 112:0 113:0 114:0 115:0 116:0 117:0 118:0 119:0 120:0 121:1.05461 122:6.18114 123:0 124:0.994252 125:0 126:0 127:0 128:0 129:0 130:2.73337 131:0 132:0 133:0 134:0 135:0 136:0 137:0 138:3.28341 139:0 140:0 141:3.42652 142:0 143:0 144:0 145:0 146:0 147:0 148:0 149:0 150:0 151:0 152:0 153:0 154:0 155:0 156:0 157:0 158:0 159:0 160:0 161:0 162:0 163:0 164:0 165:0 166:0 167:0 168:0 169:0 170:0 171:0 172:0 173:2.09964 174:0 175:0 176:0 177:0 178:0 179:0 180:0 181:0 182:0 183:6.35933 184:0 185:0 186:0 187:0 188:0 189:0 190:0 191:0 192:0 193:0 194:0 195:0 196:0 197:0 198:0 199:0 
-0.7033397262404408 -0.6789292823102348 0.1872249147280888 0:0 1:0 2:0 3:0 4:0 5:0 6:0 7:0 8:0 9:0 10:0 11:0 12:0 13:0 14:0 15:0 16:0 17:0 18:0 19:0 20:0 21:0 22:0 23:0 24:0 25:0 26:2.84726 27:0 28:0 29:0 30:0 31:0 32:0 33:1.80181 34:0 35:0 36:0 37:0 38:0 39:0 40:0 41:0 42:0 43:0 44:0 45:0 46:0 47:1.30933 48:0 49:0 50:0 51:0 52:0 53:0 54:3.29895 55:0 56:0 57:0 58:0 59:0 60:0 61:2.16282 62:0 63:0 64:0 65:0 66:0 67:0 68:0 69:0 70:0 71:0 72:0 73:0 74:0 75:0 76:0 77:0 78:0 79:0 80:0 81:0 82:0 83:0 84:0 85:0 86:0 87:0 88:0 89:0 90:0 91:0 92:0 93:0 94:0 95:0 96:0 97:0 98:0 99:0 100:0 101:0 102:0 103:0 104:0 105:0 106:0 107:4.04555 108:0 109:0 110:4.04555 111:0 112:0 113:11.2942 114:0 115:0 116:0 117:0 118:0 119:0 120:0 121:1.19918 122:2.59027 123:2.43612 124:0 125:0 126:0 127:0 128:0 129:0 130:0 131:3.59357 132:0 133:0 134:0 135:0 136:0 137:0 138:0 139:0 140:0 141:0 142:0 143:0 144:0 145:0 146:0 147:0 148:0 149:0 150:0 151:0 152:0 153:0 154:0 155:0 156:0 157:0 158:0 159:0 160:0 161:0 162:0 163:0 164:0 165:0 166:0 167:0 168:0 169:0 170:0 171:0 172:0 173:2.09964 174:0 175:1.00786 176:0 177:2.12026 178:0 179:0 180:0 181:0 182:0 183:2.27789 184:0 185:0 186:0 187:0 188:0 189:0 190:0 191:0 192:0 193:0 194:0 195:0 196:0 197:0 198:0 199:0 
-0.8148280358814743 -0.8490778077838012 0 0:0 1:0 2:0 3:0 4:0 5:0 6:0 7:0 8:0 9:0 10:0 11:0 12:0 13:0 14:0 15:0 16:0 17:0 18:0 19:0 20:0 21:0 22:0 23:0 24:0 25:0 26:0 27:0 28:0 29:0 30:0 31:0 32:1.6874 33:1.80181 34:0 35:0 36:0 37:0 38:0 39:0 40:0 41:0 42:0 43:0 44:0 45:0 46:0 47:3.12445 48:0 49:1.98413 50:0 51:0 52:0 53:0 54:0 55:0 56:0 57:0 58:0 59:0 60:0 61:0 62:0 63:0 64:0 65:0 66:2.14132 67:0 68:0 69:0 70:0 71:0 72:0 73:0 74:0 75:0 76:0 77:0 78:0 79:0 80:0 81:0 82:0 83:0 84:0 85:0 86:0 87:0 88:0 89:0 90:0 91:0 92:0 93:0 94:0 95:0 96:0 97:0 98:0 99:0 100:0 101:2.25379 102:0 103:0 104:0 105:0 106:0 107:0 108:0 109:0 110:0 111:0 112:0 113:0 114:0 115:0 116:0 117:0 118:0 119:0 120:1.6874 121:1.65964 122:2.59027 123:0 124:0 125:0 126:0 127:2.65926 128:0 129:0 130:0 131:0 132:8.57531 133:10.0324 134:6.08444 135:6.08444 136:0 137:0 138:0 139:1.02862 140:0 141:0 142:3.94148 143:0 144:3.42214 145:2.78973 146:0 147:3.71865 148:0 149:0 150:0 151:0 152:3.24056 153:0 154:0 155:0 156:0 157:0 158:2.1848 159:0 160:1.90298 161:0 162:0 163:1.09362 164:0 165:0 166:0 167:0 168:0 169:0 170:0 171:0 172:0 173:2.09964 174:0 175:0 176:0 177:0 178:0 179:0 180:0 181:2.27789 182:0 183:2.27789 184:0 185:0 186:0 187:0 188:0 189:0 190:0 191:0 192:0 193:0 194:0 195:0 196:0 197:0 198:0 199:0 
-0.705424070139039 -0.2552360339045449 1 0:0 1:0 2:0 3:0 4:0 5:0 6:0 7:0 8:0 9:0 10:0 11:0 12:0 13:0 14:0 15:0 16:0 17:1.84833 18:0 19:0 20:0 21:0 22:0 23:0 24:0 25:0 26:0 27:0 28:0 29:0 30:0 31:0 32:1.6874 33:0 34:0 35:0 36:0 37:0 38:0 39:0 40:0 41:0 42:0 43:0 44:0 45:0 46:0 47:1.30933 48:0 49:0 50:0 51:0 52:0 53:0 54:0 55:0 56:0 57:0 58:0 59:0 60:0 61:0 62:0 63:0 64:0 65:0 66:0 67:0 68:0 69:0 70:0 71:0 72:0 73:0 74:0 75:0 76:0 77:0 78:0 79:0 80:0 81:0 82:0 83:0 84:0 85:0 86:0 87:0 88:0 89:0 90:0 91:0 92:0 93:0 94:0 95:0 96:0 97:0 98:0 99:0 100:0 101:0 102:0 103:0 104:0 105:0 106:0 107:0 108:0 109:0 110:0 111:0 112:0 113:0 114:0 115:0 116:0 117:0 118:0 119:0 120:0 121:0 122:0 123:0 124:0.994252 125:0 126:0 127:0 128:0 129:0 130:0 131:0 132:0 133:0 134:0 135:0 136:0 137:0 138:0 139:0 140:0 141:0 142:0 143:2.81341 144:3.42214 145:0 146:4.91084 147:0 148:0 149:0 150:0 151:2.21689 152:0 153:2.68321 154:0 155:0 156:0 157:0 158:0 159:0 160:0 161:0 162:0 163:0 164:0 165:0 166:0 167:0 168:0 169:0 170:0 171:0 172:0 173:4.40634 174:0 175:0 176:0 177:2.12026 178:0 179:0 180:0 181:0 182:0 183:0 184:0 185:0 186:0 187:0 188:0 189:0 190:0 191:0 192:0 193:0 194:0 195:0 196:0 197:0 198:0 199:0 
-0.6816717115483263 -0.1746321444567763 0.3110483914596096 0:0 1:0 2:0 3:0 4:0 5:0 6:0 7:0 8:0 9:0 10:0 11:0 12:0 13:2.38055 14:0 15:0 16:0 17:0 18:0 19:0 20:0 21:0 22:0 23:0 24:0 25:0 26:0 27:0 28:0 29:0 30:0 31:0 32:0 33:0 34:0 35:0 36:3.73724 37:0 38:0 39:0 40:0 41:0 42:0 43:0 44:0 45:0 46:0 47:1.30933 48:0 49:0 50:0 51:0 52:0 53:0 54:0 55:0 56:0 57:0 58:0 59:0 60:0 61:0 62:0 63:0 64:0 65:0 66:0 67:0 68:0 69:0 70:0 71:0 72:0 73:0 74:0 75:0 76:0 77:0 78:0 79:0 80:0 81:0 82:0 83:0 84:0 85:0 86:0 87:0 88:0 89:0 90:0 91:0 92:0 93:0 94:0 95:0 96:0 97:0 98:0 99:0 100:0 101:6.94043 102:0 103:0 104:0 105:0 106:0 107:0 108:0 109:0 110:0 111:0 112:0 113:0 114:0 115:0 116:0 117:0 118:0 119:0 120:1.6874 121:1.19918 122:0 123:2.43612 124:0.994252 125:0 126:0 127:0 128:0 129:0 130:0 131:0 132:0 133:0 134:0 135:0 136:0 137:0 138:0 139:1.02862 140:0 141:0 142:0 143:2.81341 144:0 145:0 146:0 147:0 148:0 149:0 150:0 151:0 152:1.91393 153:0 154:0 155:0 156:0 157:0 158:0 159:0 160:1.12393 161:0 162:0 163:1.09362 164:0 165:0 166:0 167:0 168:1.43759 169:0 170:0 171:0 172:0 173:2.09964 174:0 175:1.70645 176:0 177:0 178:0 179:0 180:0 181:0 182:0 183:2.27789 184:0 185:0 186:0 187:0 188:0 189:0 190:0 191:0 192:0 193:0 194:0 195:0 196:0 197:0 198:0 199:0 
-1 -0.6365640882579174 0.3464219880659887 0:0 1:0 2:0 3:0 4:0 5:0 6:0 7:0 8:0 9:0 10:0 11:0 12:0 13:0 14:0 15:0 16:0 17:0 18:0 19:0 20:4.59753 21:0 22:0 23:0 24:0 25:0 26:0 27:0 28:0 29:0 30:0 31:0 32:0 33:0 34:0 35:0 36:2.20727 37:4.22433 38:0 39:0 40:0 41:0 42:0 43:0 44:0 45:0 46:0 47:3.65534 48:0 49:0 50:0 51:0 52:0 53:0 54:0 55:0 56:0 57:0 58:0 59:0 60:0 61:2.16282 62:0 63:0 64:0 65:0 66:0 67:0 68:0 69:0 70:0 71:0 72:0 73:0 74:0 75:0 76:0 77:0 78:0 79:0 80:0 81:0 82:0 83:0 84:0 85:0 86:0 87:0 88:0 89:0 90:0 91:0 92:0 93:0 94:0 95:0 96:0 97:0 98:0 99:0 100:0 101:0 102:0 103:0 104:0 105:0 106:0 107:0 108:0 109:0 110:0 111:0 112:4.04555 113:0 114:0 115:0 116:0 117:0 118:0 119:0 120:2.85702 121:1.4804 122:0 123:0 124:0 125:0 126:0 127:0 128:0 129:0 130:5.73628 131:0 132:0 133:0 134:0 135:0 136:0 137:0 138:0 139:2.45459 140:0 141:0 142:0 143:0 144:0 145:0 146:0 147:1.77196 148:0 149:0 150:0 151:0 152:0 153:1.58475 154:0 155:0 156:0 157:2.04022 158:0 159:2.1848 160:0 161:0 162:0 163:0 164:0 165:0 166:0 167:0 168:3.43051 169:0 170:4.12611 171:1.25527 172:0 173:0 174:0 175:0 176:0 177:0 178:0 179:0 180:0 181:0 182:0 183:0 184:0 185:0 186:0 187:0 188:0 189:0 190:0 191:0 192:0 193:0 194:0 195:0 196:0 197:0 198:0 199:0 
-0.03410257570563761 -0 0.239968582243963 0:0 1:0 2:0 3:0 4:0 5:0 6:0 7:0 8:0 9:0 10:0 11:0 12:0 13:0 14:0 15:0 16:0 17:0 18:0 19:0 20:0 21:0 22:0 23:0 24:0 25:0 26:0 27:0 28:0 29:0 30:0 31:0 32:0 33:0 34:0 35:0 36:0 37:0 38:0 39:0 40:0 41:0 42:0 43:0 44:0 45:0 46:0 47:1.30933 48:0 49:0 50:0 51:0 52:0 53:0 54:0 55:0 56:0 57:0 58:0 59:0 60:0 61:0 62:0 63:0 64:0 65:0 66:0 67:0 68:0 69:0 70:0 71:0 72:0 73:0 74:0 75:0 76:0 77:0 78:0 79:0 80:0 81:0 82:0 83:0 84:0 85:0 86:0 87:0 88:0 89:0 90:0 91:0 92:0 93:0 94:0 95:0 96:0 97:0 98:0 99:0 100:3.35241 101:3.81601 102:0 103:0 104:0 105:0 106:0 107:0 108:4.04555 109:0 110:0 111:0 112:0 113:0 114:0 115:0 116:0 117:0 118:0 119:0 120:0 121:0.850852 122:0 123:2.43612 124:0.994252 125:0 126:0 127:0 128:0 129:0 130:0 131:0 132:0 133:0 134:0 135:0 136:0 137:0 138:3.28341 139:0 140:0 141:3.42652 142:0 143:2.81341 144:0 145:0 146:0 147:0 148:0 149:0 150:0 151:0 152:0 153:0 154:0 155:0 156:0 157:0 158:0 159:2.1848 160:1.12393 161:0 162:0 163:1.85167 164:0 165:0 166:0 167:0 168:0 169:0 170:0 171:1.25527 172:0 173:0 174:0 175:1.70645 176:1.44817 177:0 178:0 179:0 180:0 181:2.27789 182:0 183:4.78041 184:0 185:0 186:0 187:0 188:0 189:0 190:0 191:0 192:0 193:0 194:0 195:0 196:0 197:0 198:0 199:0 
-0.3309821053828336 -0.5173397483740095 1 0:0 1:0 2:0 3:0 4:0 5:0 6:0 7:0 8:0 9:0 10:0 11:0 12:0 13:0 14:0 15:0 16:0 17:0 18:0 19:0 20:0 21:0 22:0 23:0 24:0 25:0 26:1.35674 27:0 28:0 29:0 30:0 31:0 32:0 33:0 34:0 35:0 36:0 37:0 38:0 39:0 40:0 41:0 42:0 43:0 44:0 45:0 46:0 47:1.30933 48:0 49:0 50:0 51:0 52:0 53:0 54:0 55:0 56:0 57:0 58:0 59:0 60:0 61:0 62:0 63:0 64:0 65:0 66:0 67:0 68:0 69:0 70:0 71:0 72:0 73:0 74:0 75:0 76:0 77:0 78:0 79:0 80:0 81:0 82:0 83:0 84:0 85:0 86:0 87:0 88:0 89:0 90:0 91:0 92:0 93:0 94:0 95:0 96:0 97:0 98:0 99:0 100:0 101:0 102:0 103:0 104:0 105:0 106:0 107:0 108:0 109:0 110:0 111:0 112:0 113:4.04555 114:0 115:0 116:0 117:4.04555 118:0 119:4.04555 120:0 121:0 122:0 123:0 124:0 125:0 126:0 127:0 128:0 129:0 130:0 131:0 132:0 133:0 134:0 135:0 136:0 137:0 138:0 139:0 140:0 141:0 142:0 143:0 144:0 145:0 146:0 147:1.77196 148:0 149:0 150:0 151:0 152:4.01659 153:0 154:0 155:0 156:0 157:0 158:0 159:2.1848 160:2.35869 161:0 162:0 163:0 164:0 165:0 166:0 167:0 168:0 169:0 170:0 171:0 172:0 173:0 174:0 175:1.70645 176:1.44817 177:0 178:0 179:0 180:0 181:0 182:0 183:0 184:0 185:0 186:0 187:0 188:0 189:0 190:0 191:0 192:0 193:0 194:0 195:0 196:0 197:0 198:0 199:2.00248 
-0 -0 0.6482277908499881 0:0 1:0 2:0 3:0 4:0 5:0 6:0 7:0 8:0 9:0 10:0 11:0 12:0 13:0 14:0 15:0 16:0 17:1.84833 18:0 19:0 20:0 21:0 22:0 23:0 24:0 25:0 26:1.35674 27:0 28:0 29:0 30:0 31:0 32:0 33:0 34:0 35:0 36:0 37:0 38:0 39:0 40:0 41:0 42:0 43:0 44:0 45:0 46:0 47:1.30933 48:0 49:0 50:0 51:0 52:0 53:0 54:0 55:0 56:0 57:0 58:0 59:0 60:0 61:0 62:0 63:0 64:0 65:0 66:0 67:0 68:0 69:0 70:0 71:0 72:0 73:0 74:0 75:0 76:0 77:0 78:2.62237 79:0 80:0 81:0 82:0 83:0 84:0 85:0 86:0 87:0 88:0 89:0 90:0 91:0 92:0 93:0 94:0 95:0 96:0 97:0 98:0 99:0 100:0 101:0 102:0 103:0 104:0 105:0 106:4.04555 107:0 108:0 109:0 110:0 111:0 112:0 113:0 114:0 115:0 116:0 117:0 118:0 119:0 120:0 121:0.850852 122:0 123:0 124:0 125:0 126:0 127:0 128:0 129:0 130:0 131:0 132:0 133:0 134:0 135:0 136:0 137:0 138:0 139:2.15867 140:0 141:0 142:0 143:0 144:2.02117 145:0 146:2.90042 147:0 148:0 149:0 150:0 151:0 152:0 153:0 154:0 155:0 156:0 157:0 158:0 159:0 160:0 161:0 162:0 163:0 164:0 165:0 166:0 167:0 168:0 169:0 170:0 171:1.25527 172:0 173:2.09964 174:0 175:1.70645 176:0 177:4.44961 178:0 179:0 180:0 181:2.27789 182:0 183:0 184:0 185:0 186:0 187:0 188:0 189:0 190:0 191:0 192:0 193:0 194:0 195:0 196:0 197:0 198:0 199:0 
-0.5755225566921696 -0.461859376329718 0.378380673615619 0:0 1:0 2:0 3:0 4:0 5:0 6:0 7:0 8:0 9:0 10:0 11:0 12:0 13:0 14:0 15:0 16:0 17:0 18:0 19:0 20:0 21:0 22:0 23:0 24:0 25:0 26:0 27:0 28:0 29:0 30:0 31:0 32:0 33:0 34:0 35:3.04703 36:0 37:0 38:0 39:0 40:0 41:0 42:0 43:0 44:0 45:0 46:0 47:1.30933 48:0 49:0 50:0 51:0 52:0 53:0 54:0 55:0 56:0 57:0 58:0 59:0 60:0 61:0 62:0 63:0 64:0 65:0 66:0 67:0 68:0 69:0 70:0 71:0 72:0 73:0 74:0 75:0 76:0 77:0 78:0 79:0 80:0 81:0 82:0 83:0 84:0 85:0 86:0 87:0 88:0 89:0 90:0 91:0 92:0 93:0 94:0 95:0 96:0 97:0 98:0 99:0 100:0 101:0 102:0 103:0 104:0 105:0 106:0 107:0 108:0 109:0 110:0 111:0 112:0 113:0 114:0 115:8.49005 116:0 117:4.04555 118:0 119:4.04555 120:0 121:0 122:0 123:4.1247 124:0 125:2.35388 126:0 127:0 128:0 129:0 130:0 131:0 132:0 133:0 134:0 135:0 136:0 137:0 138:0 139:1.02862 140:0 141:3.42652 142:0 143:0 144:0 145:0 146:0 147:0 148:0 149:0 150:0 151:0 152:0 153:0 154:0 155:0 156:0 157:2.04022 158:0 159:0 160:1.12393 161:0 162:0 163:1.85167 164:0 165:0 166:0 167:0 168:0 169:0 170:0 171:0 172:0 173:2.09964 174:0 175:1.70645 176:0 177:0 178:0 179:0 180:0 181:0 182:0 183:2.27789 184:0 185:0 186:0 187:0 188:0 189:0 190:0 191:0 192:0 193:0 194:0 195:0 196:0 197:0 198:0 199:0 
-0.1127422372869558 -0 0.3610465968670412 0:0 1:0 2:0 3:0 4:0 5:0 6:0 7:0 8:0 9:0 10:0 11:0 12:0 13:0 14:0 15:0 16:0 17:0 18:0 19:0 20:0 21:0 22:0 23:0 24:0 25:0 26:0 27:0 28:0 29:0 30:0 31:0 32:0 33:0 34:0 35:0 36:0 37:0 38:0 39:0 40:0 41:0 42:0 43:0 44:0 45:0 46:0 47:1.30933 48:0 49:0 50:0 51:0 52:2.09964 53:0 54:0 55:0 56:0 57:0 58:0 59:0 60:0 61:0 62:0 63:0 64:0 65:0 66:0 67:0 68:0 69:0 70:0 71:0 72:0 73:0 74:0 75:0 76:0 77:0 78:1.54881 79:0 80:0 81:0 82:0 83:0 84:0 85:0 86:0 87:0 88:0 89:0 90:0 91:0 92:0 93:0 94:0 95:0 96:0 97:0 98:0 99:0 100:0 101:0 102:0 103:0 104:0 105:0 106:4.04555 107:0 108:0 109:0 110:0 111:0 112:0 113:0 114:0 115:0 116:0 117:0 118:0 119:0 120:0 121:0.850852 122:2.59027 123:0 124:0 125:0 126:0 127:0 128:0 129:0 130:2.73337 131:0 132:3.59357 133:0 134:0 135:0 136:0 137:0 138:0 139:1.02862 140:0 141:0 142:0 143:2.81341 144:0 145:0 146:0 147:0 148:0 149:0 150:0 151:0 152:0 153:0 154:0 155:0 156:0 157:0 158:0 159:0 160:0 161:0 162:1.94841 163:0 164:0 165:0 166:0 167:2.23026 168:0 169:0 170:0 171:0 172:0 173:3.55501 174:0 175:1.00786 176:1.44817 177:0 178:0 179:3.5987 180:1.51413 181:0 182:0 183:3.85681 184:0 185:0 186:0 187:0 188:0 189:0 190:0 191:0 192:0 193:0 194:0 195:0 196:0 197:0 198:0 199:0 
-0.4129745300029648 -0.1664736180099022 0.1863778089249578 0:0 1:0 2:0 3:0 4:0 5:0 6:0 7:0 8:0 9:0 10:0 11:0 12:0 13:0 14:0 15:1.14728 16:0 17:1.84833 18:0 19:0 20:1.56065 21:0 22:0 23:0 24:0 25:0 26:0 27:0 28:0 29:2.90042 30:0 31:0 32:1.6874 33:0 34:0 35:0 36:0 37:0 38:0 39:0 40:0 41:0 42:0 43:0 44:0 45:0 46:0 47:1.30933 48:0 49:0 50:0 51:0 52:0 53:0 54:0 55:0 56:0 57:0 58:0 59:0 60:0 61:0 62:0 63:0 64:0 65:0 66:0 67:0 68:0 69:0 70:0 71:0 72:0 73:0 74:0 75:0 76:0 77:0 78:0 79:0 80:0 81:0 82:0 83:0 84:0 85:0 86:0 87:0 88:0 89:0 90:0 91:0 92:0 93:0 94:0 95:0 96:0 97:0 98:0 99:0 100:0 101:0 102:0 103:0 104:0 105:0 106:0 107:0 108:0 109:0 110:0 111:0 112:0 113:4.04555 114:0 115:4.04555 116:0 117:0 118:0 119:0 120:0 121:0.502527 122:0 123:0 124:0 125:0 126:0 127:0 128:0 129:0 130:0 131:0 132:0 133:0 134:0 135:0 136:0 137:0 138:0 139:0 140:0 141:0 142:0 143:2.81341 144:0 145:2.78973 146:2.90042 147:0 148:0 149:0 150:0 151:0 152:1.91393 153:3.78167 154:0 155:0 156:0 157:0 158:0 159:0 160:3.13774 161:3.73724 162:0 163:0 164:0 165:0 166:0 167:0 168:0 169:0 170:0 171:0 172:0 173:2.09964 174:0 175:1.00786 176:1.44817 177:2.12026 178:0 179:1.7148 180:0 181:0 182:0 183:2.27789 184:0 185:0 186:0 187:0 188:0 189:0 190:0 191:0 192:0 193:0 194:0 195:0 196:0 197:0 198:2.00248 199:0 
-0.8387398167440023 -0.726116083233362 0.273126661405438 0:0 1:0 2:0 3:0 4:0 5:0 6:0 7:2.25379 8:0 9:0 10:0 11:0 12:0 13:0 14:0 15:0 16:0 17:0 18:0 19:0 20:0 21:0 22:0 23:0 24:0 25:0 26:0 27:0 28:0 29:0 30:0 31:0 32:0 33:0 34:0 35:0 36:0 37:0 38:0 39:0 40:0 41:0 42:0 43:0 44:0 45:0 46:0 47:2.21689 48:0 49:0 50:0 51:0 52:0 53:0 54:0 55:0 56:0 57:0 58:0 59:0 60:0 61:0 62:0 63:0 64:0 65:0 66:0 67:0 68:0 69:0 70:0 71:0 72:0 73:0 74:0 75:0 76:0 77:0 78:0 79:0 80:0 81:0 82:0 83:0 84:0 85:0 86:0 87:0 88:0 89:2.90042 90:0 91:0 92:0 93:0 94:0 95:0 96:0 97:0 98:0 99:0 100:0 101:0 102:2.52573 103:0 104:0 105:0 106:8.49005 107:0 108:0 109:0 110:0 111:0 112:0 113:0 114:0 115:0 116:0 117:0 118:6.84972 119:0 120:0 121:0.850852 122:2.59027 123:0 124:0 125:0 126:0 127:0 128:0 129:0 130:0 131:0 132:0 133:0 134:0 135:0 136:0 137:0 138:0 139:1.02862 140:0 141:0 142:0 143:0 144:0 145:1.64766 146:0 147:0 148:0 149:0 150:0 151:0 152:0 153:0 154:0 155:0 156:0 157:0 158:0 159:0 160:0 161:0 162:0 163:0 164:0 165:0 166:0 167:0 168:0 169:0 170:0 171:0 172:0 173:0 174:0 175:1.00786 176:1.44817 177:0 178:0 179:0 180:2.56364 181:5.43572 182:0 183:0 184:0 185:0 186:0 187:0 188:0 189:0 190:0 191:0 192:0 193:0 194:0 195:0 196:0 197:0 198:0 199:0 
-1 -1 0.3334752044037959 0:0 1:0 2:0 3:0 4:0 5:0 6:0 7:0 8:0 9:0 10:0 11:0 12:0 13:0 14:0 15:0 16:0 17:0 18:0 19:0 20:0 21:0 22:0 23:0 24:0 25:0 26:1.35674 27:2.35388 28:0 29:0 30:0 31:0 32:0 33:0 34:0 35:0 36:0 37:0 38:0 39:0 40:0 41:0 42:0 43:0 44:0 45:0 46:0 47:3.12445 48:0 49:0 50:0 51:0 52:0 53:0 54:0 55:0 56:0 57:0 58:0 59:0 60:0 61:0 62:0 63:0 64:0 65:0 66:0 67:0 68:0 69:0 70:0 71:0 72:0 73:0 74:0 75:0 76:0 77:0 78:0 79:0 80:0 81:0 82:0 83:0 84:0 85:0 86:0 87:0 88:0 89:0 90:0 91:0 92:0 93:0 94:0 95:0 96:0 97:0 98:0 99:0 100:0 101:0 102:0 103:0 104:0 105:0 106:0 107:0 108:0 109:13.7464 110:0 111:0 112:0 113:0 114:0 115:0 116:6.84972 117:0 118:0 119:0 120:0 121:0 122:0 123:0 124:0 125:0 126:0 127:0 128:0 129:0 130:0 131:8.57531 132:0 133:0 134:0 135:0 136:0 137:0 138:0 139:0 140:0 141:0 142:0 143:0 144:0 145:0 146:0 147:0 148:0 149:0 150:0 151:0 152:0 153:0 154:0 155:0 156:0 157:0 158:0 159:0 160:0 161:0 162:0 163:0 164:0 165:0 166:0 167:0 168:0 169:0 170:4.12611 171:0 172:0 173:0 174:0 175:0 176:0 177:0 178:0 179:0 180:0 181:0 182:0 183:0 184:0 185:0 186:0 187:0 188:0 189:0 190:0 191:0 192:0 193:0 194:0 195:0 196:0 197:0 198:0 199:0 
-0.3791065790390303 -0.285145568306943 0.3758917306939944 0:0 1:0 2:0 3:0 4:0 5:0 6:0 7:0 8:0 9:0 10:0 11:0 12:0 13:0 14:0 15:0 16:0 17:0 18:0 19:0 20:0 21:0 22:0 23:0 24:0 25:0 26:2.29715 27:0 28:0 29:0 30:0 31:0 32:1.6874 33:0 34:0 35:0 36:0 37:0 38:0 39:0 40:0 41:0 42:0 43:0 44:0 45:0 46:0 47:2.21689 48:0 49:0 50:0 51:0 52:0 53:0 54:0 55:0 56:0 57:0 58:0 59:0 60:0 61:0 62:0 63:0 64:0 65:0 66:0 67:2.04022 68:0 69:0 70:0 71:0 72:0 73:0 74:0 75:0 76:0 77:0 78:0 79:0 80:0 81:0 82:2.99573 83:0 84:0 85:0 86:0 87:0 88:0 89:2.90042 90:0 91:0 92:0 93:0 94:0 95:0 96:0 97:0 98:0 99:0 100:0 101:4.72984 102:0 103:0 104:0 105:0 106:0 107:0 108:4.04555 109:0 110:0 111:0 112:0 113:0 114:0 115:0 116:0 117:0 118:0 119:0 120:0 121:1.05461 122:0 123:0 124:0 125:0 126:0 127:0 128:0 129:0 130:0 131:0 132:0 133:0 134:0 135:0 136:0 137:0 138:3.28341 139:0 140:0 141:0 142:0 143:0 144:0 145:0 146:0 147:0 148:0 149:0 150:0 151:0 152:0 153:1.58475 154:0 155:0 156:0 157:0 158:0 159:0 160:0 161:0 162:0 163:0 164:0 165:0 166:0 167:0 168:0 169:0 170:0 171:0 172:0 173:5.01037 174:0 175:1.00786 176:1.44817 177:0 178:0 179:0 180:0 181:0 182:0 183:0 184:0 185:0 186:0 187:0 188:0 189:0 190:0 191:0 192:0 193:0 194:0 195:0 196:0 197:0 198:0 199:0 
