svm_type c_svc
kernel_type rbf
gamma 0.00502513
nr_class 4
total_sv 275
rho 0.0387711 -0.13508 -0.644807 -0.149671 -0.660735 -0.537265
label 0 1 2 3
nr_sv 76 74 82 43
SV
0.7440955597633412 0.5710442521556609 0.1554106647971482 0:0 1:0 2:2.35388 3:4.7488 4:4.68046 5:4.50252 6:8.90254 7:2.25379 8:7.33075 9:0 10:0 11:6.92126 12:0 13:0 14:0 15:0 16:0 17:0 18:6.08686 19:4.62799 20:0 21:0 22:0 23:9.48252 24:0 25:0 26:1.35674 27:6.57146 28:0 29:0 30:0 31:1.93102 32:0 33:0 34:0 35:0 36:2.20727 37:2.49496 38:0 39:7.0354 40:0 41:7.99983 42:0 43:0 44:0 45:0 46:4.83223 47:0 48:3.21888 49:4.16392 50:0 51:5.9537 52:0 53:0 54:0 55:0 56:0 57:0 58:0 59:0 60:0 61:0 62:0 63:0 64:0 65:0 66:0 67:0 68:0 69:0 70:0 71:0 72:0 73:0 74:0 75:0 76:0 77:0 78:2.62237 79:0 80:0 81:0 82:0 83:0 84:0 85:0 86:0 87:0 88:0 89:0 90:2.30259 91:0 92:0 93:0 94:0 95:0 96:0 97:0 98:0 99:0 100:0 101:0 102:0 103:0 104:0 105:0 106:0 107:0 108:0 109:0 110:0 111:0 112:0 113:0 114:0 115:0 116:0 117:0 118:0 119:0 120:2.85702 121:1.05461 122:0 123:0 124:0 125:2.35388 126:0 127:0 128:0 129:0 130:0 131:0 132:0 133:0 134:0 135:0 136:0 137:0 138:0 139:0 140:0 141:0 142:2.3279 143:0 144:0 145:0 146:0 147:0 148:0 149:0 150:0 151:0 152:0 153:0 154:0 155:0 156:0 157:0 158:0 159:0 160:0 161:0 162:4.64949 163:0 164:0 165:0 166:0 167:0 168:1.43759 169:0 170:4.12611 171:0 172:0 173:0 174:0 175:0 176:0 177:0 178:0 179:0 180:0 181:0 182:0 183:0 184:0 185:0 186:0 187:0 188:0 189:0 190:0 191:0 192:0 193:0 194:0 195:0 196:0 197:0 198:0 199:0 
0.9977856091426444 0.831615017400744 0.3416903092446693 0:0 1:0 2:6.93431 3:7.3691 4:9.02035 5:6.93917 6:10.3329 7:6.94043 8:6.64591 9:14.8842 10:0 11:4.91084 12:0 13:0 14:4.76352 15:0 16:6.26204 17:0 18:0 19:8.05226 20:1.56065 21:0 22:0 23:9.48252 24:9.48325 25:0 26:4.61005 27:7.77388 28:0 29:0 30:2.52573 31:5.03888 32:4.71081 33:4.29965 34:0 35:0 36:0 37:2.49496 38:0 39:5.67612 40:0 41:9.35911 42:0 43:0 44:0 45:5.67612 46:8.02429 47:1.30933 48:0 49:9.44685 50:0 51:0 52:2.09964 53:0 54:0 55:0 56:0 57:0 58:0 59:0 60:0 61:2.16282 62:0 63:2.90042 64:0 65:0 66:0 67:0 68:0 69:0 70:0 71:0 72:0 73:0 74:0 75:0 76:0 77:0 78:0 79:0 80:0 81:0 82:0 83:0 84:0 85:0 86:0 87:0 88:0 89:0 90:2.30259 91:0 92:0 93:0 94:0 95:0 96:0 97:0 98:0 99:0 100:0 101:3.81601 102:0 103:0 104:0 105:0 106:0 107:0 108:0 109:0 110:0 111:0 112:0 113:0 114:0 115:0 116:0 117:0 118:0 119:0 120:0 121:2.03248 122:0 123:0 124:1.68342 125:0 126:0 127:0 128:0 129:0 130:0 131:0 132:0 133:0 134:0 135:0 136:0 137:0 138:3.28341 139:4.33962 140:0 141:0 142:3.94148 143:2.81341 144:2.02117 145:0 146:0 147:4.22841 148:0 149:0 150:0 151:1.30933 152:0 153:0 154:0 155:0 156:0 157:4.28163 158:3.69919 159:0 160:2.35869 161:3.73724 162:6.79004 163:3.89872 164:0 165:6.22636 166:0 167:0 168:4.0134 169:0 170:4.12611 171:2.63432 172:3.55501 173:0 174:2.09964 175:2.96906 176:0 177:2.12026 178:2.12026 179:4.09201 180:1.51413 181:0 182:0 183:0 184:0 185:0 186:0 187:0 188:0 189:0 190:0 191:0 192:0 193:0 194:0 195:0 196:0 197:0 198:2.00248 199:0 
0.8718758028638353 1 1 0:0 1:0 2:0 3:0 4:0 5:0 6:0 7:0 8:0 9:0 10:0 11:0 12:0 13:0 14:0 15:0 16:2.62417 17:3.87893 18:0 19:0 20:1.56065 21:0 22:0 23:0 24:0 25:0 26:0 27:0 28:0 29:0 30:0 31:0 32:1.6874 33:0 34:0 35:0 36:3.73724 37:0 38:0 39:0 40:0 41:0 42:0 43:0 44:0 45:0 46:0 47:0 48:0 49:0 50:0 51:0 52:0 53:0 54:0 55:0 56:0 57:0 58:0 59:0 60:0 61:0 62:0 63:0 64:0 65:0 66:0 67:2.04022 68:0 69:0 70:0 71:0 72:0 73:0 74:0 75:0 76:0 77:0 78:0 79:0 80:0 81:0 82:0 83:0 84:0 85:0 86:0 87:0 88:0 89:0 90:0 91:0 92:0 93:0 94:0 95:0 96:0 97:0 98:0 99:0 100:0 101:0 102:0 103:0 104:0 105:0 106:0 107:0 108:0 109:0 110:0 111:0 112:0 113:0 114:0 115:0 116:0 117:0 118:0 119:0 120:0 121:1.05461 122:0 123:0 124:1.68342 125:0 126:0 127:0 128:0 129:0 130:0 131:0 132:0 133:0 134:0 135:0 136:0 137:0 138:0 139:1.02862 140:0 141:0 142:0 143:0 144:0 145:0 146:0 147:0 148:0 149:0 150:0 151:2.21689 152:0 153:0 154:0 155:0 156:0 157:0 158:0 159:0 160:0 161:0 162:0 163:0 164:0 165:0 166:0 167:0 168:0 169:0 170:0 171:1.25527 172:0 173:0 174:0 175:0 176:0 177:0 178:0 179:0 180:0 181:0 182:0 183:0 184:0 185:0 186:0 187:0 188:0 189:0 190:0 191:0 192:0 193:0 194:0 195:0 196:0 197:0 198:0 199:0 
0 0 0.09950830666314986 0:0 1:0 2:0 3:1.70101 4:0 5:0 6:2.69563 7:5.88114 8:4.99584 9:0 10:0 11:0 12:0 13:0 14:0 15:0 16:0 17:3.12949 18:0 19:0 20:0 21:0 22:0 23:0 24:0 25:0 26:0 27:0 28:0 29:0 30:0 31:0 32:0 33:3.05073 34:0 35:0 36:2.20727 37:0 38:0 39:0 40:0 41:0 42:0 43:0 44:0 45:0 46:2.30259 47:0 48:3.21888 49:0 50:0 51:0 52:0 53:0 54:0 55:0 56:0 57:0 58:0 59:0 60:0 61:0 62:0 63:0 64:0 65:0 66:0 67:2.04022 68:0 69:0 70:0 71:0 72:0 73:0 74:0 75:0 76:0 77:0 78:0 79:0 80:0 81:0 82:0 83:0 84:0 85:0 86:0 87:0 88:0 89:0 90:0 91:0 92:0 93:0 94:0 95:0 96:0 97:0 98:0 99:0 100:0 101:0 102:0 103:0 104:0 105:0 106:0 107:0 108:0 109:0 110:0 111:0 112:0 113:0 114:0 115:0 116:0 117:0 118:0 119:0 120:0 121:0 122:0 123:0 124:0 125:0 126:0 127:0 128:0 129:0 130:0 131:0 132:0 133:0 134:0 135:0 136:0 137:0 138:0 139:1.02862 140:0 141:0 142:0 143:0 144:0 145:0 146:0 147:0 148:0 149:0 150:0 151:0 152:0 153:0 154:0 155:0 156:0 157:0 158:0 159:0 160:0 161:0 162:1.94841 163:1.09362 164:0 165:0 166:0 167:0 168:0 169:0 170:0 171:1.25527 172:0 173:0 174:0 175:0 176:3.77891 177:0 178:0 179:0 180:1.51413 181:0 182:0 183:0 184:0 185:0 186:0 187:0 188:0 189:0 190:0 191:0 192:0 193:0 194:0 195:0 196:0 197:0 198:0 199:0 
0.60703881934807 0.6576547016297512 0.2515890288755823 0:0 1:0 2:0 3:0 4:0 5:0 6:0 7:6.94043 8:0 9:2.81341 10:0 11:0 12:0 13:8.29598 14:0 15:0 16:0 17:0 18:0 19:0 20:3.27519 21:3.21888 22:0 23:0 24:0 25:0 26:1.35674 27:0 28:0 29:6.08686 30:0 31:5.94647 32:0 33:0 34:0 35:0 36:0 37:5.9537 38:0 39:0 40:0 41:0 42:0 43:0 44:0 45:0 46:0 47:0 48:0 49:0 50:0 51:0 52:0 53:0 54:0 55:0 56:0 57:0 58:0 59:0 60:0 61:2.16282 62:0 63:0 64:0 65:0 66:0 67:0 68:0 69:0 70:0 71:0 72:0 73:0 74:0 75:0 76:0 77:0 78:0 79:0 80:0 81:0 82:0 83:0 84:0 85:0 86:0 87:0 88:0 89:0 90:0 91:0 92:0 93:0 94:0 95:0 96:0 97:0 98:0 99:0 100:0 101:0 102:0 103:0 104:0 105:0 106:0 107:0 108:0 109:0 110:0 111:0 112:0 113:0 114:0 115:0 116:0 117:0 118:0 119:0 120:0 121:0.502527 122:0 123:2.43612 124:0 125:0 126:0 127:0 128:0 129:0 130:0 131:0 132:0 133:0 134:0 135:0 136:0 137:0 138:0 139:1.02862 140:0 141:0 142:0 143:0 144:0 145:0 146:0 147:0 148:0 149:0 150:0 151:0 152:1.91393 153:1.58475 154:0 155:0 156:0 157:0 158:0 159:0 160:1.90298 161:2.20727 162:0 163:0 164:0 165:0 166:0 167:2.23026 168:3.01694 169:0 170:6.2861 171:2.12535 172:0 173:0 174:0 175:1.70645 176:3.03915 177:0 178:2.12026 179:1.7148 180:0 181:2.27789 182:0 183:0 184:0 185:0 186:0 187:0 188:0 189:0 190:0 191:0 192:0 193:0 194:0 195:0 196:0 197:0 198:0 199:0 
1 1 1 0:0 1:0 2:0 3:0 4:0 5:0 6:0 7:2.25379 8:0 9:0 10:0 11:0 12:0 13:0 14:0 15:0 16:0 17:0 18:0 19:0 20:0 21:0 22:0 23:0 24:0 25:0 26:0 27:0 28:0 29:0 30:0 31:0 32:0 33:0 34:0 35:0 36:0 37:0 38:0 39:0 40:0 41:0 42:0 43:0 44:0 45:0 46:2.30259 47:0 48:0 49:1.98413 50:0 51:0 52:0 53:0 54:0 55:0 56:0 57:0 58:0 59:0 60:0 61:0 62:0 63:0 64:0 65:0 66:5.58763 67:0 68:0 69:0 70:0 71:0 72:0 73:0 74:0 75:0 76:0 77:0 78:0 79:4.62799 80:0 81:0 82:0 83:0 84:0 85:0 86:0 87:0 88:0 89:0 90:0 91:0 92:0 93:0 94:0 95:0 96:0 97:0 98:0 99:3.15825 100:5.67612 101:0 102:0 103:0 104:0 105:0 106:0 107:0 108:0 109:0 110:0 111:0 112:0 113:0 114:0 115:0 116:0 117:0 118:0 119:0 120:1.6874 121:1.5475 122:0 123:0 124:0 125:0 126:0 127:0 128:0 129:0 130:0 131:0 132:0 133:0 134:0 135:0 136:0 137:0 138:0 139:1.02862 140:3.42652 141:0 142:2.3279 143:0 144:0 145:0 146:0 147:1.77196 148:0 149:0 150:0 151:0 152:0 153:0 154:0 155:0 156:0 157:0 158:0 159:0 160:0 161:0 162:0 163:0 164:0 165:0 166:0 167:0 168:0 169:0 170:0 171:0 172:0 173:0 174:0 175:0 176:0 177:0 178:0 179:0 180:0 181:0 182:0 183:0 184:0 185:0 186:0 187:0 188:0 189:0 190:0 191:0 192:0 193:0 194:0 195:0 196:0 197:0 198:0 199:0 
0.2595055472183718 0.3838921984686607 0.03497510975794189 0:0 1:0 2:6.57146 3:0 4:0 5:0 6:0 7:5.88114 8:0 9:2.81341 10:0 11:0 12:0 13:7.01288 14:2.81341 15:0 16:0 17:0 18:0 19:0 20:2.64241 21:5.45003 22:0 23:0 24:0 25:0 26:2.84726 27:0 28:0 29:0 30:0 31:0 32:0 33:0 34:0 35:0 36:0 37:4.22433 38:0 39:0 40:0 41:0 42:0 43:0 44:0 45:0 46:0 47:0 48:0 49:0 50:0 51:0 52:0 53:0 54:0 55:0 56:0 57:0 58:0 59:0 60:0 61:0 62:0 63:0 64:0 65:0 66:0 67:0 68:0 69:0 70:0 71:0 72:0 73:0 74:0 75:0 76:0 77:0 78:0 79:0 80:0 81:0 82:0 83:0 84:0 85:0 86:0 87:0 88:0 89:0 90:0 91:0 92:0 93:0 94:0 95:0 96:0 97:0 98:0 99:0 100:0 101:0 102:0 103:0 104:0 105:0 106:0 107:0 108:0 109:0 110:0 111:0 112:0 113:0 114:0 115:0 116:0 117:0 118:0 119:0 120:0 121:0.502527 122:0 123:0 124:0 125:0 126:0 127:0 128:0 129:0 130:8.05226 131:0 132:0 133:0 134:0 135:0 136:0 137:0 138:0 139:0 140:0 141:0 142:0 143:0 144:0 145:2.78973 146:0 147:0 148:0 149:0 150:0 151:0 152:0 153:0 154:0 155:0 156:0 157:0 158:0 159:0 160:1.90298 161:2.20727 162:0 163:0 164:0 165:0 166:0 167:0 168:1.43759 169:0 170:1.96611 171:0 172:0 173:0 174:0 175:1.70645 176:0 177:0 178:0 179:0 180:2.56364 181:0 182:0 183:0 184:0 185:0 186:0 187:0 188:0 189:0 190:0 191:0 192:0 193:0 194:0 195:0 196:0 197:0 198:0 199:0 
0.3380472371586764 0.3541262371296132 0.4400435438902418 0:0 1:0 2:0 3:0 4:5.32207 5:0 6:2.69563 7:0 8:2.38055 9:0 10:0 11:0 12:0 13:0 14:0 15:0 16:0 17:0 18:2.90042 19:0 20:0 21:0 22:3.21888 23:0 24:0 25:0 26:2.29715 27:0 28:0 29:0 30:0 31:0 32:0 33:3.05073 34:0 35:0 36:0 37:0 38:0 39:0 40:0 41:0 42:0 43:0 44:0 45:0 46:2.30259 47:0 48:0 49:3.35943 50:0 51:0 52:0 53:0 54:0 55:0 56:0 57:0 58:0 59:0 60:0 61:0 62:0 63:0 64:0 65:0 66:0 67:0 68:0 69:0 70:0 71:0 72:0 73:0 74:0 75:0 76:0 77:0 78:0 79:0 80:0 81:0 82:0 83:0 84:0 85:0 86:0 87:0 88:0 89:0 90:0 91:0 92:0 93:0 94:0 95:0 96:0 97:0 98:0 99:0 100:0 101:0 102:0 103:0 104:0 105:0 106:0 107:0 108:0 109:0 110:0 111:0 112:0 113:0 114:0 115:0 116:0 117:0 118:0 119:0 120:0 121:0 122:0 123:0 124:0.994252 125:0 126:0 127:0 128:0 129:0 130:0 131:0 132:0 133:0 134:0 135:0 136:0 137:0 138:0 139:2.15867 140:0 141:0 142:0 143:0 144:0 145:0 146:0 147:0 148:0 149:0 150:0 151:0 152:0 153:1.58475 154:0 155:0 156:0 157:0 158:0 159:0 160:0 161:0 162:0 163:1.09362 164:2.23026 165:0 166:0 167:0 168:0 169:0 170:0 171:0 172:0 173:0 174:0 175:0 176:0 177:0 178:0 179:0 180:0 181:0 182:0 183:0 184:0 185:0 186:0 187:0 188:0 189:0 190:0 191:0 192:0 193:0 194:0 195:0 196:0 197:0 198:3.39049 199:0 
0.8605146237321198 1 1 0:0 1:0 2:2.35388 3:0 4:0 5:0 6:0 7:0 8:0 9:0 10:0 11:0 12:0 13:0 14:0 15:0 16:0 17:0 18:4.91084 19:0 20:1.56065 21:0 22:0 23:0 24:0 25:0 26:1.35674 27:0 28:0 29:0 30:2.52573 31:0 32:1.6874 33:0 34:0 35:0 36:2.20727 37:0 38:0 39:0 40:0 41:0 42:0 43:0 44:0 45:0 46:0 47:0 48:0 49:0 50:0 51:0 52:0 53:0 54:0 55:0 56:0 57:0 58:0 59:0 60:0 61:2.16282 62:0 63:0 64:0 65:0 66:0 67:0 68:0 69:0 70:0 71:0 72:0 73:0 74:0 75:0 76:0 77:0 78:0 79:0 80:0 81:0 82:0 83:0 84:0 85:0 86:0 87:0 88:0 89:0 90:0 91:0 92:0 93:0 94:0 95:0 96:0 97:0 98:0 99:0 100:0 101:0 102:0 103:0 104:0 105:0 106:0 107:0 108:0 109:0 110:0 111:0 112:0 113:0 114:0 115:0 116:0 117:0 118:0 119:0 120:0 121:1.19918 122:0 123:0 124:0 125:0 126:0 127:0 128:0 129:0 130:0 131:0 132:0 133:0 134:0 135:0 136:0 137:0 138:0 139:0 140:0 141:0 142:0 143:0 144:0 145:0 146:0 147:1.77196 148:0 149:0 150:0 151:0 152:0 153:0 154:0 155:0 156:0 157:3.45439 158:0 159:0 160:0 161:0 162:0 163:1.09362 164:0 165:0 166:0 167:0 168:0 169:2.55748 170:0 171:1.25527 172:0 173:0 174:0 175:1.00786 176:0 177:0 178:0 179:0 180:0 181:0 182:0 183:0 184:0 185:0 186:0 187:0 188:0 189:0 190:0 191:0 192:0 193:0 194:0 195:0 196:0 197:0 198:0 199:0 
0.4140056526685225 0.3609949193311428 0 0:0 1:0 2:0 3:5.4385 4:0 5:9.03589 6:4.56409 7:0 8:0 9:6.71363 10:0 11:4.91084 12:0 13:0 14:6.71363 15:0 16:5.50711 17:1.84833 18:0 19:0 20:4.59753 21:0 22:0 23:0 24:4.33019 25:0 26:0 27:0 28:0 29:0 30:0 31:0 32:1.6874 33:1.80181 34:0 35:0 36:0 37:0 38:0 39:0 40:0 41:0 42:0 43:0 44:0 45:0 46:0 47:0 48:0 49:5.53922 50:0 51:0 52:2.09964 53:0 54:0 55:0 56:0 57:0 58:0 59:0 60:0 61:0 62:0 63:0 64:0 65:0 66:0 67:0 68:0 69:0 70:0 71:0 72:0 73:0 74:0 75:2.12026 76:0 77:0 78:0 79:0 80:0 81:0 82:0 83:0 84:0 85:0 86:0 87:0 88:0 89:0 90:0 91:0 92:0 93:0 94:0 95:0 96:0 97:0 98:0 99:0 100:0 101:0 102:0 103:0 104:0 105:0 106:0 107:0 108:0 109:0 110:0 111:0 112:0 113:0 114:0 115:0 116:0 117:0 118:0 119:0 120:0 121:1.40293 122:0 123:0 124:1.68342 125:0 126:0 127:0 128:0 129:0 130:0 131:0 132:0 133:0 134:0 135:0 136:0 137:0 138:0 139:1.7416 140:0 141:0 142:0 143:0 144:0 145:1.64766 146:0 147:0 148:0 149:0 150:0 151:1.30933 152:1.91393 153:3.32577 154:0 155:0 156:0 157:2.04022 158:0 159:0 160:0 161:0 162:4.08896 163:1.09362 164:0 165:0 166:0 167:2.23026 168:1.43759 169:0 170:0 171:1.25527 172:0 173:0 174:0 175:1.00786 176:0 177:0 178:0 179:0 180:0 181:0 182:0 183:0 184:0 185:0 186:0 187:0 188:0 189:0 190:0 191:0 192:0 193:0 194:0 195:0 196:0 197:0 198:0 199:0 
0.3641473252113688 0.3862930629832614 0 0:0 1:0 2:0 3:0 4:0 5:2.65926 6:0 7:0 8:8.08885 9:2.81341 10:0 11:0 12:0 13:0 14:0 15:0 16:0 17:1.84833 18:0 19:0 20:0 21:0 22:0 23:0 24:2.55748 25:0 26:2.29715 27:0 28:0 29:4.91084 30:0 31:0 32:1.6874 33:0 34:0 35:3.04703 36:0 37:0 38:0 39:0 40:0 41:0 42:0 43:0 44:0 45:0 46:2.30259 47:0 48:8.39946 49:1.98413 50:0 51:0 52:0 53:0 54:0 55:0 56:0 57:0 58:0 59:0 60:0 61:0 62:0 63:0 64:0 65:0 66:0 67:2.04022 68:0 69:0 70:0 71:0 72:0 73:0 74:0 75:0 76:0 77:0 78:0 79:0 80:0 81:0 82:0 83:0 84:0 85:0 86:0 87:0 88:0 89:0 90:0 91:0 92:0 93:0 94:0 95:0 96:0 97:0 98:0 99:0 100:0 101:2.25379 102:0 103:0 104:0 105:0 106:0 107:0 108:0 109:0 110:0 111:0 112:0 113:0 114:0 115:0 116:0 117:0 118:0 119:0 120:0 121:0.850852 122:0 123:0 124:0.994252 125:0 126:0 127:0 128:0 129:0 130:0 131:0 132:0 133:0 134:0 135:0 136:0 137:0 138:0 139:1.02862 140:0 141:0 142:0 143:0 144:0 145:0 146:0 147:0 148:0 149:0 150:0 151:0 152:0 153:0 154:0 155:0 156:0 157:0 158:4.58505 159:0 160:1.12393 161:0 162:0 163:0 164:0 165:2.23026 166:0 167:0 168:0 169:0 170:0 171:0 172:0 173:0 174:2.09964 175:1.70645 176:2.45196 177:0 178:0 179:4.09201 180:1.51413 181:0 182:0 183:0 184:0 185:0 186:0 187:0 188:0 189:0 190:0 191:0 192:0 193:0 194:0 195:0 196:0 197:0 198:0 199:0 
0.3327325597943067 0.7423167611102973 0 0:0 1:0 2:0 3:0 4:0 5:0 6:0 7:2.25379 8:0 9:0 10:0 11:2.90042 12:0 13:0 14:2.81341 15:0 16:0 17:3.87893 18:0 19:0 20:0 21:0 22:3.21888 23:0 24:0 25:0 26:1.35674 27:0 28:0 29:0 30:0 31:1.93102 32:0 33:1.80181 34:0 35:0 36:0 37:0 38:0 39:0 40:0 41:0 42:0 43:0 44:0 45:3.35241 46:0 47:0 48:0 49:0 50:0 51:0 52:0 53:0 54:0 55:0 56:0 57:0 58:0 59:0 60:0 61:0 62:2.90042 63:0 64:0 65:0 66:0 67:0 68:0 69:0 70:0 71:0 72:0 73:0 74:0 75:0 76:0 77:0 78:0 79:0 80:0 81:0 82:0 83:0 84:0 85:0 86:0 87:0 88:0 89:0 90:2.30259 91:0 92:0 93:0 94:0 95:0 96:0 97:0 98:0 99:0 100:0 101:0 102:0 103:0 104:0 105:0 106:0 107:0 108:0 109:0 110:0 111:0 112:0 113:0 114:0 115:0 116:0 117:0 118:0 119:0 120:0 121:0.850852 122:0 123:0 124:1.68342 125:0 126:0 127:0 128:0 129:0 130:0 131:0 132:0 133:0 134:0 135:0 136:0 137:0 138:0 139:1.02862 140:0 141:0 142:0 143:0 144:0 145:0 146:0 147:0 148:0 149:0 150:0 151:1.30933 152:0 153:1.58475 154:0 155:0 156:0 157:0 158:5.21358 159:0 160:0 161:0 162:1.94841 163:0 164:0 165:0 166:0 167:0 168:0 169:0 170:4.12611 171:1.25527 172:4.40634 173:0 174:0 175:0 176:0 177:0 178:4.44961 179:0 180:1.51413 181:0 182:0 183:0 184:0 185:0 186:0 187:0 188:0 189:0 190:0 191:0 192:0 193:0 194:0 195:0 196:0 197:0 198:0 199:0 
0.3725644065421915 0.675761497080798 0.02798437936144953 0:0 1:0 2:0 3:0 4:0 5:0 6:2.69563 7:0 8:4.03062 9:2.81341 10:0 11:0 12:0 13:0 14:0 15:0 16:0 17:1.84833 18:6.92126 19:0 20:0 21:0 22:0 23:0 24:0 25:0 26:0 27:0 28:0 29:0 30:0 31:0 32:1.6874 33:0 34:0 35:0 36:2.20727 37:0 38:0 39:0 40:0 41:0 42:0 43:0 44:0 45:0 46:2.30259 47:0 48:0 49:0 50:0 51:0 52:0 53:0 54:0 55:0 56:0 57:0 58:0 59:0 60:0 61:0 62:0 63:0 64:0 65:0 66:0 67:0 68:0 69:0 70:0 71:0 72:0 73:0 74:0 75:0 76:0 77:0 78:0 79:0 80:0 81:0 82:0 83:0 84:0 85:0 86:0 87:0 88:0 89:0 90:0 91:0 92:0 93:0 94:0 95:0 96:0 97:0 98:0 99:0 100:0 101:0 102:0 103:0 104:0 105:0 106:0 107:0 108:0 109:0 110:0 111:0 112:0 113:0 114:0 115:0 116:0 117:0 118:0 119:0 120:0 121:1.31131 122:0 123:0 124:0.994252 125:0 126:0 127:5.58076 128:0 129:0 130:0 131:0 132:0 133:0 134:0 135:0 136:0 137:0 138:0 139:1.02862 140:0 141:0 142:0 143:0 144:0 145:1.64766 146:0 147:0 148:0 149:0 150:0 151:0 152:0 153:2.68321 154:0 155:0 156:0 157:0 158:5.70111 159:0 160:2.35869 161:0 162:1.94841 163:1.09362 164:0 165:0 166:0 167:0 168:1.43759 169:0 170:0 171:2.12535 172:0 173:0 174:2.09964 175:0 176:0 177:0 178:0 179:0 180:2.56364 181:0 182:0 183:0 184:0 185:0 186:0 187:0 188:0 189:0 190:0 191:0 192:0 193:0 194:0 195:0 196:0 197:0 198:0 199:0 
0.68691210220427 1 0.8631904905308782 0:0 1:0 2:0 3:1.70101 4:2.23026 5:0 6:2.69563 7:0 8:0 9:0 10:0 11:0 12:0 13:0 14:0 15:0 16:0 17:0 18:0 19:5.73628 20:0 21:0 22:0 23:0 24:0 25:0 26:0 27:2.35388 28:0 29:2.90042 30:4.27643 31:0 32:0 33:1.80181 34:0 35:0 36:0 37:0 38:0 39:0 40:0 41:0 42:0 43:0 44:0 45:0 46:0 47:0 48:0 49:0 50:0 51:0 52:0 53:0 54:0 55:0 56:0 57:0 58:0 59:0 60:0 61:0 62:2.90042 63:0 64:0 65:0 66:0 67:0 68:0 69:0 70:0 71:0 72:0 73:0 74:0 75:0 76:0 77:0 78:0 79:0 80:0 81:0 82:0 83:0 84:0 85:0 86:0 87:0 88:0 89:0 90:0 91:0 92:0 93:0 94:0 95:0 96:0 97:0 98:0 99:0 100:0 101:0 102:0 103:0 104:0 105:0 106:0 107:0 108:0 109:0 110:0 111:0 112:0 113:0 114:0 115:0 116:0 117:0 118:0 119:0 120:0 121:0.502527 122:2.59027 123:0 124:0.994252 125:0 126:0 127:0 128:0 129:0 130:0 131:0 132:0 133:0 134:0 135:0 136:0 137:0 138:0 139:0 140:0 141:0 142:0 143:0 144:0 145:0 146:0 147:0 148:0 149:0 150:0 151:0 152:0 153:2.68321 154:0 155:0 156:0 157:0 158:0 159:0 160:0 161:0 162:0 163:0 164:0 165:0 166:0 167:0 168:0 169:0 170:0 171:0 172:0 173:2.09964 174:0 175:0 176:0 177:0 178:0 179:0 180:3.17757 181:0 182:0 183:0 184:0 185:0 186:0 187:0 188:0 189:0 190:0 191:0 192:0 193:0 194:0 195:0 196:0 197:0 198:0 199:0 
0.1862847827024672 0.5288229723625502 0 0:0 1:0 2:0 3:1.70101 4:0 5:0 6:0 7:0 8:0 9:0 10:0 11:0 12:0 13:0 14:0 15:0 16:0 17:1.84833 18:0 19:0 20:1.56065 21:0 22:8.98633 23:0 24:0 25:0 26:2.84726 27:0 28:0 29:0 30:0 31:0 32:0 33:3.05073 34:0 35:0 36:2.20727 37:4.22433 38:0 39:0 40:0 41:0 42:0 43:0 44:0 45:0 46:0 47:0 48:0 49:1.98413 50:0 51:0 52:0 53:0 54:0 55:0 56:0 57:0 58:0 59:0 60:0 61:0 62:0 63:0 64:0 65:0 66:0 67:0 68:0 69:0 70:0 71:0 72:0 73:0 74:0 75:0 76:0 77:0 78:0 79:0 80:0 81:0 82:0 83:0 84:0 85:0 86:0 87:0 88:0 89:0 90:0 91:0 92:0 93:0 94:0 95:0 96:0 97:0 98:0 99:0 100:0 101:0 102:0 103:0 104:0 105:0 106:0 107:0 108:0 109:0 110:0 111:0 112:0 113:0 114:0 115:0 116:0 117:0 118:0 119:0 120:0 121:0 122:0 123:0 124:0.994252 125:2.35388 126:0 127:0 128:0 129:0 130:0 131:0 132:0 133:0 134:0 135:0 136:0 137:0 138:0 139:1.7416 140:0 141:0 142:0 143:0 144:0 145:0 146:0 147:0 148:0 149:0 150:0 151:0 152:0 153:0 154:0 155:0 156:0 157:0 158:0 159:0 160:1.12393 161:0 162:0 163:1.09362 164:0 165:0 166:0 167:0 168:3.01694 169:0 170:0 171:1.25527 172:0 173:3.55501 174:0 175:0 176:1.44817 177:0 178:2.12026 179:1.7148 180:0 181:0 182:0 183:0 184:0 185:0 186:0 187:0 188:0 189:0 190:0 191:0 192:0 193:0 194:0 195:0 196:0 197:0 198:0 199:0 
0.2446244937079741 0.415756166992244 0.06610675520408979 0:0 1:0 2:3.98546 3:0 4:0 5:0 6:4.56409 7:0 8:0 9:8.99511 10:0 11:0 12:0 13:0 14:2.81341 15:0 16:0 17:0 18:0 19:0 20:4.59753 21:0 22:0 23:0 24:0 25:0 26:0 27:0 28:0 29:0 30:2.52573 31:4.05247 32:2.85702 33:0 34:0 35:0 36:0 37:0 38:0 39:0 40:0 41:0 42:0 43:0 44:0 45:3.35241 46:2.30259 47:0 48:0 49:0 50:0 51:0 52:0 53:0 54:0 55:0 56:0 57:0 58:0 59:0 60:0 61:0 62:0 63:0 64:0 65:0 66:0 67:0 68:0 69:0 70:0 71:0 72:0 73:0 74:0 75:0 76:0 77:0 78:0 79:0 80:0 81:0 82:0 83:0 84:0 85:0 86:0 87:0 88:0 89:0 90:0 91:0 92:0 93:0 94:0 95:0 96:0 97:0 98:0 99:0 100:0 101:0 102:0 103:0 104:0 105:0 106:0 107:0 108:0 109:0 110:0 111:0 112:0 113:0 114:0 115:0 116:0 117:0 118:0 119:0 120:0 121:0.850852 122:0 123:0 124:0.994252 125:0 126:0 127:0 128:0 129:0 130:0 131:0 132:0 133:0 134:0 135:0 136:0 137:0 138:0 139:0 140:0 141:0 142:0 143:2.81341 144:0 145:0 146:0 147:0 148:0 149:0 150:0 151:1.30933 152:0 153:1.58475 154:0 155:0 156:0 157:0 158:0 159:0 160:0 161:0 162:0 163:0 164:0 165:3.77617 166:0 167:0 168:2.43405 169:2.55748 170:0 171:2.12535 172:0 173:2.09964 174:5.01037 175:1.00786 176:1.44817 177:0 178:2.12026 179:0 180:0 181:0 182:0 183:0 184:0 185:0 186:0 187:0 188:0 189:0 190:0 191:0 192:0 193:0 194:0 195:0 196:0 197:0 198:0 199:0 
0.7920410348882815 1 0.9826184123874248 0:0 1:0 2:0 3:0 4:0 5:0 6:0 7:0 8:0 9:0 10:0 11:0 12:0 13:0 14:0 15:0 16:4.4431 17:4.41066 18:0 19:0 20:0 21:0 22:0 23:0 24:0 25:0 26:0 27:0 28:0 29:0 30:2.52573 31:0 32:0 33:1.80181 34:0 35:0 36:3.73724 37:0 38:0 39:0 40:0 41:0 42:0 43:0 44:0 45:0 46:0 47:0 48:0 49:0 50:0 51:0 52:0 53:0 54:0 55:0 56:0 57:0 58:0 59:0 60:0 61:0 62:0 63:0 64:3.28341 65:0 66:0 67:2.04022 68:0 69:0 70:0 71:0 72:0 73:0 74:0 75:0 76:0 77:0 78:0 79:0 80:0 81:0 82:0 83:0 84:0 85:0 86:0 87:0 88:0 89:0 90:0 91:0 92:0 93:0 94:0 95:0 96:0 97:0 98:0 99:0 100:0 101:0 102:0 103:0 104:0 105:0 106:0 107:0 108:0 109:0 110:0 111:0 112:0 113:0 114:0 115:0 116:0 117:0 118:0 119:0 120:0 121:0.850852 122:0 123:0 124:0 125:0 126:0 127:0 128:0 129:0 130:0 131:0 132:0 133:0 134:0 135:0 136:0 137:0 138:0 139:0 140:0 141:0 142:0 143:0 144:0 145:0 146:0 147:0 148:0 149:0 150:0 151:2.21689 152:0 153:0 154:0 155:0 156:0 157:0 158:0 159:0 160:0 161:2.20727 162:0 163:1.09362 164:0 165:0 166:0 167:0 168:0 169:0 170:0 171:0 172:0 173:0 174:0 175:1.70645 176:0 177:0 178:0 179:1.7148 180:0 181:0 182:0 183:0 184:0 185:0 186:0 187:0 188:0 189:0 190:0 191:0 192:0 193:0 194:0 195:0 196:0 197:0 198:0 199:0 
0.3459803935338001 0.142626559284995 0 0:0 1:0 2:0 3:0 4:3.77617 5:0 6:0 7:0 8:0 9:0 10:0 11:0 12:0 13:0 14:4.76352 15:0 16:0 17:4.41066 18:6.08686 19:8.73919 20:0 21:0 22:0 23:0 24:0 25:0 26:0 27:7.99823 28:0 29:0 30:2.52573 31:0 32:2.85702 33:1.80181 34:0 35:6.39453 36:0 37:0 38:0 39:0 40:0 41:0 42:0 43:0 44:0 45:0 46:2.30259 47:0 48:0 49:0 50:0 51:0 52:0 53:0 54:1.94841 55:0 56:0 57:0 58:0 59:0 60:0 61:0 62:0 63:0 64:0 65:0 66:0 67:0 68:0 69:0 70:0 71:0 72:0 73:0 74:0 75:0 76:0 77:0 78:0 79:0 80:0 81:0 82:0 83:0 84:0 85:0 86:0 87:0 88:0 89:0 90:0 91:0 92:0 93:0 94:0 95:0 96:0 97:0 98:0 99:0 100:0 101:0 102:0 103:0 104:0 105:0 106:0 107:0 108:0 109:0 110:0 111:0 112:0 113:0 114:0 115:0 116:0 117:0 118:0 119:0 120:0 121:0.850852 122:0 123:0 124:1.68342 125:0 126:0 127:0 128:0 129:0 130:0 131:0 132:0 133:0 134:0 135:0 136:0 137:0 138:0 139:3.28873 140:0 141:0 142:0 143:0 144:0 145:0 146:0 147:0 148:0 149:0 150:0 151:0 152:0 153:0 154:0 155:0 156:0 157:0 158:0 159:0 160:0 161:0 162:1.94841 163:0 164:0 165:0 166:0 167:0 168:0 169:0 170:0 171:0 172:0 173:0 174:0 175:1.70645 176:2.45196 177:0 178:0 179:0 180:0 181:0 182:0 183:0 184:0 185:0 186:0 187:0 188:0 189:0 190:0 191:0 192:0 193:0 194:0 195:0 196:0 197:0 198:0 199:0 
0 0.03316778807030398 0.3584712457506996 0:0 1:0 2:2.35388 3:0 4:0 5:0 6:6.43256 7:0 8:4.99584 9:0 10:0 11:0 12:0 13:0 14:0 15:0 16:0 17:0 18:0 19:0 20:0 21:0 22:0 23:0 24:0 25:0 26:0 27:0 28:2.99573 29:2.90042 30:2.52573 31:1.93102 32:2.85702 33:0 34:0 35:0 36:0 37:2.49496 38:0 39:0 40:0 41:0 42:0 43:0 44:0 45:0 46:0 47:0 48:3.21888 49:1.98413 50:0 51:0 52:0 53:0 54:0 55:0 56:0 57:0 58:0 59:0 60:0 61:2.16282 62:0 63:0 64:0 65:0 66:0 67:0 68:0 69:0 70:0 71:0 72:0 73:0 74:0 75:0 76:0 77:0 78:0 79:0 80:0 81:0 82:0 83:0 84:0 85:0 86:0 87:0 88:0 89:0 90:0 91:0 92:0 93:0 94:0 95:0 96:0 97:0 98:0 99:0 100:0 101:0 102:0 103:0 104:0 105:0 106:0 107:0 108:0 109:0 110:0 111:0 112:0 113:0 114:0 115:0 116:0 117:0 118:0 119:0 120:0 121:0 122:0 123:0 124:0 125:0 126:0 127:0 128:0 129:0 130:0 131:0 132:0 133:0 134:0 135:0 136:0 137:0 138:0 139:0 140:0 141:0 142:0 143:0 144:0 145:0 146:0 147:0 148:0 149:0 150:0 151:0 152:0 153:1.58475 154:0 155:0 156:0 157:2.04022 158:0 159:0 160:1.12393 161:0 162:0 163:1.09362 164:0 165:0 166:0 167:0 168:0 169:0 170:0 171:3.27554 172:0 173:0 174:2.09964 175:0 176:0 177:0 178:0 179:0 180:0 181:0 182:0 183:0 184:0 185:0 186:0 187:0 188:0 189:0 190:0 191:0 192:0 193:0 194:0 195:0 196:0 197:0 198:0 199:0 
0 0 0.3795166885487837 0:0 1:0 2:0 3:4.43867 4:2.23026 5:2.65926 6:0 7:0 8:0 9:0 10:0 11:0 12:0 13:0 14:0 15:0 16:0 17:3.12949 18:0 19:0 20:0 21:0 22:3.21888 23:0 24:0 25:0 26:1.35674 27:0 28:0 29:0 30:0 31:3.2695 32:2.85702 33:0 34:0 35:0 36:0 37:0 38:0 39:0 40:0 41:0 42:0 43:0 44:0 45:3.35241 46:0 47:0 48:0 49:0 50:0 51:0 52:0 53:0 54:0 55:0 56:0 57:0 58:0 59:0 60:0 61:0 62:0 63:0 64:0 65:0 66:0 67:0 68:0 69:0 70:0 71:0 72:0 73:0 74:0 75:0 76:0 77:0 78:0 79:0 80:0 81:0 82:0 83:0 84:0 85:0 86:0 87:0 88:0 89:0 90:0 91:0 92:0 93:0 94:0 95:0 96:0 97:0 98:0 99:0 100:0 101:0 102:0 103:0 104:0 105:0 106:0 107:0 108:0 109:0 110:0 111:0 112:0 113:0 114:0 115:0 116:0 117:0 118:0 119:0 120:0 121:0.850852 122:0 123:0 124:0 125:0 126:0 127:0 128:0 129:0 130:0 131:0 132:0 133:0 134:0 135:0 136:0 137:0 138:0 139:0 140:0 141:0 142:0 143:0 144:0 145:0 146:0 147:0 148:0 149:0 150:0 151:0 152:0 153:0 154:0 155:0 156:0 157:0 158:0 159:0 160:1.12393 161:0 162:1.94841 163:1.09362 164:0 165:0 166:0 167:0 168:0 169:0 170:0 171:1.25527 172:0 173:0 174:0 175:0 176:1.44817 177:0 178:0 179:0 180:2.56364 181:0 182:0 183:0 184:0 185:0 186:0 187:0 188:0 189:0 190:0 191:0 192:0 193:0 194:0 195:0 196:0 197:0 198:0 199:0 
0.2243522572624886 0.2208862377360048 0 0:0 1:0 2:0 3:1.70101 4:0 5:0 6:0 7:0 8:0 9:0 10:0 11:0 12:0 13:2.38055 14:0 15:0 16:0 17:0 18:0 19:0 20:1.56065 21:0 22:9.48252 23:0 24:0 25:0 26:2.84726 27:0 28:0 29:0 30:0 31:0 32:0 33:0 34:0 35:3.04703 36:2.20727 37:2.49496 38:0 39:0 40:0 41:0 42:0 43:0 44:0 45:7.0354 46:0 47:0 48:0 49:0 50:0 51:0 52:2.09964 53:0 54:0 55:0 56:0 57:0 58:0 59:0 60:0 61:0 62:0 63:0 64:0 65:0 66:0 67:0 68:0 69:0 70:0 71:0 72:0 73:0 74:0 75:0 76:3.21888 77:0 78:0 79:0 80:0 81:0 82:0 83:0 84:0 85:0 86:0 87:0 88:0 89:0 90:0 91:0 92:0 93:0 94:0 95:0 96:0 97:0 98:0 99:0 100:0 101:0 102:0 103:0 104:0 105:0 106:0 107:0 108:0 109:0 110:0 111:0 112:0 113:0 114:0 115:0 116:0 117:0 118:0 119:0 120:0 121:1.19918 122:0 123:0 124:0.994252 125:0 126:0 127:2.65926 128:0 129:0 130:0 131:0 132:0 133:0 134:0 135:0 136:0 137:0 138:0 139:0 140:0 141:0 142:0 143:0 144:0 145:0 146:2.90042 147:0 148:0 149:0 150:0 151:0 152:0 153:2.68321 154:0 155:0 156:0 157:0 158:0 159:0 160:0 161:4.63221 162:1.94841 163:1.85167 164:0 165:0 166:0 167:0 168:1.43759 169:0 170:3.32892 171:1.25527 172:0 173:0 174:0 175:0 176:0 177:0 178:0 179:0 180:3.17757 181:0 182:0 183:0 184:0 185:0 186:0 187:0 188:0 189:0 190:0 191:0 192:0 193:0 194:0 195:0 196:0 197:0 198:0 199:0 
0.9778801554636328 0.8140773089480594 0.3316352209095356 0:0 1:0 2:0 3:6.61754 4:5.32207 5:2.65926 6:10.1695 7:0 8:7.61114 9:11.2416 10:0 11:6.08686 12:0 13:2.38055 14:0 15:0 16:6.84761 17:7.08504 18:0 19:2.73337 20:3.27519 21:0 22:0 23:8.98633 24:2.55748 25:0 26:3.54032 27:7.52588 28:0 29:2.90042 30:4.27643 31:4.05247 32:3.5412 33:5.03022 34:0 35:0 36:0 37:4.22433 38:0 39:3.35241 40:0 41:7.0354 42:0 43:0 44:0 45:0 46:7.36188 47:0 48:8.39946 49:6.74187 50:0 51:0 52:0 53:0 54:0 55:0 56:0 57:0 58:0 59:0 60:0 61:3.66198 62:0 63:2.90042 64:0 65:0 66:0 67:0 68:0 69:0 70:0 71:0 72:0 73:0 74:0 75:3.58992 76:0 77:0 78:1.54881 79:0 80:0 81:0 82:0 83:0 84:0 85:0 86:0 87:0 88:0 89:0 90:2.30259 91:0 92:0 93:0 94:0 95:0 96:0 97:0 98:0 99:0 100:0 101:0 102:0 103:0 104:0 105:0 106:0 107:0 108:0 109:0 110:0 111:0 112:0 113:0 114:0 115:0 116:0 117:0 118:0 119:0 120:0 121:1.70753 122:0 123:5.11246 124:2.08655 125:6.1423 126:0 127:2.65926 128:0 129:0 130:2.73337 131:0 132:0 133:0 134:0 135:3.59357 136:0 137:1.83258 138:0 139:4.00171 140:0 141:5.80159 142:0 143:0 144:3.42214 145:0 146:0 147:1.77196 148:0 149:0 150:0 151:2.21689 152:0 153:2.68321 154:0 155:0 156:0 157:2.04022 158:0 159:0 160:2.35869 161:3.73724 162:7.35056 163:2.85375 164:3.77617 165:8.67656 166:0 167:0 168:4.59629 169:0 170:3.32892 171:3.27554 172:2.09964 173:0 174:3.55501 175:1.70645 176:0 177:0 178:2.12026 179:2.90341 180:0 181:0 182:0 183:0 184:0 185:0 186:0 187:0 188:0 189:0 190:0 191:0 192:0 193:0 194:0 195:0 196:0 197:0 198:0 199:0 
0.9824200471986737 0.8122079177275837 0.3199456099998535 0:0 1:0 2:0 3:0 4:2.23026 5:4.50252 6:0 7:2.25379 8:7.33075 9:4.76352 10:0 11:6.92126 12:0 13:0 14:8.99511 15:0 16:2.62417 17:9.44658 18:0 19:5.73628 20:2.64241 21:0 22:0 23:8.39946 24:4.33019 25:0 26:6.14107 27:0 28:0 29:0 30:4.27643 31:6.37736 32:1.6874 33:7.45137 34:0 35:15.0274 36:0 37:0 38:0 39:0 40:0 41:7.0354 42:0 43:0 44:0 45:0 46:5.49465 47:0 48:0 49:0 50:0 51:0 52:0 53:0 54:0 55:0 56:0 57:0 58:0 59:0 60:0 61:0 62:0 63:0 64:0 65:0 66:0 67:2.04022 68:0 69:0 70:0 71:0 72:0 73:0 74:0 75:0 76:0 77:0 78:0 79:0 80:0 81:0 82:2.99573 83:0 84:0 85:0 86:0 87:0 88:0 89:0 90:2.30259 91:0 92:0 93:0 94:0 95:0 96:0 97:0 98:0 99:0 100:0 101:0 102:0 103:0 104:0 105:0 106:0 107:0 108:0 109:0 110:0 111:0 112:0 113:0 114:0 115:0 116:0 117:0 118:0 119:0 120:0 121:1.05461 122:0 123:0 124:3.06174 125:0 126:0 127:0 128:0 129:0 130:0 131:0 132:6.08444 133:0 134:0 135:0 136:0 137:0 138:0 139:1.7416 140:0 141:0 142:0 143:0 144:0 145:0 146:0 147:1.77196 148:0 149:0 150:0 151:2.74778 152:0 153:1.58475 154:0 155:0 156:0 157:4.28163 158:0 159:0 160:1.90298 161:0 162:4.64949 163:2.60971 164:3.77617 165:4.68046 166:3.77617 167:0 168:3.43051 169:0 170:0 171:1.25527 172:0 173:0 174:0 175:0 176:0 177:0 178:0 179:3.5987 180:1.51413 181:0 182:0 183:0 184:0 185:0 186:0 187:0 188:0 189:0 190:0 191:0 192:0 193:0 194:0 195:0 196:0 197:0 198:5.22535 199:0 
0.4167021991910303 0.1896618730061428 0.5980790172224618 0:0 1:0 2:0 3:0 4:0 5:0 6:2.69563 7:0 8:0 9:0 10:0 11:0 12:0 13:0 14:0 15:0 16:0 17:1.84833 18:0 19:0 20:0 21:0 22:0 23:9.48252 24:0 25:0 26:0 27:0 28:0 29:0 30:0 31:0 32:0 33:0 34:0 35:0 36:0 37:0 38:0 39:0 40:0 41:8.7479 42:0 43:0 44:0 45:0 46:0 47:0 48:0 49:0 50:0 51:0 52:0 53:0 54:0 55:0 56:0 57:0 58:0 59:0 60:0 61:0 62:0 63:0 64:0 65:0 66:0 67:0 68:0 69:0 70:0 71:0 72:0 73:0 74:0 75:0 76:0 77:0 78:0 79:0 80:0 81:0 82:0 83:0 84:0 85:0 86:0 87:0 88:0 89:0 90:3.89862 91:0 92:0 93:0 94:0 95:0 96:0 97:0 98:0 99:0 100:0 101:2.25379 102:0 103:0 104:0 105:0 106:0 107:0 108:0 109:0 110:0 111:0 112:0 113:0 114:0 115:0 116:0 117:0 118:0 119:0 120:0 121:0 122:0 123:0 124:0 125:0 126:0 127:0 128:0 129:0 130:0 131:0 132:0 133:0 134:0 135:0 136:0 137:0 138:0 139:0 140:0 141:0 142:0 143:0 144:0 145:0 146:0 147:0 148:0 149:0 150:0 151:1.30933 152:0 153:0 154:0 155:0 156:0 157:0 158:0 159:0 160:0 161:0 162:0 163:0 164:0 165:0 166:0 167:0 168:0 169:0 170:0 171:0 172:0 173:0 174:0 175:0 176:0 177:0 178:0 179:0 180:0 181:0 182:0 183:0 184:0 185:0 186:0 187:0 188:0 189:0 190:0 191:0 192:0 193:0 194:0 195:0 196:0 197:0 198:0 199:0 
0.08823279093138972 0.03701724078716673 0.04638186335622903 0:0 1:0 2:0 3:1.70101 4:5.32207 5:2.65926 6:7.52554 7:2.25379 8:0 9:7.34142 10:0 11:0 12:0 13:0 14:0 15:0 16:0 17:0 18:2.90042 19:0 20:0 21:0 22:0 23:0 24:0 25:0 26:1.35674 27:4.93988 28:0 29:0 30:0 31:0 32:1.6874 33:0 34:0 35:3.04703 36:0 37:0 38:0 39:0 40:0 41:0 42:0 43:0 44:0 45:3.35241 46:0 47:0 48:0 49:1.98413 50:0 51:0 52:0 53:0 54:0 55:0 56:0 57:0 58:0 59:0 60:0 61:0 62:0 63:0 64:0 65:0 66:0 67:0 68:0 69:0 70:0 71:0 72:0 73:0 74:0 75:0 76:0 77:0 78:0 79:0 80:0 81:0 82:0 83:0 84:0 85:0 86:0 87:0 88:0 89:0 90:0 91:0 92:0 93:0 94:0 95:0 96:0 97:0 98:0 99:0 100:0 101:0 102:0 103:0 104:0 105:0 106:0 107:0 108:0 109:0 110:0 111:0 112:0 113:0 114:0 115:0 116:0 117:0 118:0 119:0 120:0 121:0.502527 122:0 123:0 124:1.68342 125:0 126:0 127:0 128:0 129:0 130:0 131:0 132:0 133:0 134:0 135:0 136:0 137:0 138:0 139:2.87166 140:0 141:0 142:0 143:2.81341 144:0 145:0 146:0 147:0 148:0 149:0 150:0 151:0 152:0 153:0 154:0 155:0 156:0 157:0 158:0 159:0 160:1.12393 161:2.20727 162:1.94841 163:0 164:0 165:0 166:0 167:0 168:0 169:0 170:0 171:0 172:0 173:0 174:0 175:1.00786 176:0 177:0 178:2.12026 179:0 180:0 181:0 182:0 183:0 184:0 185:0 186:0 187:0 188:0 189:0 190:0 191:0 192:0 193:0 194:0 195:0 196:0 197:0 198:0 199:0 
0.3432880114705762 0.2221171275245555 0 0:0 1:0 2:6.93431 3:1.70101 4:0 5:0 6:6.43256 7:3.81601 8:4.99584 9:2.81341 10:0 11:0 12:0 13:4.03062 14:0 15:0 16:0 17:3.12949 18:4.91084 19:2.73337 20:2.64241 21:8.39946 22:0 23:0 24:0 25:0 26:0 27:4.93988 28:9.22518 29:6.08686 30:0 31:3.2695 32:4.02663 33:0 34:0 35:0 36:2.20727 37:4.22433 38:0 39:0 40:0 41:0 42:0 43:0 44:0 45:3.35241 46:0 47:0 48:3.21888 49:1.98413 50:0 51:0 52:0 53:0 54:0 55:0 56:0 57:0 58:0 59:0 60:0 61:2.16282 62:0 63:0 64:0 65:0 66:0 67:0 68:0 69:0 70:0 71:0 72:0 73:0 74:0 75:0 76:0 77:0 78:0 79:0 80:0 81:0 82:0 83:0 84:0 85:0 86:0 87:0 88:0 89:0 90:0 91:0 92:0 93:0 94:0 95:0 96:0 97:0 98:0 99:0 100:0 101:0 102:0 103:0 104:0 105:0 106:0 107:0 108:0 109:0 110:0 111:0 112:0 113:0 114:0 115:0 116:0 117:0 118:0 119:0 120:0 121:1.5475 122:0 123:0 124:0 125:0 126:0 127:0 128:0 129:0 130:0 131:0 132:0 133:0 134:0 135:0 136:0 137:0 138:0 139:1.02862 140:0 141:0 142:0 143:0 144:0 145:0 146:0 147:0 148:0 149:0 150:0 151:0 152:0 153:0 154:0 155:0 156:0 157:2.04022 158:0 159:0 160:1.90298 161:0 162:1.94841 163:1.09362 164:0 165:3.77617 166:0 167:0 168:3.01694 169:0 170:0 171:2.99543 172:0 173:0 174:2.09964 175:1.70645 176:0 177:0 178:0 179:0 180:1.51413 181:0 182:0 183:0 184:0 185:0 186:0 187:0 188:0 189:0 190:0 191:0 192:0 193:0 194:0 195:0 196:0 197:0 198:0 199:0 
0.5596104883339886 0.6001644158221546 0.7667851836535292 0:0 1:0 2:0 3:0 4:0 5:0 6:0 7:0 8:0 9:0 10:0 11:0 12:0 13:0 14:0 15:0 16:0 17:0 18:0 19:0 20:0 21:0 22:10.2915 23:0 24:2.55748 25:0 26:0 27:0 28:0 29:0 30:0 31:0 32:0 33:0 34:0 35:0 36:0 37:0 38:0 39:0 40:0 41:0 42:0 43:0 44:0 45:3.35241 46:0 47:0 48:0 49:1.98413 50:0 51:0 52:0 53:0 54:0 55:0 56:0 57:0 58:0 59:0 60:0 61:0 62:0 63:0 64:0 65:0 66:0 67:0 68:0 69:0 70:0 71:0 72:0 73:0 74:0 75:0 76:0 77:0 78:0 79:0 80:0 81:0 82:0 83:0 84:0 85:0 86:0 87:0 88:0 89:0 90:0 91:0 92:0 93:0 94:0 95:0 96:0 97:0 98:0 99:0 100:0 101:0 102:0 103:0 104:0 105:0 106:0 107:0 108:0 109:0 110:0 111:0 112:0 113:0 114:0 115:0 116:0 117:0 118:0 119:0 120:0 121:0.850852 122:0 123:0 124:0 125:0 126:0 127:0 128:0 129:0 130:0 131:0 132:0 133:0 134:0 135:0 136:0 137:0 138:0 139:1.7416 140:0 141:0 142:0 143:0 144:0 145:1.64766 146:0 147:0 148:0 149:0 150:0 151:0 152:1.91393 153:1.58475 154:0 155:0 156:0 157:0 158:0 159:0 160:0 161:0 162:0 163:0 164:0 165:0 166:0 167:0 168:0 169:0 170:0 171:0 172:3.55501 173:0 174:0 175:0 176:0 177:0 178:0 179:0 180:0 181:0 182:0 183:0 184:0 185:0 186:0 187:0 188:0 189:0 190:0 191:0 192:0 193:0 194:0 195:0 196:0 197:0 198:0 199:0 
0 0 0.2753485694543409 0:0 1:0 2:0 3:0 4:0 5:2.65926 6:0 7:0 8:2.38055 9:0 10:0 11:4.91084 12:0 13:0 14:0 15:0 16:4.4431 17:0 18:0 19:0 20:0 21:0 22:0 23:0 24:0 25:0 26:1.35674 27:0 28:0 29:0 30:0 31:0 32:1.6874 33:1.80181 34:0 35:0 36:2.20727 37:0 38:0 39:0 40:0 41:0 42:0 43:0 44:0 45:0 46:0 47:0 48:0 49:0 50:0 51:0 52:0 53:0 54:0 55:0 56:0 57:0 58:0 59:0 60:0 61:0 62:0 63:0 64:0 65:0 66:0 67:0 68:0 69:0 70:0 71:0 72:0 73:0 74:0 75:0 76:0 77:0 78:0 79:0 80:0 81:0 82:0 83:0 84:0 85:0 86:0 87:0 88:0 89:0 90:0 91:0 92:0 93:0 94:0 95:0 96:0 97:0 98:0 99:0 100:0 101:0 102:0 103:0 104:0 105:0 106:0 107:0 108:0 109:0 110:0 111:0 112:0 113:0 114:0 115:0 116:0 117:0 118:0 119:0 120:0 121:0 122:0 123:0 124:0 125:0 126:0 127:0 128:0 129:0 130:0 131:0 132:0 133:0 134:0 135:0 136:0 137:0 138:0 139:1.7416 140:0 141:0 142:2.3279 143:0 144:0 145:0 146:0 147:0 148:0 149:0 150:0 151:0 152:0 153:0 154:0 155:0 156:0 157:0 158:0 159:0 160:0 161:0 162:4.64949 163:0 164:0 165:0 166:0 167:0 168:2.43405 169:0 170:0 171:0 172:0 173:0 174:0 175:1.00786 176:1.44817 177:0 178:0 179:0 180:1.51413 181:0 182:0 183:0 184:0 185:0 186:0 187:0 188:0 189:0 190:0 191:0 192:0 193:0 194:0 195:0 196:0 197:0 198:0 199:0 
0.09441814551228575 0.3775142118066897 0.3408725348081954 0:0 1:0 2:0 3:4.0591 4:0 5:4.50252 6:2.69563 7:2.25379 8:0 9:2.81341 10:0 11:6.92126 12:0 13:0 14:0 15:0 16:0 17:0 18:0 19:0 20:0 21:0 22:0 23:0 24:0 25:0 26:1.35674 27:0 28:0 29:0 30:0 31:0 32:1.6874 33:0 34:0 35:0 36:0 37:0 38:0 39:0 40:0 41:0 42:0 43:0 44:0 45:0 46:0 47:0 48:0 49:3.35943 50:0 51:0 52:0 53:0 54:0 55:0 56:0 57:0 58:0 59:0 60:0 61:0 62:0 63:0 64:0 65:0 66:0 67:0 68:0 69:0 70:0 71:0 72:0 73:0 74:0 75:0 76:0 77:0 78:0 79:0 80:0 81:0 82:0 83:0 84:0 85:0 86:0 87:0 88:0 89:0 90:0 91:0 92:0 93:0 94:0 95:0 96:0 97:0 98:0 99:0 100:0 101:0 102:0 103:0 104:0 105:0 106:0 107:0 108:0 109:0 110:0 111:0 112:0 113:0 114:0 115:0 116:0 117:0 118:0 119:0 120:0 121:1.31131 122:0 123:0 124:0 125:0 126:0 127:0 128:0 129:0 130:0 131:0 132:0 133:0 134:0 135:0 136:0 137:0 138:0 139:1.02862 140:0 141:0 142:3.94148 143:0 144:0 145:1.64766 146:0 147:0 148:0 149:0 150:0 151:0 152:0 153:0 154:0 155:0 156:0 157:0 158:0 159:0 160:0 161:0 162:1.94841 163:1.09362 164:0 165:0 166:0 167:0 168:0 169:0 170:0 171:0 172:0 173:0 174:0 175:0 176:0 177:0 178:0 179:0 180:0 181:0 182:0 183:0 184:0 185:0 186:0 187:0 188:0 189:0 190:0 191:0 192:0 193:0 194:0 195:0 196:0 197:0 198:0 199:0 
0 0.1422024423626467 0 0:0 1:0 2:0 3:2.88005 4:3.77617 5:2.65926 6:0 7:0 8:5.68069 9:0 10:0 11:0 12:0 13:0 14:0 15:0 16:5.50711 17:0 18:0 19:0 20:0 21:0 22:0 23:0 24:0 25:0 26:1.35674 27:0 28:0 29:0 30:0 31:1.93102 32:0 33:0 34:0 35:5.15906 36:0 37:0 38:0 39:0 40:0 41:0 42:0 43:0 44:0 45:0 46:0 47:0 48:3.21888 49:0 50:0 51:0 52:0 53:0 54:0 55:0 56:0 57:0 58:0 59:0 60:0 61:0 62:0 63:0 64:0 65:0 66:0 67:0 68:0 69:0 70:0 71:0 72:0 73:0 74:0 75:0 76:0 77:0 78:0 79:0 80:0 81:0 82:0 83:0 84:0 85:0 86:0 87:0 88:0 89:0 90:0 91:0 92:0 93:0 94:0 95:0 96:0 97:0 98:0 99:0 100:0 101:0 102:0 103:0 104:0 105:0 106:0 107:0 108:0 109:0 110:0 111:0 112:0 113:0 114:0 115:0 116:0 117:0 118:0 119:0 120:0 121:0 122:0 123:0 124:0.994252 125:0 126:0 127:0 128:0 129:0 130:0 131:0 132:0 133:0 134:0 135:0 136:0 137:0 138:0 139:0 140:0 141:0 142:0 143:0 144:0 145:0 146:0 147:0 148:0 149:0 150:0 151:1.30933 152:0 153:0 154:0 155:0 156:0 157:0 158:0 159:0 160:0 161:0 162:0 163:1.09362 164:0 165:0 166:0 167:0 168:0 169:0 170:0 171:2.12535 172:0 173:0 174:0 175:1.00786 176:0 177:0 178:0 179:0 180:1.51413 181:0 182:0 183:0 184:0 185:0 186:0 187:0 188:0 189:0 190:0 191:0 192:0 193:0 194:0 195:0 196:0 197:0 198:0 199:0 
0 0.05213010025394548 0 0:0 1:0 2:0 3:2.88005 4:2.23026 5:0 6:0 7:0 8:4.03062 9:0 10:0 11:0 12:0 13:2.38055 14:0 15:0 16:6.26204 17:0 18:2.90042 19:0 20:1.56065 21:0 22:0 23:0 24:0 25:0 26:1.35674 27:0 28:0 29:0 30:0 31:3.2695 32:0 33:0 34:0 35:3.04703 36:0 37:0 38:0 39:0 40:0 41:0 42:0 43:0 44:0 45:0 46:0 47:0 48:0 49:0 50:0 51:0 52:0 53:0 54:0 55:0 56:0 57:0 58:0 59:0 60:0 61:0 62:0 63:0 64:0 65:0 66:0 67:0 68:0 69:0 70:0 71:0 72:0 73:0 74:0 75:0 76:0 77:0 78:1.54881 79:0 80:0 81:0 82:0 83:0 84:0 85:0 86:0 87:0 88:0 89:0 90:0 91:0 92:0 93:0 94:0 95:0 96:0 97:0 98:0 99:0 100:0 101:0 102:0 103:0 104:0 105:0 106:0 107:0 108:0 109:0 110:0 111:0 112:0 113:0 114:0 115:0 116:0 117:0 118:0 119:0 120:0 121:0 122:0 123:0 124:0 125:0 126:0 127:0 128:0 129:0 130:0 131:0 132:0 133:0 134:0 135:0 136:0 137:0 138:0 139:0 140:0 141:0 142:0 143:0 144:0 145:0 146:0 147:1.77196 148:0 149:0 150:0 151:1.30933 152:0 153:0 154:0 155:0 156:0 157:0 158:0 159:0 160:0 161:0 162:1.94841 163:1.09362 164:0 165:0 166:0 167:3.77617 168:0 169:0 170:0 171:1.25527 172:0 173:0 174:0 175:0 176:0 177:0 178:0 179:0 180:0 181:0 182:0 183:0 184:0 185:0 186:0 187:0 188:0 189:0 190:0 191:0 192:0 193:0 194:0 195:0 196:0 197:0 198:0 199:0 
0.3166091578633685 0.2772805328948106 0.2302322087478631 0:0 1:0 2:2.35388 3:2.88005 4:0 5:0 6:0 7:0 8:0 9:0 10:6.81519 11:0 12:6.18449 13:5.68069 14:0 15:0 16:0 17:0 18:0 19:0 20:0 21:0 22:0 23:0 24:0 25:0 26:0 27:0 28:5.07222 29:0 30:0 31:0 32:0 33:3.05073 34:0 35:0 36:0 37:2.49496 38:3.35241 39:0 40:3.35241 41:0 42:3.35241 43:3.35241 44:3.35241 45:0 46:0 47:0 48:0 49:0 50:0 51:0 52:0 53:0 54:0 55:0 56:0 57:0 58:0 59:0 60:0 61:0 62:0 63:0 64:0 65:0 66:0 67:0 68:0 69:0 70:0 71:0 72:0 73:0 74:0 75:2.12026 76:0 77:0 78:0 79:0 80:0 81:0 82:0 83:0 84:0 85:0 86:0 87:0 88:0 89:0 90:0 91:0 92:0 93:0 94:0 95:0 96:0 97:0 98:0 99:0 100:0 101:0 102:0 103:0 104:0 105:0 106:0 107:0 108:0 109:0 110:0 111:0 112:0 113:0 114:0 115:0 116:0 117:0 118:0 119:0 120:0 121:0 122:0 123:0 124:0 125:0 126:0 127:0 128:0 129:0 130:0 131:0 132:0 133:0 134:0 135:0 136:1.83258 137:0 138:0 139:1.02862 140:0 141:0 142:0 143:0 144:0 145:0 146:0 147:0 148:0 149:0 150:0 151:0 152:0 153:0 154:0 155:0 156:0 157:0 158:0 159:0 160:1.12393 161:0 162:1.94841 163:0 164:0 165:2.23026 166:0 167:0 168:0 169:0 170:0 171:0 172:0 173:0 174:2.09964 175:2.1151 176:1.44817 177:0 178:0 179:2.90341 180:0 181:0 182:0 183:0 184:0 185:0 186:0 187:0 188:0 189:0 190:0 191:0 192:0 193:0 194:0 195:0 196:0 197:0 198:0 199:0 
0 0.02206634976511714 0 0:0 1:0 2:0 3:2.88005 4:0 5:2.65926 6:6.43256 7:0 8:2.38055 9:6.71363 10:0 11:0 12:0 13:0 14:0 15:0 16:0 17:0 18:0 19:5.73628 20:0 21:0 22:0 23:0 24:0 25:0 26:2.84726 27:0 28:0 29:0 30:0 31:0 32:0 33:0 34:0 35:3.04703 36:0 37:0 38:0 39:0 40:0 41:0 42:0 43:0 44:0 45:0 46:0 47:0 48:0 49:0 50:0 51:0 52:0 53:0 54:0 55:0 56:0 57:0 58:0 59:0 60:0 61:0 62:0 63:0 64:0 65:0 66:0 67:0 68:0 69:0 70:0 71:0 72:0 73:0 74:0 75:0 76:0 77:0 78:0 79:0 80:0 81:0 82:0 83:0 84:0 85:0 86:0 87:0 88:0 89:0 90:0 91:0 92:0 93:0 94:0 95:0 96:0 97:0 98:0 99:0 100:0 101:0 102:0 103:0 104:0 105:0 106:0 107:0 108:0 109:0 110:0 111:0 112:0 113:0 114:0 115:0 116:0 117:0 118:0 119:0 120:0 121:0 122:0 123:0 124:1.68342 125:0 126:0 127:0 128:0 129:0 130:0 131:0 132:0 133:0 134:0 135:0 136:0 137:0 138:0 139:0 140:0 141:0 142:0 143:0 144:0 145:0 146:0 147:1.77196 148:0 149:0 150:0 151:0 152:0 153:1.58475 154:0 155:0 156:0 157:0 158:0 159:0 160:1.12393 161:0 162:0 163:0 164:0 165:0 166:0 167:0 168:0 169:0 170:0 171:2.63432 172:0 173:0 174:2.09964 175:0 176:0 177:0 178:0 179:0 180:1.51413 181:0 182:0 183:0 184:0 185:0 186:0 187:0 188:0 189:0 190:0 191:0 192:0 193:0 194:0 195:0 196:0 197:0 198:0 199:0 
0 0.0777785364596819 0.5037825734352708 0:0 1:0 2:2.35388 3:0 4:0 5:0 6:0 7:0 8:0 9:0 10:2.85597 11:0 12:0 13:4.99584 14:0 15:0 16:0 17:0 18:0 19:0 20:0 21:3.21888 22:0 23:5.45003 24:0 25:0 26:0 27:0 28:6.28688 29:0 30:0 31:0 32:0 33:1.80181 34:0 35:0 36:0 37:0 38:0 39:0 40:0 41:5.67612 42:0 43:0 44:0 45:0 46:0 47:0 48:0 49:0 50:0 51:0 52:0 53:0 54:0 55:0 56:0 57:0 58:0 59:0 60:0 61:0 62:0 63:0 64:0 65:0 66:0 67:0 68:0 69:0 70:0 71:0 72:0 73:0 74:0 75:0 76:0 77:0 78:0 79:0 80:0 81:0 82:0 83:0 84:0 85:0 86:0 87:0 88:0 89:0 90:0 91:0 92:0 93:0 94:0 95:0 96:0 97:0 98:0 99:0 100:0 101:0 102:0 103:0 104:0 105:0 106:0 107:0 108:0 109:0 110:0 111:0 112:0 113:0 114:0 115:0 116:0 117:0 118:0 119:0 120:0 121:0 122:0 123:0 124:0 125:0 126:0 127:0 128:0 129:0 130:0 131:0 132:0 133:0 134:0 135:0 136:0 137:0 138:0 139:0 140:0 141:0 142:0 143:2.81341 144:0 145:0 146:0 147:0 148:0 149:0 150:0 151:0 152:0 153:0 154:0 155:0 156:0 157:2.04022 158:0 159:0 160:0 161:0 162:1.94841 163:0 164:0 165:2.23026 166:0 167:0 168:0 169:0 170:0 171:1.25527 172:0 173:0 174:0 175:1.70645 176:0 177:0 178:0 179:0 180:0 181:0 182:0 183:0 184:0 185:0 186:0 187:0 188:0 189:0 190:0 191:0 192:0 193:0 194:0 195:0 196:0 197:0 198:0 199:0 
1 1 1 0:0 1:0 2:0 3:0 4:0 5:0 6:0 7:0 8:0 9:0 10:0 11:0 12:0 13:0 14:2.81341 15:0 16:0 17:0 18:0 19:0 20:3.27519 21:0 22:3.21888 23:0 24:0 25:0 26:0 27:0 28:0 29:0 30:0 31:0 32:0 33:0 34:0 35:0 36:0 37:0 38:0 39:0 40:0 41:0 42:0 43:0 44:0 45:0 46:0 47:0 48:0 49:0 50:0 51:0 52:0 53:0 54:0 55:0 56:0 57:0 58:0 59:0 60:0 61:0 62:0 63:0 64:0 65:0 66:0 67:0 68:0 69:0 70:0 71:0 72:0 73:0 74:0 75:0 76:0 77:0 78:0 79:0 80:0 81:0 82:0 83:0 84:0 85:0 86:0 87:0 88:0 89:0 90:0 91:0 92:0 93:0 94:0 95:0 96:0 97:0 98:0 99:0 100:0 101:0 102:0 103:0 104:0 105:0 106:0 107:0 108:0 109:0 110:0 111:0 112:0 113:0 114:0 115:0 116:0 117:0 118:0 119:0 120:0 121:0 122:0 123:0 124:0.994252 125:0 126:0 127:0 128:0 129:0 130:0 131:0 132:0 133:0 134:0 135:0 136:0 137:0 138:0 139:0 140:0 141:0 142:0 143:0 144:0 145:0 146:0 147:0 148:0 149:0 150:0 151:0 152:0 153:0 154:0 155:0 156:0 157:0 158:0 159:0 160:0 161:0 162:0 163:1.85167 164:0 165:0 166:0 167:0 168:0 169:0 170:0 171:0 172:0 173:0 174:0 175:0 176:0 177:0 178:0 179:0 180:0 181:0 182:0 183:0 184:0 185:0 186:0 187:0 188:0 189:0 190:0 191:0 192:0 193:0 194:0 195:0 196:0 197:0 198:0 199:0 
0.279259969262357 0.27903257520308 0.05204759162853247 0:0 1:0 2:5.61705 3:0 4:0 5:0 6:0 7:4.72984 8:0 9:0 10:6.81519 11:0 12:6.18449 13:0 14:0 15:0 16:0 17:0 18:0 19:0 20:1.56065 21:5.45003 22:0 23:0 24:0 25:0 26:2.29715 27:0 28:0 29:0 30:0 31:0 32:0 33:0 34:0 35:0 36:2.20727 37:0 38:3.35241 39:0 40:3.35241 41:0 42:3.35241 43:3.35241 44:3.35241 45:0 46:0 47:0 48:0 49:0 50:0 51:0 52:0 53:0 54:0 55:0 56:0 57:0 58:0 59:0 60:0 61:0 62:0 63:0 64:0 65:0 66:0 67:0 68:0 69:0 70:0 71:0 72:0 73:0 74:0 75:0 76:0 77:0 78:0 79:0 80:0 81:0 82:0 83:0 84:0 85:0 86:0 87:0 88:0 89:0 90:0 91:0 92:0 93:0 94:0 95:0 96:0 97:0 98:0 99:0 100:0 101:0 102:0 103:0 104:0 105:0 106:0 107:0 108:0 109:0 110:0 111:0 112:0 113:0 114:0 115:0 116:0 117:0 118:0 119:0 120:0 121:0.502527 122:0 123:0 124:2.08655 125:0 126:0 127:0 128:0 129:0 130:0 131:0 132:0 133:0 134:0 135:0 136:0 137:0 138:0 139:1.02862 140:0 141:0 142:0 143:0 144:0 145:0 146:0 147:0 148:0 149:0 150:0 151:0 152:0 153:0 154:0 155:0 156:0 157:0 158:0 159:0 160:0 161:0 162:0 163:0 164:0 165:0 166:0 167:0 168:0 169:0 170:5.79199 171:0 172:0 173:0 174:0 175:0 176:1.44817 177:0 178:0 179:0 180:1.51413 181:0 182:0 183:0 184:0 185:0 186:0 187:0 188:0 189:0 190:0 191:0 192:0 193:0 194:0 195:0 196:0 197:0 198:3.39049 199:0 
0.2337504548505417 0.0449095017142131 0 0:0 1:0 2:0 3:0 4:0 5:2.65926 6:0 7:2.25379 8:2.38055 9:0 10:0 11:0 12:0 13:0 14:0 15:0 16:0 17:3.87893 18:0 19:0 20:2.64241 21:0 22:0 23:8.39946 24:0 25:0 26:0 27:0 28:0 29:2.90042 30:0 31:0 32:0 33:3.05073 34:0 35:0 36:0 37:0 38:0 39:0 40:0 41:9.87589 42:0 43:0 44:0 45:3.35241 46:0 47:0 48:0 49:0 50:0 51:0 52:0 53:0 54:0 55:0 56:0 57:0 58:0 59:0 60:0 61:0 62:0 63:0 64:0 65:0 66:0 67:0 68:0 69:0 70:0 71:0 72:0 73:0 74:0 75:0 76:0 77:0 78:0 79:0 80:0 81:0 82:0 83:0 84:0 85:0 86:0 87:0 88:0 89:0 90:0 91:0 92:0 93:0 94:0 95:0 96:0 97:0 98:0 99:0 100:0 101:0 102:2.52573 103:0 104:0 105:0 106:0 107:0 108:0 109:0 110:0 111:0 112:0 113:0 114:0 115:0 116:0 117:0 118:0 119:0 120:0 121:1.40293 122:0 123:0 124:0 125:0 126:0 127:0 128:0 129:0 130:0 131:0 132:0 133:0 134:0 135:0 136:0 137:0 138:0 139:0 140:0 141:0 142:2.3279 143:0 144:0 145:1.64766 146:0 147:0 148:0 149:0 150:0 151:1.30933 152:3.24056 153:0 154:0 155:0 156:0 157:0 158:0 159:3.69919 160:0 161:3.73724 162:3.29895 163:1.09362 164:0 165:0 166:0 167:0 168:1.43759 169:0 170:0 171:0 172:0 173:2.09964 174:0 175:2.40505 176:2.45196 177:0 178:4.44961 179:0 180:2.56364 181:2.27789 182:0 183:0 184:0 185:0 186:0 187:0 188:0 189:0 190:0 191:0 192:0 193:0 194:0 195:0 196:0 197:0 198:3.39049 199:0 
0.2965342047885852 0.191751877199197 0.1097049691448973 0:0 1:0 2:0 3:1.70101 4:7.13066 5:0 6:0 7:0 8:0 9:0 10:6.81519 11:0 12:6.18449 13:0 14:0 15:0 16:0 17:4.41066 18:0 19:0 20:0 21:0 22:3.21888 23:0 24:6.10289 25:0 26:1.35674 27:0 28:0 29:0 30:0 31:1.93102 32:0 33:0 34:0 35:0 36:3.73724 37:0 38:3.35241 39:12.1996 40:3.35241 41:0 42:3.35241 43:3.35241 44:3.35241 45:0 46:0 47:0 48:0 49:3.35943 50:0 51:0 52:0 53:0 54:0 55:0 56:0 57:0 58:0 59:0 60:0 61:0 62:0 63:0 64:0 65:0 66:0 67:0 68:0 69:0 70:0 71:0 72:0 73:0 74:0 75:0 76:0 77:0 78:0 79:0 80:0 81:0 82:0 83:0 84:0 85:0 86:0 87:0 88:0 89:0 90:0 91:0 92:0 93:0 94:0 95:0 96:0 97:0 98:0 99:0 100:0 101:0 102:0 103:0 104:0 105:0 106:0 107:0 108:0 109:0 110:0 111:0 112:0 113:0 114:0 115:0 116:0 117:0 118:0 119:0 120:0 121:0.850852 122:0 123:0 124:0.994252 125:0 126:0 127:0 128:0 129:0 130:0 131:0 132:0 133:0 134:0 135:0 136:0 137:0 138:0 139:1.7416 140:0 141:0 142:0 143:0 144:0 145:0 146:0 147:0 148:0 149:0 150:0 151:0 152:0 153:0 154:0 155:0 156:0 157:0 158:0 159:0 160:0 161:0 162:0 163:1.09362 164:2.23026 165:0 166:0 167:0 168:0 169:0 170:0 171:1.25527 172:0 173:0 174:0 175:0 176:1.44817 177:0 178:0 179:0 180:1.51413 181:0 182:0 183:0 184:0 185:0 186:0 187:0 188:0 189:0 190:0 191:0 192:0 193:0 194:0 195:0 196:0 197:0 198:0 199:0 
0.1439012669201865 0.05039945834650664 0 0:0 1:0 2:0 3:0 4:2.23026 5:0 6:5.65708 7:3.81601 8:8.08885 9:7.34142 10:0 11:4.91084 12:0 13:0 14:0 15:0 16:0 17:0 18:0 19:0 20:3.27519 21:0 22:0 23:0 24:0 25:0 26:0 27:2.35388 28:0 29:0 30:2.52573 31:1.93102 32:0 33:0 34:0 35:3.04703 36:0 37:0 38:0 39:0 40:0 41:0 42:0 43:0 44:0 45:0 46:5.49465 47:0 48:3.21888 49:1.98413 50:0 51:0 52:0 53:0 54:0 55:0 56:0 57:0 58:0 59:0 60:0 61:0 62:0 63:0 64:0 65:0 66:0 67:0 68:0 69:0 70:0 71:0 72:0 73:0 74:0 75:0 76:0 77:0 78:0 79:0 80:0 81:0 82:0 83:0 84:0 85:0 86:0 87:0 88:0 89:0 90:0 91:0 92:0 93:0 94:0 95:0 96:0 97:0 98:0 99:0 100:0 101:0 102:0 103:0 104:0 105:0 106:0 107:0 108:0 109:0 110:0 111:0 112:0 113:0 114:0 115:0 116:0 117:0 118:0 119:0 120:0 121:0.502527 122:0 123:0 124:0 125:0 126:0 127:0 128:0 129:0 130:0 131:0 132:0 133:0 134:0 135:0 136:0 137:0 138:0 139:2.15867 140:0 141:0 142:0 143:0 144:0 145:0 146:0 147:0 148:0 149:0 150:0 151:0 152:0 153:1.58475 154:0 155:0 156:0 157:0 158:0 159:0 160:1.12393 161:0 162:1.94841 163:0 164:2.23026 165:2.23026 166:0 167:0 168:3.43051 169:0 170:0 171:1.25527 172:2.09964 173:0 174:2.09964 175:0 176:0 177:0 178:3.58992 179:0 180:0 181:0 182:0 183:0 184:0 185:0 186:0 187:0 188:0 189:0 190:0 191:0 192:0 193:0 194:0 195:0 196:0 197:0 198:2.00248 199:0 
0.2955280875151182 0.2083479000413857 0 0:0 1:0 2:3.98546 3:0 4:0 5:2.65926 6:2.69563 7:6.63948 8:2.38055 9:0 10:0 11:0 12:0 13:0 14:0 15:0 16:5.50711 17:4.8231 18:0 19:0 20:2.64241 21:0 22:0 23:8.39946 24:0 25:0 26:0 27:0 28:0 29:2.90042 30:2.52573 31:0 32:2.85702 33:3.05073 34:0 35:0 36:0 37:2.49496 38:0 39:0 40:0 41:9.35911 42:0 43:0 44:0 45:0 46:0 47:0 48:0 49:0 50:0 51:0 52:0 53:0 54:0 55:0 56:0 57:0 58:0 59:0 60:0 61:0 62:0 63:0 64:0 65:0 66:0 67:0 68:0 69:0 70:0 71:0 72:0 73:0 74:0 75:0 76:0 77:0 78:0 79:0 80:0 81:0 82:0 83:0 84:0 85:0 86:0 87:0 88:0 89:0 90:0 91:0 92:0 93:0 94:0 95:0 96:0 97:0 98:0 99:0 100:0 101:0 102:0 103:0 104:0 105:0 106:0 107:0 108:0 109:0 110:0 111:0 112:0 113:0 114:0 115:0 116:0 117:0 118:0 119:0 120:0 121:1.5475 122:0 123:0 124:2.59444 125:0 126:0 127:0 128:0 129:0 130:0 131:0 132:0 133:0 134:0 135:0 136:0 137:0 138:0 139:1.02862 140:0 141:0 142:3.94148 143:0 144:0 145:0 146:0 147:0 148:0 149:0 150:0 151:1.30933 152:4.56719 153:0 154:0 155:0 156:0 157:3.45439 158:0 159:6.43623 160:1.90298 161:0 162:4.08896 163:1.85167 164:0 165:0 166:0 167:2.23026 168:0 169:0 170:0 171:0 172:0 173:0 174:0 175:2.40505 176:1.44817 177:0 178:2.12026 179:0 180:2.56364 181:0 182:0 183:0 184:0 185:0 186:0 187:0 188:0 189:0 190:0 191:0 192:0 193:0 194:0 195:0 196:0 197:0 198:0 199:0 
0 0.5542752731576333 0.6194469217488595 0:0 1:0 2:2.35388 3:0 4:0 5:0 6:0 7:3.81601 8:6.64591 9:0 10:0 11:0 12:0 13:0 14:2.81341 15:0 16:0 17:0 18:0 19:0 20:0 21:0 22:0 23:0 24:0 25:0 26:1.35674 27:0 28:0 29:0 30:0 31:0 32:0 33:0 34:0 35:0 36:0 37:0 38:0 39:0 40:0 41:0 42:0 43:0 44:0 45:0 46:0 47:0 48:3.21888 49:0 50:0 51:0 52:0 53:0 54:0 55:0 56:0 57:0 58:0 59:0 60:0 61:0 62:0 63:0 64:0 65:0 66:0 67:0 68:0 69:0 70:0 71:0 72:0 73:0 74:0 75:0 76:0 77:0 78:0 79:0 80:0 81:0 82:0 83:0 84:0 85:0 86:0 87:0 88:0 89:0 90:0 91:0 92:0 93:0 94:0 95:0 96:0 97:0 98:0 99:0 100:0 101:0 102:0 103:0 104:0 105:0 106:0 107:0 108:0 109:0 110:0 111:0 112:0 113:0 114:0 115:0 116:0 117:0 118:0 119:0 120:0 121:1.05461 122:0 123:0 124:0 125:0 126:0 127:0 128:0 129:0 130:0 131:0 132:0 133:0 134:0 135:0 136:0 137:0 138:0 139:0 140:0 141:0 142:0 143:0 144:0 145:0 146:0 147:3.71865 148:0 149:0 150:0 151:0 152:0 153:0 154:0 155:0 156:0 157:0 158:0 159:0 160:0 161:0 162:0 163:0 164:0 165:0 166:0 167:0 168:0 169:0 170:1.96611 171:0 172:0 173:0 174:0 175:1.00786 176:1.44817 177:0 178:0 179:2.90341 180:0 181:0 182:0 183:0 184:0 185:0 186:0 187:0 188:0 189:0 190:0 191:0 192:0 193:0 194:0 195:0 196:0 197:0 198:0 199:0 
0.7973527536371955 1 1 0:0 1:0 2:0 3:1.70101 4:0 5:0 6:0 7:0 8:0 9:0 10:0 11:0 12:0 13:0 14:0 15:0 16:2.62417 17:0 18:0 19:5.73628 20:0 21:0 22:0 23:0 24:0 25:0 26:0 27:2.35388 28:0 29:0 30:0 31:1.93102 32:0 33:0 34:0 35:0 36:0 37:0 38:0 39:0 40:0 41:0 42:0 43:0 44:0 45:0 46:0 47:0 48:0 49:0 50:0 51:0 52:0 53:0 54:0 55:0 56:0 57:0 58:0 59:0 60:0 61:0 62:0 63:0 64:0 65:3.28341 66:0 67:0 68:0 69:0 70:0 71:0 72:0 73:0 74:0 75:0 76:0 77:0 78:0 79:0 80:0 81:0 82:0 83:0 84:0 85:0 86:0 87:0 88:0 89:0 90:0 91:0 92:0 93:0 94:0 95:0 96:0 97:0 98:0 99:0 100:0 101:0 102:0 103:0 104:0 105:0 106:0 107:0 108:0 109:0 110:0 111:0 112:0 113:0 114:0 115:0 116:0 117:0 118:0 119:0 120:0 121:0.502527 122:0 123:0 124:0 125:0 126:0 127:0 128:0 129:0 130:0 131:0 132:0 133:0 134:0 135:0 136:0 137:0 138:0 139:0 140:0 141:0 142:0 143:0 144:0 145:0 146:0 147:0 148:0 149:0 150:0 151:0 152:0 153:0 154:0 155:0 156:0 157:2.04022 158:2.1848 159:0 160:1.12393 161:0 162:0 163:1.09362 164:0 165:0 166:0 167:0 168:1.43759 169:0 170:0 171:0 172:0 173:0 174:0 175:0 176:0 177:0 178:0 179:0 180:0 181:0 182:0 183:0 184:0 185:0 186:0 187:0 188:0 189:0 190:0 191:0 192:0 193:0 194:0 195:0 196:0 197:0 198:0 199:0 
0.9634579083930323 1 1 0:0 1:0 2:2.35388 3:2.88005 4:0 5:0 6:0 7:0 8:0 9:0 10:0 11:0 12:0 13:0 14:0 15:0 16:0 17:0 18:0 19:0 20:1.56065 21:0 22:0 23:0 24:0 25:0 26:2.29715 27:0 28:0 29:0 30:0 31:0 32:0 33:0 34:0 35:0 36:0 37:0 38:0 39:0 40:0 41:0 42:0 43:0 44:0 45:0 46:0 47:0 48:0 49:0 50:0 51:0 52:0 53:0 54:0 55:0 56:0 57:0 58:0 59:0 60:0 61:0 62:0 63:0 64:0 65:0 66:0 67:0 68:0 69:0 70:0 71:0 72:0 73:0 74:0 75:0 76:0 77:0 78:0 79:0 80:0 81:0 82:0 83:0 84:0 85:0 86:0 87:0 88:0 89:0 90:0 91:0 92:0 93:0 94:0 95:0 96:0 97:0 98:0 99:0 100:0 101:0 102:0 103:0 104:0 105:0 106:0 107:0 108:0 109:0 110:0 111:0 112:0 113:0 114:0 115:0 116:0 117:0 118:0 119:0 120:0 121:0.502527 122:0 123:0 124:0 125:0 126:0 127:0 128:0 129:0 130:0 131:0 132:0 133:0 134:0 135:0 136:0 137:0 138:0 139:0 140:0 141:0 142:0 143:0 144:0 145:0 146:0 147:0 148:0 149:0 150:0 151:0 152:0 153:0 154:0 155:0 156:0 157:0 158:0 159:0 160:0 161:0 162:1.94841 163:0 164:0 165:2.23026 166:0 167:0 168:0 169:0 170:0 171:0 172:0 173:0 174:0 175:0 176:0 177:0 178:0 179:0 180:0 181:0 182:0 183:0 184:0 185:0 186:0 187:0 188:0 189:0 190:0 191:0 192:0 193:0 194:0 195:0 196:0 197:0 198:0 199:0 
0 0.02688606086679327 0.08049363960692636 0:0 1:0 2:2.35388 3:2.88005 4:2.23026 5:0 6:0 7:0 8:0 9:0 10:6.81519 11:0 12:4.98961 13:4.03062 14:2.81341 15:0 16:0 17:0 18:0 19:0 20:0 21:0 22:0 23:0 24:0 25:0 26:0 27:0 28:2.99573 29:0 30:0 31:5.68862 32:3.5412 33:0 34:0 35:0 36:2.20727 37:2.49496 38:0 39:0 40:0 41:0 42:0 43:0 44:0 45:0 46:0 47:0 48:0 49:0 50:0 51:0 52:0 53:0 54:0 55:0 56:0 57:0 58:0 59:0 60:0 61:0 62:0 63:0 64:0 65:0 66:0 67:0 68:0 69:0 70:0 71:0 72:0 73:0 74:0 75:0 76:0 77:0 78:0 79:0 80:0 81:0 82:0 83:0 84:0 85:0 86:0 87:0 88:0 89:0 90:0 91:0 92:0 93:0 94:0 95:0 96:0 97:0 98:0 99:0 100:0 101:0 102:0 103:0 104:0 105:0 106:0 107:0 108:0 109:0 110:0 111:0 112:0 113:0 114:0 115:0 116:0 117:0 118:0 119:0 120:0 121:0 122:0 123:0 124:0 125:0 126:0 127:0 128:0 129:0 130:0 131:0 132:0 133:0 134:0 135:0 136:1.83258 137:0 138:0 139:1.02862 140:0 141:0 142:0 143:0 144:0 145:0 146:0 147:0 148:0 149:0 150:0 151:0 152:0 153:0 154:0 155:0 156:0 157:0 158:0 159:0 160:0 161:0 162:1.94841 163:0 164:0 165:0 166:0 167:2.23026 168:3.7513 169:0 170:0 171:1.25527 172:0 173:0 174:0 175:1.00786 176:0 177:0 178:0 179:3.5987 180:1.51413 181:0 182:0 183:0 184:0 185:0 186:0 187:0 188:0 189:0 190:0 191:0 192:0 193:0 194:0 195:0 196:0 197:0 198:0 199:0 
0.1321178813483613 0.4782470351073445 0.3335418787881898 0:0 1:0 2:0 3:0 4:0 5:0 6:0 7:0 8:2.38055 9:0 10:0 11:4.91084 12:0 13:0 14:0 15:0 16:2.62417 17:1.84833 18:0 19:2.73337 20:0 21:0 22:0 23:0 24:0 25:0 26:1.35674 27:0 28:0 29:0 30:0 31:0 32:1.6874 33:1.80181 34:0 35:0 36:0 37:0 38:0 39:0 40:0 41:0 42:0 43:0 44:0 45:0 46:0 47:0 48:0 49:0 50:0 51:0 52:0 53:0 54:0 55:0 56:0 57:0 58:0 59:0 60:0 61:0 62:0 63:0 64:0 65:0 66:0 67:0 68:0 69:0 70:0 71:0 72:0 73:0 74:0 75:0 76:0 77:0 78:0 79:0 80:0 81:0 82:0 83:0 84:0 85:0 86:0 87:0 88:0 89:0 90:0 91:0 92:0 93:0 94:0 95:0 96:0 97:0 98:0 99:0 100:0 101:0 102:0 103:0 104:0 105:0 106:0 107:0 108:0 109:0 110:0 111:0 112:0 113:0 114:0 115:0 116:0 117:0 118:0 119:0 120:0 121:0 122:0 123:0 124:0 125:0 126:0 127:0 128:0 129:0 130:0 131:0 132:0 133:0 134:0 135:0 136:0 137:0 138:0 139:1.7416 140:0 141:0 142:2.3279 143:2.81341 144:0 145:0 146:0 147:1.77196 148:0 149:0 150:0 151:0 152:0 153:0 154:0 155:0 156:0 157:0 158:0 159:0 160:0 161:0 162:4.64949 163:0 164:0 165:0 166:0 167:0 168:0 169:0 170:0 171:0 172:0 173:0 174:0 175:0 176:1.44817 177:0 178:0 179:0 180:1.51413 181:0 182:0 183:0 184:0 185:0 186:0 187:0 188:0 189:0 190:0 191:0 192:0 193:0 194:0 195:0 196:0 197:0 198:0 199:0 
0.4828057890419418 0.3933354593126344 0.05288925572967533 0:0 1:0 2:7.52588 3:3.56975 4:0 5:6.34578 6:0 7:3.81601 8:4.99584 9:0 10:0 11:2.90042 12:0 13:7.61114 14:0 15:0 16:0 17:0 18:2.90042 19:0 20:1.56065 21:3.21888 22:0 23:0 24:0 25:0 26:0 27:7.77388 28:7.1487 29:2.90042 30:2.52573 31:1.93102 32:3.5412 33:1.80181 34:0 35:0 36:3.73724 37:5.23595 38:0 39:0 40:0 41:0 42:0 43:0 44:0 45:5.67612 46:5.49465 47:0 48:0 49:0 50:0 51:0 52:0 53:0 54:0 55:0 56:0 57:0 58:0 59:0 60:0 61:0 62:0 63:0 64:0 65:0 66:0 67:0 68:0 69:0 70:0 71:0 72:0 73:0 74:0 75:0 76:0 77:0 78:0 79:0 80:0 81:0 82:0 83:0 84:0 85:0 86:0 87:0 88:0 89:0 90:0 91:0 92:0 93:0 94:0 95:0 96:0 97:0 98:0 99:0 100:0 101:0 102:0 103:0 104:0 105:0 106:0 107:0 108:0 109:0 110:0 111:0 112:0 113:0 114:0 115:0 116:0 117:0 118:0 119:0 120:0 121:0.502527 122:0 123:0 124:0.994252 125:0 126:0 127:0 128:0 129:0 130:0 131:0 132:0 133:0 134:0 135:0 136:0 137:0 138:3.28341 139:1.7416 140:0 141:0 142:0 143:0 144:0 145:0 146:0 147:1.77196 148:0 149:0 150:0 151:0 152:0 153:0 154:0 155:0 156:0 157:0 158:0 159:0 160:0 161:0 162:3.29895 163:0 164:0 165:6.22636 166:0 167:0 168:1.43759 169:0 170:0 171:2.12535 172:3.55501 173:0 174:0 175:1.70645 176:0 177:0 178:0 179:0 180:0 181:0 182:0 183:0 184:0 185:0 186:0 187:0 188:0 189:0 190:0 191:0 192:0 193:0 194:0 195:0 196:0 197:0 198:0 199:0 
0.3873146776911857 0.3012180050125353 0.6832568843454886 0:0 1:0 2:5.61705 3:0 4:0 5:0 6:0 7:5.37822 8:0 9:0 10:0 11:0 12:0 13:0 14:0 15:0 16:0 17:0 18:0 19:0 20:0 21:0 22:0 23:0 24:2.55748 25:0 26:1.35674 27:0 28:0 29:0 30:0 31:0 32:2.85702 33:0 34:0 35:0 36:0 37:0 38:0 39:0 40:0 41:0 42:0 43:0 44:0 45:0 46:0 47:0 48:0 49:0 50:0 51:0 52:0 53:0 54:0 55:0 56:0 57:0 58:0 59:0 60:0 61:0 62:0 63:0 64:0 65:0 66:0 67:0 68:0 69:0 70:0 71:0 72:0 73:0 74:0 75:0 76:0 77:0 78:0 79:0 80:0 81:0 82:0 83:0 84:0 85:0 86:0 87:0 88:0 89:0 90:0 91:0 92:0 93:0 94:0 95:0 96:0 97:0 98:0 99:0 100:0 101:0 102:0 103:0 104:0 105:0 106:0 107:0 108:0 109:0 110:0 111:0 112:0 113:0 114:0 115:0 116:0 117:0 118:0 119:0 120:0 121:0 122:0 123:0 124:0 125:0 126:0 127:0 128:0 129:0 130:0 131:0 132:0 133:0 134:0 135:0 136:0 137:0 138:0 139:0 140:0 141:0 142:0 143:0 144:0 145:0 146:0 147:0 148:0 149:0 150:0 151:0 152:0 153:1.58475 154:0 155:0 156:0 157:0 158:0 159:0 160:1.12393 161:2.20727 162:0 163:0 164:0 165:0 166:0 167:0 168:0 169:0 170:6.2861 171:0 172:0 173:0 174:2.09964 175:1.70645 176:0 177:0 178:0 179:1.7148 180:0 181:0 182:0 183:0 184:0 185:0 186:0 187:0 188:0 189:0 190:0 191:0 192:0 193:0 194:0 195:0 196:0 197:0 198:0 199:0 
0 0.01466102708546501 0.08598648133846441 0:0 1:0 2:7.24863 3:0 4:2.23026 5:0 6:0 7:7.20589 8:0 9:0 10:0 11:0 12:0 13:2.38055 14:0 15:0 16:0 17:0 18:0 19:0 20:1.56065 21:3.21888 22:0 23:0 24:0 25:0 26:0 27:0 28:5.07222 29:0 30:0 31:0 32:4.02663 33:0 34:0 35:0 36:0 37:0 38:0 39:0 40:0 41:0 42:0 43:0 44:0 45:0 46:0 47:0 48:0 49:0 50:0 51:0 52:0 53:0 54:0 55:0 56:0 57:0 58:0 59:0 60:0 61:0 62:0 63:0 64:0 65:0 66:0 67:0 68:0 69:0 70:0 71:0 72:0 73:0 74:0 75:0 76:0 77:0 78:0 79:0 80:0 81:0 82:0 83:0 84:0 85:0 86:0 87:0 88:0 89:0 90:0 91:0 92:0 93:0 94:0 95:0 96:0 97:0 98:0 99:0 100:0 101:0 102:0 103:0 104:0 105:0 106:0 107:0 108:0 109:0 110:0 111:0 112:0 113:0 114:0 115:0 116:0 117:0 118:0 119:0 120:0 121:1.31131 122:0 123:0 124:0 125:0 126:0 127:0 128:0 129:0 130:0 131:0 132:0 133:0 134:0 135:0 136:0 137:0 138:0 139:1.7416 140:0 141:0 142:0 143:0 144:0 145:1.64766 146:0 147:0 148:0 149:0 150:0 151:0 152:0 153:0 154:0 155:0 156:0 157:0 158:0 159:0 160:0 161:0 162:0 163:0 164:0 165:0 166:0 167:0 168:0 169:0 170:1.96611 171:0 172:0 173:0 174:2.09964 175:0 176:2.45196 177:0 178:0 179:0 180:0 181:2.27789 182:0 183:0 184:0 185:0 186:0 187:0 188:0 189:0 190:0 191:0 192:0 193:0 194:0 195:0 196:0 197:0 198:2.00248 199:0 
0.5703565773607079 0.4518592305633672 0.1929391156744024 0:0 1:0 2:0 3:2.88005 4:2.23026 5:0 6:0 7:0 8:0 9:0 10:0 11:0 12:0 13:0 14:0 15:0 16:0 17:0 18:9.57889 19:2.73337 20:0 21:0 22:0 23:0 24:0 25:0 26:0 27:0 28:0 29:0 30:0 31:0 32:0 33:0 34:0 35:3.04703 36:0 37:0 38:0 39:0 40:0 41:0 42:0 43:0 44:0 45:0 46:0 47:0 48:5.45003 49:0 50:0 51:0 52:0 53:0 54:0 55:0 56:0 57:0 58:0 59:0 60:0 61:0 62:0 63:0 64:0 65:0 66:0 67:0 68:0 69:0 70:0 71:0 72:0 73:0 74:0 75:0 76:0 77:0 78:0 79:0 80:0 81:0 82:0 83:0 84:0 85:0 86:0 87:0 88:0 89:0 90:0 91:0 92:0 93:0 94:0 95:0 96:0 97:0 98:0 99:0 100:0 101:0 102:0 103:0 104:0 105:0 106:0 107:0 108:0 109:0 110:0 111:0 112:0 113:0 114:0 115:0 116:0 117:0 118:0 119:0 120:0 121:0.850852 122:0 123:4.1247 124:0 125:0 126:0 127:0 128:0 129:0 130:0 131:0 132:0 133:0 134:0 135:0 136:0 137:0 138:0 139:1.02862 140:0 141:0 142:0 143:0 144:0 145:0 146:0 147:0 148:0 149:0 150:0 151:0 152:0 153:1.58475 154:0 155:0 156:0 157:0 158:0 159:0 160:0 161:0 162:0 163:0 164:0 165:0 166:0 167:0 168:0 169:0 170:4.69172 171:1.25527 172:0 173:0 174:2.09964 175:0 176:0 177:0 178:0 179:0 180:0 181:0 182:0 183:0 184:0 185:0 186:0 187:0 188:0 189:0 190:0 191:0 192:0 193:0 194:0 195:0 196:0 197:0 198:2.00248 199:0 
0.373772677354815 0.100095817953006 0 0:0 1:0 2:0 3:5.77984 4:5.81974 5:2.65926 6:2.69563 7:0 8:0 9:5.90426 10:0 11:4.91084 12:0 13:0 14:2.81341 15:0 16:0 17:0 18:0 19:10.4776 20:2.64241 21:0 22:0 23:0 24:8.69004 25:0 26:2.29715 27:2.35388 28:0 29:0 30:0 31:0 32:0 33:1.80181 34:0 35:0 36:2.20727 37:0 38:0 39:0 40:0 41:0 42:0 43:0 44:0 45:0 46:3.89862 47:0 48:0 49:0 50:0 51:0 52:0 53:0 54:0 55:0 56:0 57:0 58:0 59:0 60:0 61:0 62:0 63:0 64:0 65:0 66:0 67:0 68:0 69:0 70:0 71:0 72:0 73:0 74:0 75:0 76:0 77:0 78:2.62237 79:0 80:0 81:0 82:0 83:0 84:0 85:0 86:0 87:0 88:0 89:0 90:0 91:0 92:0 93:0 94:0 95:0 96:0 97:0 98:0 99:0 100:0 101:0 102:0 103:0 104:0 105:0 106:0 107:0 108:0 109:0 110:0 111:0 112:0 113:0 114:0 115:0 116:0 117:0 118:0 119:0 120:0 121:0.502527 122:0 123:0 124:0 125:0 126:0 127:0 128:0 129:0 130:0 131:0 132:0 133:0 134:0 135:0 136:0 137:0 138:0 139:1.7416 140:0 141:0 142:0 143:0 144:0 145:0 146:0 147:0 148:0 149:0 150:0 151:0 152:0 153:0 154:0 155:0 156:0 157:0 158:0 159:0 160:0 161:0 162:5.08426 163:1.09362 164:0 165:0 166:0 167:0 168:0 169:0 170:1.96611 171:0 172:0 173:0 174:2.09964 175:0 176:0 177:0 178:0 179:0 180:0 181:0 182:0 183:0 184:0 185:0 186:0 187:0 188:0 189:0 190:0 191:0 192:0 193:0 194:0 195:0 196:0 197:0 198:0 199:0 
0 0.1531213650627403 0.1650623002471449 0:0 1:0 2:3.98546 3:2.88005 4:0 5:0 6:0 7:0 8:0 9:0 10:6.81519 11:0 12:4.98961 13:5.68069 14:0 15:0 16:0 17:0 18:2.90042 19:0 20:0 21:0 22:0 23:0 24:0 25:0 26:0 27:2.35388 28:0 29:0 30:0 31:1.93102 32:1.6874 33:0 34:0 35:0 36:0 37:0 38:0 39:0 40:0 41:0 42:0 43:0 44:0 45:0 46:3.89862 47:0 48:0 49:0 50:0 51:0 52:0 53:0 54:0 55:0 56:0 57:0 58:0 59:0 60:0 61:0 62:0 63:0 64:0 65:0 66:0 67:0 68:0 69:0 70:0 71:0 72:0 73:0 74:0 75:0 76:0 77:0 78:0 79:0 80:0 81:0 82:0 83:0 84:0 85:0 86:0 87:0 88:0 89:0 90:0 91:0 92:0 93:0 94:0 95:0 96:0 97:0 98:0 99:0 100:0 101:0 102:0 103:0 104:0 105:0 106:0 107:0 108:0 109:0 110:0 111:0 112:0 113:0 114:0 115:0 116:0 117:0 118:0 119:0 120:0 121:0 122:0 123:0 124:0 125:0 126:0 127:0 128:0 129:0 130:0 131:0 132:0 133:0 134:0 135:0 136:0 137:0 138:0 139:2.45459 140:0 141:0 142:0 143:0 144:0 145:0 146:0 147:0 148:0 149:0 150:0 151:0 152:0 153:0 154:0 155:0 156:0 157:0 158:0 159:0 160:1.12393 161:0 162:1.94841 163:0 164:0 165:0 166:0 167:0 168:1.43759 169:0 170:0 171:2.63432 172:0 173:0 174:2.09964 175:0 176:0 177:0 178:3.58992 179:0 180:0 181:0 182:0 183:0 184:0 185:0 186:0 187:0 188:0 189:0 190:0 191:0 192:0 193:0 194:0 195:0 196:0 197:0 198:0 199:0 
0 0 0.09724523353313989 0:0 1:0 2:3.98546 3:2.88005 4:0 5:0 6:0 7:7.44335 8:0 9:0 10:4.83558 11:0 12:2.94694 13:2.38055 14:0 15:0 16:0 17:0 18:0 19:0 20:1.56065 21:5.45003 22:0 23:0 24:0 25:0 26:0 27:0 28:0 29:4.91084 30:0 31:1.93102 32:0 33:0 34:0 35:0 36:0 37:0 38:0 39:0 40:0 41:0 42:0 43:0 44:0 45:0 46:0 47:0 48:0 49:1.98413 50:0 51:0 52:0 53:0 54:0 55:0 56:0 57:0 58:0 59:0 60:0 61:0 62:0 63:0 64:0 65:0 66:0 67:0 68:0 69:0 70:0 71:0 72:0 73:0 74:0 75:0 76:0 77:0 78:0 79:0 80:0 81:0 82:0 83:0 84:0 85:0 86:0 87:0 88:0 89:0 90:0 91:0 92:0 93:0 94:0 95:0 96:0 97:0 98:0 99:0 100:0 101:0 102:0 103:0 104:0 105:0 106:0 107:0 108:0 109:0 110:0 111:0 112:0 113:0 114:0 115:0 116:0 117:0 118:0 119:0 120:0 121:0 122:0 123:0 124:0 125:0 126:0 127:0 128:0 129:0 130:0 131:0 132:0 133:0 134:0 135:0 136:0 137:0 138:0 139:0 140:0 141:0 142:0 143:0 144:0 145:0 146:0 147:0 148:0 149:0 150:0 151:0 152:0 153:0 154:0 155:0 156:0 157:3.45439 158:0 159:0 160:1.12393 161:0 162:1.94841 163:0 164:0 165:0 166:0 167:0 168:1.43759 169:0 170:0 171:0 172:0 173:0 174:0 175:0 176:1.44817 177:0 178:0 179:0 180:1.51413 181:0 182:0 183:0 184:0 185:0 186:0 187:0 188:0 189:0 190:0 191:0 192:0 193:0 194:0 195:0 196:0 197:0 198:6.16652 199:0 
0.01436821503901239 1 0.3758904014278145 0:0 1:0 2:0 3:0 4:3.77617 5:0 6:0 7:2.25379 8:0 9:0 10:0 11:2.90042 12:0 13:0 14:0 15:0 16:2.62417 17:0 18:0 19:2.73337 20:2.64241 21:0 22:0 23:0 24:2.55748 25:0 26:1.35674 27:0 28:0 29:0 30:0 31:0 32:0 33:0 34:0 35:0 36:0 37:0 38:0 39:0 40:0 41:0 42:0 43:0 44:0 45:0 46:0 47:0 48:0 49:1.98413 50:0 51:0 52:0 53:0 54:0 55:0 56:0 57:0 58:0 59:0 60:0 61:0 62:0 63:0 64:0 65:0 66:2.14132 67:0 68:0 69:0 70:0 71:0 72:0 73:0 74:0 75:0 76:0 77:0 78:0 79:0 80:0 81:0 82:0 83:0 84:0 85:0 86:0 87:0 88:0 89:0 90:0 91:0 92:0 93:0 94:0 95:0 96:0 97:0 98:0 99:0 100:0 101:0 102:0 103:0 104:0 105:0 106:0 107:0 108:0 109:0 110:0 111:0 112:0 113:0 114:0 115:0 116:0 117:0 118:0 119:0 120:0 121:0.850852 122:0 123:2.43612 124:1.68342 125:0 126:0 127:0 128:0 129:3.79424 130:0 131:0 132:0 133:0 134:0 135:0 136:0 137:0 138:0 139:1.02862 140:0 141:0 142:0 143:0 144:0 145:1.64766 146:0 147:0 148:0 149:0 150:0 151:0 152:0 153:0 154:0 155:0 156:0 157:0 158:0 159:0 160:0 161:0 162:1.94841 163:0 164:0 165:0 166:0 167:0 168:0 169:0 170:1.96611 171:0 172:0 173:0 174:0 175:0 176:0 177:0 178:0 179:0 180:0 181:0 182:0 183:0 184:0 185:0 186:0 187:0 188:0 189:0 190:0 191:0 192:0 193:0 194:0 195:0 196:0 197:0 198:0 199:0 
0.1517250783918039 0.078185423748193 0 0:0 1:0 2:6.57146 3:0 4:2.23026 5:0 6:0 7:6.29205 8:0 9:0 10:6.81519 11:0 12:4.98961 13:7.86196 14:0 15:0 16:0 17:0 18:2.90042 19:0 20:4.59753 21:5.45003 22:0 23:0 24:2.55748 25:0 26:0 27:2.35388 28:2.99573 29:0 30:2.52573 31:0 32:0 33:0 34:0 35:0 36:0 37:4.22433 38:3.35241 39:0 40:3.35241 41:0 42:3.35241 43:3.35241 44:3.35241 45:0 46:2.30259 47:0 48:3.21888 49:0 50:0 51:0 52:0 53:0 54:0 55:0 56:0 57:0 58:0 59:0 60:0 61:2.16282 62:0 63:0 64:0 65:0 66:0 67:0 68:0 69:0 70:0 71:0 72:0 73:0 74:0 75:0 76:0 77:0 78:0 79:0 80:0 81:0 82:0 83:0 84:0 85:0 86:0 87:0 88:0 89:0 90:0 91:0 92:0 93:0 94:0 95:0 96:0 97:0 98:0 99:0 100:0 101:0 102:0 103:0 104:0 105:0 106:0 107:0 108:0 109:0 110:0 111:0 112:0 113:0 114:0 115:0 116:0 117:0 118:0 119:0 120:0 121:0.850852 122:0 123:0 124:0 125:0 126:0 127:0 128:0 129:0 130:0 131:0 132:0 133:0 134:0 135:0 136:0 137:0 138:0 139:0 140:0 141:0 142:0 143:0 144:0 145:0 146:0 147:0 148:0 149:0 150:0 151:0 152:0 153:0 154:0 155:0 156:0 157:0 158:0 159:0 160:0 161:0 162:1.94841 163:0 164:0 165:6.22636 166:0 167:2.23026 168:0 169:0 170:1.96611 171:0 172:0 173:0 174:2.09964 175:2.40505 176:0 177:0 178:0 179:0 180:0 181:0 182:0 183:0 184:0 185:0 186:0 187:0 188:0 189:0 190:0 191:0 192:0 193:0 194:0 195:0 196:0 197:0 198:0 199:0 
0.4380652312023381 0.5515761927483126 0 0:0 1:0 2:6.93431 3:3.56975 4:0 5:0 6:0 7:5.88114 8:2.38055 9:0 10:0 11:0 12:0 13:0 14:0 15:0 16:0 17:0 18:0 19:0 20:2.64241 21:7.68119 22:0 23:0 24:0 25:0 26:1.35674 27:0 28:0 29:8.93168 30:0 31:1.93102 32:1.6874 33:0 34:0 35:0 36:0 37:0 38:0 39:0 40:0 41:0 42:0 43:0 44:0 45:0 46:0 47:0 48:0 49:1.98413 50:0 51:0 52:0 53:0 54:0 55:0 56:0 57:0 58:0 59:0 60:0 61:0 62:0 63:0 64:0 65:0 66:0 67:2.04022 68:0 69:0 70:0 71:0 72:0 73:0 74:0 75:0 76:0 77:0 78:0 79:0 80:0 81:0 82:0 83:0 84:0 85:0 86:0 87:0 88:0 89:0 90:0 91:0 92:0 93:0 94:0 95:0 96:0 97:0 98:0 99:0 100:0 101:0 102:0 103:0 104:0 105:0 106:0 107:0 108:0 109:0 110:0 111:0 112:0 113:0 114:0 115:0 116:0 117:0 118:0 119:0 120:0 121:1.05461 122:0 123:0 124:0 125:0 126:0 127:0 128:0 129:0 130:0 131:0 132:0 133:0 134:0 135:0 136:0 137:0 138:0 139:1.02862 140:0 141:0 142:0 143:0 144:0 145:1.64766 146:0 147:0 148:0 149:0 150:0 151:0 152:0 153:0 154:0 155:0 156:0 157:2.04022 158:3.69919 159:0 160:0 161:2.20727 162:0 163:1.09362 164:5.81974 165:0 166:0 167:0 168:0 169:0 170:0 171:0 172:2.09964 173:0 174:0 175:0 176:1.44817 177:0 178:0 179:0 180:0 181:0 182:0 183:0 184:0 185:0 186:0 187:0 188:0 189:0 190:0 191:0 192:0 193:0 194:0 195:0 196:0 197:0 198:3.39049 199:0 
0.9014748669922608 1 1 0:0 1:0 2:0 3:3.56975 4:0 5:0 6:0 7:0 8:0 9:0 10:0 11:0 12:0 13:0 14:0 15:0 16:0 17:0 18:0 19:0 20:0 21:0 22:0 23:0 24:0 25:0 26:1.35674 27:0 28:0 29:0 30:0 31:0 32:0 33:0 34:0 35:0 36:0 37:0 38:0 39:0 40:0 41:0 42:0 43:0 44:0 45:0 46:0 47:0 48:0 49:0 50:0 51:0 52:0 53:0 54:0 55:0 56:0 57:0 58:0 59:0 60:0 61:0 62:0 63:0 64:0 65:0 66:0 67:0 68:0 69:0 70:0 71:0 72:0 73:0 74:0 75:0 76:0 77:0 78:0 79:0 80:0 81:0 82:0 83:0 84:0 85:0 86:0 87:0 88:0 89:0 90:0 91:0 92:0 93:0 94:0 95:0 96:0 97:0 98:0 99:0 100:0 101:0 102:0 103:0 104:0 105:0 106:0 107:0 108:0 109:0 110:0 111:0 112:0 113:0 114:0 115:0 116:0 117:0 118:0 119:0 120:0 121:0 122:0 123:0 124:1.68342 125:0 126:0 127:0 128:0 129:0 130:0 131:0 132:0 133:0 134:0 135:0 136:0 137:0 138:0 139:0 140:0 141:0 142:0 143:0 144:0 145:0 146:0 147:0 148:0 149:0 150:0 151:0 152:0 153:0 154:0 155:0 156:0 157:0 158:0 159:0 160:0 161:0 162:0 163:1.09362 164:0 165:4.68046 166:0 167:0 168:1.43759 169:0 170:0 171:1.25527 172:5.47889 173:0 174:0 175:0 176:0 177:0 178:0 179:0 180:0 181:0 182:0 183:0 184:0 185:0 186:0 187:0 188:0 189:0 190:0 191:0 192:0 193:0 194:0 195:0 196:0 197:0 198:0 199:0 
0.1939463616895619 0.02830212486744322 0.09694373676152186 0:0 1:0 2:5.61705 3:1.70101 4:0 5:0 6:0 7:3.81601 8:0 9:0 10:5.99357 11:0 12:2.94694 13:4.99584 14:2.81341 15:0 16:0 17:0 18:0 19:0 20:0 21:8.39946 22:0 23:0 24:0 25:0 26:2.29715 27:0 28:0 29:4.91084 30:0 31:0 32:0 33:0 34:0 35:6.39453 36:0 37:0 38:0 39:0 40:0 41:0 42:0 43:0 44:0 45:0 46:0 47:0 48:0 49:0 50:0 51:0 52:0 53:0 54:0 55:0 56:0 57:0 58:0 59:0 60:0 61:0 62:0 63:0 64:0 65:0 66:0 67:2.04022 68:0 69:0 70:0 71:0 72:0 73:0 74:0 75:0 76:0 77:0 78:0 79:0 80:0 81:0 82:0 83:0 84:0 85:0 86:0 87:0 88:0 89:0 90:0 91:0 92:0 93:0 94:0 95:0 96:0 97:0 98:0 99:0 100:0 101:0 102:0 103:0 104:0 105:0 106:0 107:0 108:0 109:0 110:0 111:0 112:0 113:0 114:0 115:0 116:0 117:0 118:0 119:0 120:0 121:0.850852 122:0 123:0 124:0 125:0 126:0 127:0 128:0 129:0 130:0 131:0 132:0 133:0 134:0 135:0 136:0 137:0 138:0 139:1.02862 140:0 141:0 142:0 143:0 144:0 145:0 146:0 147:0 148:0 149:0 150:0 151:0 152:0 153:0 154:0 155:0 156:0 157:0 158:0 159:0 160:0 161:0 162:1.94841 163:0 164:0 165:0 166:0 167:0 168:0 169:0 170:0 171:1.25527 172:0 173:0 174:2.09964 175:0 176:3.03915 177:0 178:2.12026 179:0 180:0 181:0 182:0 183:0 184:0 185:0 186:0 187:0 188:0 189:0 190:0 191:0 192:0 193:0 194:0 195:0 196:0 197:0 198:0 199:0 
0.1057051036141437 0.4572377457862457 0 0:0 1:0 2:0 3:2.88005 4:2.23026 5:2.65926 6:0 7:0 8:0 9:0 10:0 11:0 12:0 13:0 14:0 15:0 16:8.66654 17:3.12949 18:0 19:0 20:3.27519 21:0 22:0 23:0 24:0 25:0 26:0 27:2.35388 28:0 29:0 30:0 31:0 32:0 33:0 34:0 35:0 36:0 37:0 38:0 39:0 40:0 41:0 42:0 43:0 44:0 45:0 46:0 47:0 48:7.68119 49:0 50:0 51:0 52:0 53:0 54:0 55:0 56:0 57:0 58:0 59:0 60:0 61:0 62:0 63:0 64:0 65:0 66:0 67:0 68:2.55748 69:0 70:0 71:0 72:0 73:0 74:0 75:0 76:0 77:0 78:0 79:0 80:0 81:0 82:0 83:0 84:0 85:0 86:0 87:0 88:0 89:0 90:0 91:0 92:0 93:0 94:0 95:0 96:0 97:0 98:0 99:0 100:0 101:0 102:0 103:0 104:0 105:0 106:0 107:0 108:0 109:0 110:0 111:0 112:0 113:0 114:0 115:0 116:0 117:0 118:0 119:0 120:0 121:0 122:0 123:0 124:0.994252 125:0 126:0 127:0 128:0 129:0 130:0 131:0 132:0 133:0 134:0 135:0 136:0 137:0 138:0 139:0 140:0 141:0 142:0 143:0 144:0 145:0 146:0 147:0 148:0 149:0 150:0 151:0 152:0 153:1.58475 154:0 155:0 156:0 157:0 158:0 159:0 160:0 161:0 162:4.08896 163:1.09362 164:0 165:0 166:0 167:0 168:0 169:0 170:0 171:2.63432 172:0 173:2.09964 174:2.09964 175:0 176:0 177:0 178:0 179:0 180:0 181:0 182:0 183:0 184:0 185:0 186:0 187:0 188:0 189:0 190:0 191:0 192:0 193:0 194:0 195:0 196:0 197:0 198:0 199:0 
0.09004067951055325 0.3670537694910582 0 0:0 1:0 2:0 3:5.23815 4:3.77617 5:0 6:0 7:0 8:0 9:0 10:0 11:0 12:0 13:0 14:0 15:0 16:0 17:0 18:0 19:0 20:0 21:0 22:9.48252 23:0 24:0 25:0 26:0 27:0 28:0 29:0 30:0 31:0 32:0 33:0 34:0 35:0 36:2.20727 37:0 38:0 39:0 40:0 41:0 42:0 43:0 44:0 45:3.35241 46:0 47:0 48:0 49:1.98413 50:0 51:0 52:0 53:0 54:1.94841 55:0 56:0 57:0 58:0 59:0 60:0 61:0 62:0 63:0 64:0 65:0 66:0 67:2.04022 68:0 69:0 70:0 71:0 72:0 73:0 74:0 75:0 76:0 77:0 78:0 79:0 80:0 81:0 82:0 83:0 84:0 85:0 86:0 87:0 88:0 89:0 90:0 91:0 92:0 93:0 94:0 95:0 96:0 97:0 98:0 99:0 100:0 101:0 102:0 103:0 104:0 105:0 106:0 107:0 108:0 109:0 110:0 111:0 112:0 113:0 114:0 115:0 116:0 117:0 118:0 119:0 120:0 121:1.05461 122:0 123:0 124:1.68342 125:0 126:0 127:0 128:0 129:0 130:0 131:0 132:0 133:0 134:0 135:0 136:0 137:0 138:0 139:3.03022 140:0 141:0 142:0 143:0 144:0 145:0 146:0 147:0 148:0 149:0 150:0 151:1.30933 152:0 153:1.58475 154:0 155:0 156:0 157:7.27328 158:0 159:0 160:1.90298 161:0 162:0 163:1.09362 164:0 165:0 166:0 167:0 168:2.43405 169:0 170:3.32892 171:0 172:0 173:0 174:0 175:0 176:2.45196 177:0 178:0 179:0 180:1.51413 181:0 182:0 183:0 184:0 185:0 186:0 187:0 188:0 189:0 190:0 191:0 192:0 193:0 194:0 195:0 196:0 197:0 198:0 199:0 
0.5448599895991739 0.4282105557363665 0.04359522032101131 0:0 1:0 2:0 3:0 4:0 5:0 6:0 7:0 8:0 9:0 10:0 11:0 12:0 13:0 14:0 15:0 16:0 17:1.84833 18:2.90042 19:0 20:3.27519 21:0 22:0 23:0 24:0 25:0 26:0 27:0 28:5.07222 29:0 30:0 31:1.93102 32:4.02663 33:0 34:0 35:0 36:0 37:0 38:0 39:0 40:0 41:0 42:0 43:0 44:0 45:3.35241 46:0 47:0 48:0 49:0 50:0 51:0 52:0 53:0 54:0 55:0 56:0 57:0 58:0 59:0 60:0 61:0 62:0 63:0 64:0 65:0 66:0 67:0 68:0 69:0 70:0 71:0 72:0 73:0 74:0 75:0 76:0 77:0 78:0 79:2.73337 80:0 81:0 82:0 83:0 84:0 85:0 86:0 87:0 88:0 89:0 90:0 91:0 92:0 93:0 94:0 95:0 96:0 97:0 98:0 99:0 100:0 101:0 102:0 103:0 104:0 105:0 106:0 107:0 108:0 109:0 110:0 111:0 112:0 113:0 114:0 115:0 116:0 117:0 118:0 119:0 120:0 121:1.05461 122:0 123:0 124:1.68342 125:0 126:0 127:0 128:4.82311 129:0 130:0 131:0 132:0 133:0 134:0 135:0 136:0 137:0 138:0 139:0 140:0 141:0 142:0 143:0 144:0 145:0 146:0 147:0 148:0 149:0 150:0 151:1.30933 152:0 153:2.68321 154:0 155:0 156:0 157:3.45439 158:0 159:0 160:0 161:0 162:0 163:0 164:0 165:0 166:0 167:3.77617 168:0 169:0 170:1.96611 171:1.25527 172:0 173:0 174:2.09964 175:2.40505 176:0 177:0 178:0 179:0 180:1.51413 181:0 182:0 183:0 184:0 185:0 186:0 187:0 188:0 189:0 190:0 191:0 192:0 193:0 194:0 195:0 196:0 197:0 198:0 199:0 
1 0.6397838941633505 0.93065815065836 0:0 1:0 2:0 3:0 4:0 5:0 6:0 7:0 8:0 9:0 10:0 11:0 12:0 13:0 14:0 15:0 16:0 17:1.84833 18:2.90042 19:0 20:0 21:0 22:0 23:0 24:0 25:0 26:2.29715 27:0 28:0 29:0 30:0 31:0 32:0 33:0 34:0 35:0 36:0 37:0 38:0 39:0 40:0 41:0 42:0 43:0 44:0 45:3.35241 46:0 47:0 48:0 49:0 50:0 51:0 52:0 53:0 54:0 55:0 56:0 57:0 58:0 59:0 60:0 61:0 62:0 63:0 64:0 65:0 66:4.49379 67:0 68:0 69:0 70:0 71:0 72:0 73:0 74:0 75:0 76:0 77:0 78:0 79:0 80:0 81:0 82:0 83:0 84:0 85:0 86:0 87:0 88:0 89:0 90:0 91:0 92:0 93:0 94:0 95:0 96:0 97:0 98:0 99:0 100:0 101:0 102:0 103:0 104:0 105:0 106:0 107:0 108:0 109:0 110:0 111:0 112:0 113:0 114:0 115:0 116:0 117:0 118:0 119:0 120:0 121:0.850852 122:0 123:0 124:0 125:0 126:0 127:0 128:4.82311 129:0 130:0 131:0 132:0 133:0 134:0 135:0 136:0 137:0 138:0 139:1.02862 140:0 141:0 142:0 143:0 144:0 145:0 146:0 147:0 148:0 149:0 150:0 151:0 152:0 153:1.58475 154:0 155:0 156:0 157:0 158:0 159:0 160:0 161:0 162:0 163:1.09362 164:0 165:0 166:0 167:3.77617 168:0 169:0 170:0 171:0 172:0 173:0 174:3.55501 175:2.1151 176:1.44817 177:0 178:2.12026 179:0 180:0 181:0 182:0 183:0 184:0 185:0 186:0 187:0 188:0 189:0 190:0 191:0 192:0 193:0 194:0 195:0 196:0 197:0 198:0 199:0 
1 1 1 0:0 1:0 2:0 3:0 4:0 5:0 6:0 7:0 8:0 9:0 10:0 11:0 12:0 13:0 14:0 15:0 16:0 17:0 18:0 19:0 20:0 21:0 22:0 23:3.21888 24:0 25:0 26:0 27:0 28:0 29:0 30:0 31:0 32:0 33:0 34:0 35:0 36:0 37:0 38:0 39:0 40:0 41:0 42:0 43:0 44:0 45:0 46:0 47:0 48:0 49:0 50:0 51:0 52:0 53:0 54:0 55:0 56:0 57:0 58:0 59:0 60:0 61:0 62:0 63:0 64:0 65:0 66:2.14132 67:0 68:0 69:0 70:0 71:0 72:0 73:0 74:0 75:0 76:0 77:0 78:0 79:0 80:0 81:0 82:0 83:0 84:0 85:0 86:0 87:0 88:0 89:0 90:0 91:0 92:0 93:0 94:0 95:0 96:0 97:0 98:0 99:0 100:0 101:0 102:0 103:0 104:0 105:0 106:0 107:0 108:0 109:0 110:0 111:0 112:0 113:0 114:0 115:0 116:0 117:0 118:0 119:0 120:1.6874 121:0 122:0 123:0 124:0.994252 125:0 126:0 127:0 128:0 129:0 130:0 131:0 132:0 133:0 134:0 135:0 136:0 137:0 138:0 139:0 140:0 141:0 142:0 143:0 144:0 145:0 146:2.90042 147:0 148:0 149:0 150:0 151:0 152:0 153:0 154:0 155:0 156:0 157:0 158:0 159:2.1848 160:1.90298 161:0 162:0 163:0 164:0 165:0 166:0 167:2.23026 168:1.43759 169:0 170:0 171:0 172:0 173:0 174:2.09964 175:2.1151 176:0 177:0 178:0 179:0 180:1.51413 181:0 182:0 183:0 184:0 185:0 186:0 187:0 188:0 189:0 190:0 191:0 192:0 193:0 194:0 195:0 196:0 197:0 198:0 199:0 
0.2809711507606655 0.2602824966113606 0 0:0 1:0 2:2.35388 3:1.70101 4:0 5:5.58076 6:0 7:0 8:4.03062 9:0 10:0 11:0 12:0 13:2.38055 14:0 15:0 16:0 17:1.84833 18:0 19:0 20:0 21:0 22:0 23:7.68119 24:0 25:0 26:1.35674 27:0 28:0 29:0 30:0 31:0 32:0 33:1.80181 34:0 35:0 36:0 37:2.49496 38:0 39:0 40:0 41:8.7479 42:0 43:0 44:0 45:0 46:0 47:0 48:0 49:3.35943 50:0 51:0 52:0 53:0 54:0 55:0 56:0 57:0 58:0 59:0 60:0 61:0 62:0 63:0 64:0 65:0 66:0 67:0 68:0 69:0 70:0 71:0 72:0 73:0 74:0 75:0 76:0 77:0 78:1.54881 79:0 80:0 81:0 82:0 83:0 84:0 85:0 86:0 87:0 88:0 89:0 90:0 91:0 92:0 93:0 94:0 95:0 96:0 97:0 98:0 99:0 100:0 101:0 102:2.52573 103:0 104:0 105:0 106:0 107:0 108:0 109:0 110:0 111:0 112:0 113:0 114:0 115:0 116:0 117:0 118:0 119:0 120:0 121:1.31131 122:0 123:0 124:0 125:0 126:0 127:2.65926 128:0 129:0 130:0 131:0 132:0 133:0 134:0 135:0 136:3.10283 137:0 138:0 139:0 140:0 141:0 142:0 143:0 144:0 145:1.64766 146:0 147:0 148:0 149:0 150:0 151:1.30933 152:0 153:0 154:0 155:0 156:0 157:0 158:0 159:0 160:0 161:4.63221 162:4.08896 163:1.85167 164:0 165:0 166:0 167:0 168:1.43759 169:0 170:0 171:2.12535 172:0 173:2.09964 174:0 175:1.70645 176:0 177:2.12026 178:0 179:0 180:0 181:0 182:0 183:0 184:0 185:0 186:0 187:0 188:0 189:0 190:0 191:0 192:0 193:0 194:0 195:0 196:0 197:0 198:0 199:0 
0.3247243798983458 0.3987962385138866 0.147100655164327 0:0 1:0 2:0 3:2.88005 4:3.77617 5:0 6:2.69563 7:0 8:0 9:4.76352 10:0 11:0 12:0 13:0 14:0 15:0 16:0 17:0 18:0 19:0 20:0 21:0 22:0 23:0 24:9.30681 25:0 26:0 27:7.24863 28:0 29:0 30:0 31:0 32:1.6874 33:0 34:0 35:0 36:0 37:0 38:0 39:3.35241 40:0 41:0 42:0 43:0 44:0 45:0 46:0 47:0 48:0 49:4.16392 50:0 51:0 52:0 53:0 54:0 55:0 56:0 57:0 58:0 59:0 60:0 61:0 62:0 63:0 64:0 65:0 66:0 67:0 68:0 69:0 70:0 71:0 72:0 73:0 74:0 75:0 76:0 77:0 78:0 79:0 80:0 81:0 82:0 83:0 84:0 85:0 86:0 87:0 88:0 89:0 90:0 91:0 92:0 93:0 94:0 95:0 96:0 97:0 98:0 99:0 100:0 101:0 102:0 103:0 104:0 105:0 106:0 107:0 108:0 109:0 110:0 111:0 112:0 113:0 114:0 115:0 116:0 117:0 118:0 119:0 120:0 121:0 122:0 123:0 124:1.68342 125:0 126:0 127:0 128:0 129:0 130:0 131:0 132:0 133:0 134:0 135:0 136:0 137:0 138:0 139:1.7416 140:0 141:0 142:0 143:0 144:0 145:0 146:0 147:0 148:0 149:0 150:0 151:0 152:0 153:0 154:0 155:0 156:0 157:2.04022 158:0 159:0 160:1.90298 161:0 162:0 163:0 164:0 165:3.77617 166:0 167:2.23026 168:0 169:0 170:0 171:1.25527 172:0 173:0 174:0 175:0 176:2.45196 177:0 178:0 179:1.7148 180:2.56364 181:0 182:0 183:0 184:0 185:0 186:0 187:0 188:0 189:0 190:0 191:0 192:0 193:0 194:0 195:0 196:0 197:0 198:0 199:0 
0.5736999152481818 0.4958438400487876 0.1098707999851706 0:0 1:0 2:0 3:1.70101 4:5.32207 5:2.65926 6:4.56409 7:0 8:2.38055 9:0 10:0 11:0 12:0 13:0 14:0 15:0 16:0 17:5.16009 18:2.90042 19:4.62799 20:2.64241 21:0 22:0 23:0 24:4.33019 25:0 26:1.35674 27:3.98546 28:5.07222 29:0 30:2.52573 31:3.2695 32:3.5412 33:0 34:0 35:0 36:2.20727 37:0 38:0 39:14.2749 40:0 41:0 42:0 43:0 44:0 45:0 46:6.00845 47:0 48:0 49:3.35943 50:0 51:0 52:0 53:0 54:0 55:0 56:0 57:0 58:0 59:0 60:0 61:0 62:0 63:0 64:0 65:0 66:0 67:2.04022 68:0 69:0 70:0 71:0 72:0 73:0 74:0 75:0 76:0 77:0 78:2.62237 79:0 80:0 81:0 82:0 83:0 84:0 85:0 86:0 87:0 88:0 89:0 90:2.30259 91:0 92:0 93:0 94:0 95:0 96:0 97:0 98:0 99:0 100:0 101:0 102:0 103:0 104:0 105:0 106:0 107:0 108:0 109:0 110:0 111:0 112:0 113:0 114:0 115:0 116:0 117:0 118:0 119:0 120:0 121:0.502527 122:0 123:0 124:2.37258 125:0 126:0 127:0 128:0 129:0 130:0 131:0 132:0 133:0 134:0 135:0 136:0 137:0 138:0 139:2.45459 140:0 141:0 142:0 143:0 144:0 145:0 146:4.91084 147:0 148:0 149:0 150:0 151:0 152:0 153:0 154:0 155:0 156:0 157:2.04022 158:0 159:0 160:1.12393 161:0 162:0 163:1.09362 164:0 165:2.23026 166:0 167:0 168:3.01694 169:0 170:0 171:0 172:0 173:0 174:3.55501 175:1.70645 176:0 177:0 178:2.12026 179:3.5987 180:2.56364 181:0 182:0 183:0 184:0 185:0 186:0 187:0 188:0 189:0 190:0 191:0 192:0 193:0 194:0 195:0 196:0 197:0 198:0 199:0 
0.4410388011883507 0.3058266806024375 0.03502792421891404 0:0 1:0 2:2.35388 3:2.88005 4:0 5:0 6:0 7:7.65816 8:0 9:0 10:5.99357 11:0 12:7.03227 13:7.01288 14:0 15:0 16:0 17:0 18:0 19:0 20:0 21:0 22:0 23:8.98633 24:2.55748 25:0 26:1.35674 27:0 28:0 29:0 30:0 31:0 32:1.6874 33:0 34:0 35:0 36:0 37:6.96532 38:3.35241 39:0 40:3.35241 41:7.99983 42:3.35241 43:3.35241 44:3.35241 45:0 46:2.30259 47:0 48:0 49:0 50:0 51:0 52:0 53:0 54:0 55:0 56:0 57:0 58:0 59:0 60:0 61:0 62:0 63:0 64:0 65:0 66:0 67:0 68:0 69:0 70:0 71:0 72:0 73:0 74:0 75:0 76:0 77:0 78:0 79:0 80:0 81:0 82:0 83:0 84:0 85:0 86:0 87:0 88:0 89:0 90:0 91:0 92:0 93:0 94:0 95:0 96:0 97:0 98:0 99:0 100:0 101:0 102:0 103:0 104:0 105:0 106:0 107:0 108:0 109:0 110:0 111:0 112:0 113:0 114:0 115:0 116:0 117:0 118:0 119:0 120:0 121:0 122:0 123:0 124:0 125:0 126:0 127:0 128:0 129:0 130:0 131:0 132:0 133:0 134:0 135:0 136:0 137:0 138:0 139:0 140:0 141:0 142:0 143:0 144:0 145:0 146:0 147:0 148:0 149:0 150:0 151:1.30933 152:0 153:0 154:0 155:0 156:0 157:0 158:0 159:0 160:1.12393 161:0 162:1.94841 163:0 164:0 165:0 166:0 167:0 168:0 169:0 170:0 171:0 172:0 173:0 174:2.09964 175:1.00786 176:0 177:0 178:0 179:0 180:1.51413 181:0 182:0 183:0 184:0 185:0 186:0 187:0 188:0 189:0 190:0 191:0 192:0 193:0 194:0 195:0 196:0 197:0 198:0 199:0 
0.2040724558920349 0.1600628086719625 0.02041585376653654 0:0 1:0 2:0 3:1.70101 4:5.81974 5:0 6:0 7:0 8:0 9:0 10:5.99357 11:0 12:2.94694 13:2.38055 14:0 15:0 16:0 17:4.8231 18:0 19:0 20:1.56065 21:5.45003 22:3.21888 23:0 24:6.10289 25:0 26:1.35674 27:0 28:0 29:2.90042 30:0 31:0 32:0 33:1.80181 34:0 35:3.04703 36:2.20727 37:0 38:0 39:13.2234 40:0 41:0 42:0 43:0 44:0 45:0 46:0 47:0 48:0 49:3.35943 50:0 51:0 52:0 53:0 54:0 55:0 56:0 57:0 58:0 59:0 60:0 61:0 62:0 63:0 64:0 65:0 66:0 67:2.04022 68:0 69:0 70:0 71:0 72:0 73:0 74:0 75:0 76:0 77:0 78:0 79:0 80:0 81:0 82:0 83:0 84:0 85:0 86:0 87:0 88:0 89:0 90:0 91:0 92:0 93:0 94:0 95:0 96:0 97:0 98:0 99:0 100:0 101:0 102:0 103:0 104:0 105:0 106:0 107:0 108:0 109:0 110:0 111:0 112:0 113:0 114:0 115:0 116:0 117:0 118:0 119:0 120:0 121:0.850852 122:0 123:0 124:0 125:0 126:0 127:0 128:0 129:0 130:0 131:0 132:0 133:0 134:0 135:0 136:0 137:0 138:0 139:2.15867 140:0 141:0 142:0 143:0 144:0 145:0 146:0 147:0 148:0 149:0 150:0 151:0 152:0 153:0 154:0 155:0 156:0 157:2.04022 158:0 159:0 160:1.12393 161:0 162:0 163:1.09362 164:2.23026 165:0 166:0 167:0 168:0 169:0 170:0 171:2.12535 172:0 173:0 174:0 175:0 176:1.44817 177:0 178:0 179:0 180:1.51413 181:0 182:0 183:0 184:0 185:0 186:0 187:0 188:0 189:0 190:0 191:0 192:0 193:0 194:0 195:0 196:0 197:0 198:0 199:0 
0 0 0.1872619997123129 0:0 1:0 2:2.35388 3:2.88005 4:0 5:0 6:0 7:6.94043 8:0 9:0 10:6.81519 11:0 12:6.18449 13:2.38055 14:2.81341 15:0 16:0 17:0 18:0 19:0 20:0 21:0 22:0 23:0 24:0 25:0 26:0 27:0 28:0 29:0 30:0 31:0 32:2.85702 33:1.80181 34:0 35:0 36:0 37:2.49496 38:3.35241 39:0 40:3.35241 41:0 42:3.35241 43:3.35241 44:3.35241 45:0 46:0 47:0 48:0 49:0 50:0 51:0 52:0 53:0 54:0 55:0 56:0 57:0 58:0 59:0 60:0 61:0 62:0 63:0 64:0 65:0 66:0 67:0 68:0 69:0 70:0 71:0 72:0 73:0 74:0 75:0 76:0 77:0 78:0 79:0 80:0 81:0 82:0 83:0 84:0 85:0 86:0 87:0 88:0 89:0 90:0 91:0 92:0 93:0 94:0 95:0 96:0 97:0 98:0 99:0 100:0 101:0 102:0 103:0 104:0 105:0 106:0 107:0 108:0 109:0 110:0 111:0 112:0 113:0 114:0 115:0 116:0 117:0 118:0 119:0 120:0 121:0 122:0 123:0 124:0.994252 125:0 126:0 127:0 128:0 129:0 130:0 131:0 132:0 133:0 134:0 135:0 136:0 137:0 138:0 139:0 140:0 141:0 142:0 143:0 144:0 145:1.64766 146:0 147:0 148:0 149:0 150:0 151:0 152:0 153:1.58475 154:0 155:0 156:0 157:0 158:0 159:0 160:0 161:0 162:1.94841 163:0 164:0 165:0 166:0 167:0 168:2.43405 169:0 170:0 171:0 172:0 173:0 174:0 175:0 176:0 177:0 178:0 179:0 180:0 181:0 182:0 183:0 184:0 185:0 186:0 187:0 188:0 189:0 190:0 191:0 192:0 193:0 194:0 195:0 196:0 197:0 198:0 199:0 
0.2718496204659177 0.2740238460637613 0 0:0 1:0 2:2.35388 3:2.88005 4:2.23026 5:0 6:0 7:0 8:0 9:0 10:6.81519 11:0 12:6.18449 13:4.03062 14:4.76352 15:0 16:0 17:0 18:0 19:0 20:0 21:0 22:0 23:0 24:0 25:0 26:1.35674 27:0 28:2.99573 29:0 30:0 31:5.39095 32:4.71081 33:1.80181 34:0 35:0 36:2.20727 37:5.9537 38:3.35241 39:0 40:3.35241 41:0 42:3.35241 43:3.35241 44:3.35241 45:0 46:0 47:0 48:0 49:0 50:0 51:0 52:0 53:0 54:1.94841 55:0 56:0 57:0 58:0 59:0 60:0 61:0 62:0 63:0 64:0 65:0 66:0 67:0 68:0 69:0 70:0 71:0 72:0 73:0 74:0 75:0 76:0 77:0 78:0 79:0 80:0 81:0 82:0 83:0 84:0 85:0 86:0 87:0 88:0 89:0 90:0 91:0 92:0 93:0 94:0 95:0 96:0 97:0 98:0 99:0 100:0 101:0 102:0 103:0 104:0 105:0 106:0 107:0 108:0 109:0 110:0 111:0 112:0 113:0 114:0 115:0 116:0 117:0 118:0 119:0 120:0 121:0 122:0 123:0 124:0 125:0 126:0 127:0 128:0 129:0 130:0 131:0 132:0 133:0 134:0 135:0 136:0 137:0 138:0 139:2.15867 140:0 141:0 142:0 143:0 144:0 145:0 146:0 147:0 148:0 149:0 150:0 151:0 152:0 153:0 154:0 155:0 156:0 157:0 158:0 159:0 160:0 161:0 162:1.94841 163:1.09362 164:0 165:0 166:0 167:0 168:3.01694 169:0 170:0 171:1.25527 172:0 173:0 174:0 175:1.70645 176:0 177:0 178:3.58992 179:2.90341 180:2.56364 181:0 182:0 183:0 184:0 185:0 186:0 187:0 188:0 189:0 190:0 191:0 192:0 193:0 194:0 195:0 196:0 197:0 198:0 199:0 
0.7392423451155514 0.6117092774310311 0.2431447987197937 0:0 1:0 2:0 3:1.70101 4:8.26993 5:0 6:0 7:0 8:0 9:2.81341 10:6.81519 11:0 12:7.03227 13:4.99584 14:5.90426 15:0 16:0 17:5.44501 18:0 19:0 20:2.64241 21:3.21888 22:3.21888 23:0 24:7.13986 25:0 26:3.54032 27:3.98546 28:2.99573 29:0 30:4.27643 31:4.05247 32:0 33:4.29965 34:0 35:7.2711 36:3.73724 37:0 38:3.35241 39:14.5233 40:3.35241 41:0 42:3.35241 43:3.35241 44:3.35241 45:0 46:0 47:0 48:0 49:3.35943 50:0 51:0 52:0 53:0 54:0 55:0 56:0 57:0 58:0 59:0 60:0 61:0 62:0 63:0 64:0 65:0 66:0 67:0 68:0 69:0 70:0 71:0 72:0 73:0 74:0 75:0 76:0 77:0 78:0 79:0 80:0 81:0 82:0 83:0 84:0 85:0 86:0 87:0 88:0 89:0 90:0 91:0 92:0 93:0 94:0 95:0 96:0 97:0 98:0 99:0 100:0 101:0 102:0 103:0 104:0 105:0 106:0 107:0 108:0 109:0 110:0 111:0 112:0 113:0 114:0 115:0 116:0 117:0 118:0 119:0 120:0 121:1.65964 122:0 123:0 124:0 125:0 126:0 127:0 128:0 129:0 130:0 131:0 132:0 133:0 134:0 135:0 136:0 137:0 138:0 139:3.3971 140:0 141:0 142:0 143:0 144:0 145:1.64766 146:0 147:0 148:0 149:0 150:0 151:1.30933 152:3.24056 153:0 154:0 155:0 156:0 157:4.28163 158:0 159:0 160:1.90298 161:0 162:0 163:1.85167 164:2.23026 165:0 166:0 167:2.23026 168:0 169:0 170:0 171:2.63432 172:0 173:0 174:0 175:1.00786 176:2.45196 177:0 178:0 179:1.7148 180:1.51413 181:0 182:0 183:0 184:0 185:0 186:0 187:0 188:0 189:0 190:0 191:0 192:0 193:0 194:0 195:0 196:0 197:0 198:0 199:0 
0.124239849577681 0.06295701677039389 0 0:0 1:0 2:4.93988 3:1.70101 4:3.77617 5:0 6:0 7:2.25379 8:0 9:0 10:6.81519 11:0 12:6.18449 13:4.03062 14:4.76352 15:0 16:0 17:5.69182 18:0 19:0 20:4.35695 21:5.45003 22:0 23:0 24:2.55748 25:0 26:2.29715 27:2.35388 28:2.99573 29:4.91084 30:0 31:0 32:4.40316 33:3.05073 34:0 35:3.04703 36:0 37:0 38:3.35241 39:3.35241 40:3.35241 41:0 42:3.35241 43:3.35241 44:3.35241 45:0 46:2.30259 47:0 48:0 49:0 50:0 51:0 52:0 53:0 54:0 55:0 56:0 57:0 58:0 59:0 60:0 61:0 62:0 63:0 64:0 65:0 66:0 67:0 68:0 69:0 70:0 71:0 72:0 73:0 74:0 75:0 76:0 77:0 78:0 79:0 80:0 81:0 82:0 83:0 84:0 85:0 86:0 87:0 88:0 89:0 90:0 91:0 92:0 93:0 94:0 95:0 96:0 97:0 98:0 99:0 100:0 101:0 102:0 103:0 104:0 105:0 106:0 107:0 108:0 109:0 110:0 111:0 112:0 113:0 114:0 115:0 116:0 117:0 118:0 119:0 120:0 121:0.502527 122:0 123:0 124:0 125:0 126:0 127:2.65926 128:0 129:0 130:0 131:0 132:0 133:0 134:0 135:0 136:0 137:0 138:0 139:2.68412 140:0 141:0 142:0 143:0 144:0 145:0 146:0 147:0 148:0 149:0 150:0 151:2.21689 152:0 153:2.68321 154:0 155:0 156:0 157:0 158:0 159:0 160:1.12393 161:0 162:0 163:1.85167 164:0 165:0 166:0 167:2.23026 168:0 169:0 170:0 171:1.25527 172:0 173:0 174:0 175:2.1151 176:0 177:0 178:0 179:0 180:3.17757 181:0 182:0 183:0 184:0 185:0 186:0 187:0 188:0 189:0 190:0 191:0 192:0 193:0 194:0 195:0 196:0 197:0 198:0 199:0 
1 1 1 0:0 1:0 2:0 3:0 4:0 5:0 6:0 7:0 8:0 9:0 10:0 11:0 12:0 13:0 14:0 15:0 16:0 17:1.84833 18:0 19:0 20:0 21:0 22:0 23:3.21888 24:0 25:0 26:1.35674 27:0 28:0 29:0 30:0 31:0 32:0 33:0 34:0 35:0 36:0 37:0 38:0 39:0 40:0 41:0 42:0 43:0 44:0 45:0 46:0 47:0 48:0 49:0 50:0 51:0 52:2.09964 53:0 54:0 55:0 56:0 57:3.10109 58:0 59:0 60:0 61:0 62:0 63:0 64:0 65:0 66:0 67:0 68:0 69:0 70:0 71:0 72:0 73:0 74:0 75:0 76:0 77:0 78:0 79:0 80:0 81:0 82:0 83:0 84:0 85:0 86:0 87:0 88:0 89:0 90:0 91:0 92:0 93:0 94:0 95:0 96:0 97:0 98:0 99:0 100:0 101:0 102:0 103:0 104:0 105:0 106:0 107:0 108:0 109:0 110:0 111:0 112:0 113:0 114:0 115:0 116:0 117:0 118:0 119:0 120:2.85702 121:0.850852 122:0 123:0 124:0.994252 125:0 126:0 127:0 128:0 129:0 130:6.52262 131:0 132:0 133:0 134:0 135:0 136:0 137:0 138:0 139:0 140:0 141:0 142:0 143:0 144:0 145:0 146:0 147:0 148:0 149:0 150:0 151:0 152:0 153:0 154:0 155:0 156:0 157:0 158:0 159:3.69919 160:0 161:2.20727 162:0 163:1.09362 164:0 165:0 166:0 167:0 168:0 169:0 170:0 171:0 172:0 173:4.40634 174:0 175:0 176:0 177:0 178:0 179:0 180:0 181:0 182:0 183:0 184:0 185:0 186:0 187:0 188:0 189:0 190:0 191:0 192:0 193:0 194:0 195:0 196:0 197:0 198:0 199:0 
0.1326444013291749 0.03563464200351164 0 0:0 1:0 2:8.39146 3:0 4:2.23026 5:0 6:0 7:6.29205 8:0 9:0 10:5.99357 11:0 12:0 13:8.29598 14:0 15:0 16:0 17:0 18:0 19:0 20:4.35695 21:0 22:3.21888 23:0 24:2.55748 25:0 26:1.35674 27:2.35388 28:2.99573 29:0 30:0 31:0 32:0 33:0 34:0 35:0 36:0 37:4.22433 38:0 39:0 40:0 41:0 42:0 43:0 44:0 45:0 46:2.30259 47:0 48:3.21888 49:0 50:0 51:0 52:0 53:0 54:0 55:0 56:0 57:0 58:0 59:0 60:0 61:2.16282 62:0 63:0 64:0 65:0 66:0 67:0 68:0 69:0 70:0 71:0 72:0 73:0 74:0 75:0 76:0 77:0 78:0 79:0 80:0 81:0 82:0 83:0 84:0 85:0 86:0 87:0 88:0 89:0 90:0 91:0 92:0 93:0 94:0 95:0 96:0 97:0 98:0 99:0 100:0 101:0 102:0 103:0 104:0 105:0 106:0 107:0 108:0 109:0 110:0 111:0 112:0 113:0 114:0 115:0 116:0 117:0 118:0 119:0 120:0 121:1.19918 122:0 123:0 124:0 125:0 126:0 127:0 128:0 129:0 130:0 131:0 132:0 133:0 134:0 135:0 136:0 137:0 138:0 139:0 140:0 141:0 142:0 143:0 144:0 145:0 146:0 147:0 148:0 149:0 150:0 151:0 152:0 153:0 154:0 155:0 156:0 157:0 158:0 159:0 160:0 161:0 162:1.94841 163:0 164:0 165:6.57016 166:0 167:2.23026 168:0 169:0 170:4.12611 171:0 172:0 173:0 174:0 175:2.8137 176:2.45196 177:0 178:0 179:0 180:0 181:0 182:0 183:0 184:0 185:0 186:0 187:0 188:0 189:0 190:0 191:0 192:0 193:0 194:0 195:0 196:0 197:0 198:0 199:0 
0.07592513858251886 0.2471490092343388 0 0:0 1:0 2:0 3:5.4385 4:0 5:0 6:0 7:2.25379 8:2.38055 9:0 10:6.81519 11:2.90042 12:7.03227 13:0 14:0 15:0 16:0 17:1.84833 18:0 19:0 20:2.64241 21:0 22:3.21888 23:0 24:2.55748 25:0 26:0 27:0 28:0 29:0 30:2.52573 31:0 32:0 33:1.80181 34:0 35:0 36:2.20727 37:0 38:3.35241 39:7.99983 40:3.35241 41:0 42:3.35241 43:3.35241 44:3.35241 45:0 46:0 47:1.30933 48:0 49:1.98413 50:0 51:0 52:0 53:0 54:0 55:0 56:0 57:0 58:0 59:0 60:0 61:0 62:0 63:0 64:0 65:0 66:0 67:0 68:0 69:0 70:0 71:0 72:0 73:0 74:0 75:0 76:0 77:0 78:0 79:0 80:0 81:0 82:0 83:0 84:0 85:0 86:0 87:0 88:0 89:0 90:0 91:0 92:0 93:0 94:0 95:0 96:0 97:0 98:0 99:0 100:0 101:0 102:0 103:0 104:0 105:0 106:0 107:0 108:0 109:0 110:0 111:0 112:0 113:0 114:0 115:0 116:0 117:0 118:0 119:0 120:0 121:0.850852 122:0 123:0 124:0 125:0 126:0 127:0 128:0 129:0 130:0 131:0 132:0 133:0 134:0 135:0 136:0 137:0 138:0 139:2.15867 140:0 141:0 142:0 143:0 144:0 145:0 146:0 147:0 148:0 149:0 150:0 151:0 152:4.01659 153:0 154:0 155:0 156:0 157:0 158:0 159:0 160:0 161:0 162:1.94841 163:1.85167 164:0 165:0 166:0 167:0 168:1.43759 169:0 170:1.96611 171:2.12535 172:0 173:0 174:0 175:2.1151 176:1.44817 177:0 178:0 179:0 180:0 181:0 182:0 183:0 184:0 185:0 186:0 187:0 188:0 189:0 190:0 191:0 192:0 193:0 194:0 195:0 196:0 197:0 198:0 199:0 
1 1 1 0:0 1:0 2:0 3:0 4:0 5:2.65926 6:0 7:0 8:6.21189 9:0 10:0 11:2.90042 12:0 13:0 14:0 15:0 16:2.62417 17:0 18:0 19:0 20:0 21:0 22:0 23:0 24:0 25:0 26:0 27:0 28:0 29:0 30:0 31:0 32:0 33:0 34:0 35:0 36:0 37:0 38:0 39:0 40:0 41:0 42:0 43:0 44:0 45:0 46:0 47:0 48:0 49:0 50:0 51:0 52:0 53:0 54:0 55:0 56:0 57:0 58:0 59:0 60:0 61:0 62:0 63:0 64:0 65:0 66:0 67:0 68:0 69:0 70:0 71:0 72:0 73:0 74:0 75:2.12026 76:0 77:0 78:0 79:0 80:0 81:0 82:0 83:0 84:0 85:0 86:0 87:0 88:0 89:0 90:0 91:0 92:0 93:0 94:0 95:0 96:0 97:0 98:0 99:0 100:0 101:0 102:0 103:0 104:0 105:0 106:0 107:0 108:0 109:0 110:0 111:0 112:0 113:0 114:0 115:0 116:0 117:0 118:0 119:0 120:0 121:1.40293 122:0 123:0 124:0 125:0 126:0 127:0 128:0 129:0 130:0 131:0 132:0 133:0 134:0 135:0 136:0 137:0 138:0 139:0 140:0 141:0 142:0 143:0 144:0 145:0 146:0 147:0 148:0 149:0 150:0 151:1.30933 152:0 153:0 154:0 155:0 156:0 157:0 158:2.1848 159:2.1848 160:1.12393 161:0 162:0 163:0 164:0 165:0 166:0 167:0 168:0 169:0 170:0 171:0 172:0 173:0 174:0 175:1.00786 176:0 177:0 178:0 179:3.5987 180:0 181:0 182:0 183:0 184:0 185:0 186:0 187:0 188:0 189:0 190:0 191:0 192:0 193:0 194:0 195:0 196:0 197:0 198:2.00248 199:0 
0.2536699391979733 0.9907126650543758 0 0:0 1:0 2:0 3:0 4:0 5:0 6:0 7:0 8:0 9:0 10:0 11:0 12:0 13:0 14:0 15:0 16:0 17:1.84833 18:0 19:0 20:1.56065 21:0 22:0 23:6.75517 24:0 25:0 26:0 27:0 28:0 29:2.90042 30:0 31:0 32:0 33:1.80181 34:0 35:0 36:0 37:0 38:0 39:0 40:0 41:7.99983 42:0 43:0 44:0 45:0 46:0 47:0 48:0 49:0 50:0 51:0 52:0 53:0 54:0 55:0 56:0 57:0 58:0 59:0 60:0 61:0 62:0 63:0 64:0 65:0 66:0 67:0 68:0 69:0 70:0 71:0 72:0 73:0 74:0 75:0 76:0 77:0 78:0 79:0 80:0 81:0 82:0 83:0 84:0 85:0 86:0 87:0 88:0 89:0 90:0 91:0 92:0 93:0 94:0 95:0 96:0 97:0 98:0 99:0 100:0 101:0 102:2.52573 103:0 104:0 105:0 106:0 107:0 108:0 109:0 110:0 111:0 112:0 113:0 114:0 115:0 116:0 117:0 118:0 119:0 120:0 121:1.19918 122:0 123:0 124:0.994252 125:0 126:0 127:0 128:0 129:0 130:2.73337 131:0 132:0 133:0 134:0 135:0 136:0 137:0 138:0 139:0 140:0 141:0 142:0 143:2.81341 144:2.02117 145:2.78973 146:0 147:0 148:0 149:0 150:0 151:1.30933 152:1.91393 153:0 154:0 155:0 156:0 157:0 158:0 159:5.21358 160:0 161:0 162:0 163:1.09362 164:0 165:0 166:0 167:0 168:1.43759 169:0 170:0 171:1.25527 172:0 173:0 174:0 175:1.00786 176:1.44817 177:0 178:2.12026 179:0 180:2.56364 181:2.27789 182:0 183:0 184:0 185:0 186:0 187:0 188:0 189:0 190:0 191:0 192:0 193:0 194:0 195:0 196:0 197:0 198:0 199:0 
-0.00727290607333759 0 0 0:0 1:0 2:0 3:0 4:0 5:0 6:0 7:0 8:0 9:0 10:0 11:0 12:0 13:0 14:0 15:0 16:0 17:0 18:0 19:0 20:1.56065 21:0 22:0 23:0 24:2.55748 25:0 26:1.35674 27:0 28:0 29:0 30:0 31:0 32:0 33:1.80181 34:3.61745 35:0 36:0 37:0 38:0 39:0 40:0 41:0 42:0 43:0 44:0 45:0 46:2.30259 47:0 48:0 49:0 50:0 51:0 52:2.09964 53:7.0354 54:4.64949 55:0 56:0 57:0 58:0 59:0 60:0 61:2.16282 62:0 63:0 64:0 65:3.28341 66:5.10981 67:0 68:0 69:0 70:0 71:0 72:3.50656 73:0 74:0 75:0 76:0 77:0 78:2.62237 79:0 80:0 81:5.25061 82:0 83:0 84:0 85:0 86:0 87:0 88:0 89:0 90:4.83223 91:0 92:0 93:0 94:0 95:0 96:0 97:0 98:0 99:0 100:0 101:2.25379 102:0 103:0 104:0 105:0 106:0 107:0 108:0 109:0 110:0 111:0 112:0 113:0 114:0 115:0 116:0 117:0 118:0 119:0 120:0 121:0.850852 122:0 123:0 124:0 125:0 126:0 127:0 128:3.42214 129:0 130:0 131:0 132:0 133:0 134:0 135:0 136:5.11613 137:4.37308 138:0 139:1.02862 140:0 141:0 142:0 143:0 144:4.24166 145:0 146:0 147:0 148:0 149:0 150:3.66198 151:1.30933 152:0 153:0 154:0 155:0 156:0 157:2.04022 158:0 159:0 160:0 161:0 162:0 163:0 164:0 165:0 166:0 167:0 168:1.43759 169:0 170:0 171:1.25527 172:3.55501 173:0 174:0 175:1.00786 176:0 177:0 178:2.12026 179:1.7148 180:0 181:0 182:0 183:0 184:0 185:0 186:0 187:0 188:0 189:0 190:0 191:0 192:0 193:0 194:0 195:0 196:0 197:0 198:0 199:0 
-0.5441635025342255 0.4144210981997362 0 0:0 1:0 2:0 3:0 4:0 5:0 6:0 7:0 8:0 9:0 10:0 11:0 12:0 13:0 14:0 15:0 16:0 17:0 18:0 19:0 20:1.56065 21:0 22:0 23:0 24:2.55748 25:0 26:2.84726 27:0 28:0 29:0 30:0 31:0 32:0 33:0 34:3.61745 35:0 36:0 37:0 38:0 39:0 40:0 41:0 42:0 43:0 44:0 45:0 46:3.89862 47:0 48:0 49:0 50:0 51:0 52:3.55501 53:7.0354 54:4.64949 55:3.21888 56:0 57:0 58:7.19093 59:0 60:0 61:2.16282 62:0 63:0 64:3.28341 65:3.28341 66:5.10981 67:0 68:0 69:0 70:0 71:0 72:3.50656 73:0 74:0 75:0 76:0 77:0 78:3.69592 79:0 80:2.73337 81:6.50799 82:0 83:0 84:0 85:0 86:0 87:0 88:0 89:0 90:3.89862 91:0 92:0 93:0 94:0 95:0 96:0 97:0 98:0 99:0 100:0 101:2.25379 102:0 103:0 104:0 105:0 106:0 107:0 108:0 109:0 110:0 111:0 112:0 113:0 114:0 115:0 116:0 117:0 118:0 119:0 120:0 121:1.5475 122:0 123:0 124:0 125:0 126:0 127:0 128:3.42214 129:0 130:0 131:0 132:0 133:0 134:0 135:0 136:4.78201 137:4.37308 138:0 139:1.02862 140:0 141:0 142:0 143:0 144:4.24166 145:1.64766 146:0 147:0 148:0 149:0 150:3.66198 151:1.30933 152:0 153:2.68321 154:0 155:0 156:0 157:3.45439 158:0 159:0 160:0 161:0 162:0 163:1.09362 164:2.23026 165:0 166:6.22636 167:5.81974 168:1.43759 169:0 170:0 171:1.25527 172:3.55501 173:0 174:0 175:1.00786 176:0 177:0 178:2.12026 179:1.7148 180:0 181:0 182:0 183:0 184:0 185:0 186:0 187:0 188:0 189:0 190:0 191:0 192:0 193:0 194:0 195:0 196:0 197:0 198:0 199:2.00248 
-0.2539420349096278 0.1351164759853061 0.2496997116185464 0:0 1:0 2:0 3:0 4:0 5:0 6:0 7:0 8:0 9:0 10:0 11:0 12:0 13:0 14:0 15:1.94251 16:0 17:0 18:0 19:0 20:1.56065 21:0 22:0 23:0 24:0 25:0 26:2.29715 27:0 28:0 29:0 30:0 31:0 32:0 33:0 34:2.3472 35:0 36:0 37:0 38:0 39:0 40:0 41:0 42:0 43:0 44:0 45:0 46:0 47:0 48:0 49:0 50:0 51:0 52:0 53:0 54:6.00002 55:0 56:0 57:0 58:0 59:0 60:3.42652 61:0 62:0 63:0 64:3.28341 65:0 66:0 67:0 68:0 69:0 70:0 71:0 72:3.50656 73:0 74:0 75:0 76:0 77:3.21888 78:0 79:0 80:0 81:3.10109 82:0 83:0 84:0 85:0 86:0 87:0 88:2.90042 89:0 90:2.30259 91:0 92:0 93:0 94:0 95:0 96:0 97:0 98:0 99:0 100:0 101:0 102:0 103:0 104:0 105:0 106:0 107:0 108:0 109:0 110:0 111:0 112:0 113:0 114:0 115:0 116:0 117:0 118:0 119:0 120:0 121:0.502527 122:0 123:0 124:1.68342 125:0 126:0 127:0 128:0 129:0 130:0 131:0 132:0 133:0 134:0 135:0 136:0 137:3.10283 138:0 139:0 140:0 141:0 142:0 143:0 144:0 145:0 146:0 147:0 148:0 149:0 150:5.64375 151:0 152:0 153:0 154:0 155:0 156:0 157:0 158:0 159:0 160:0 161:0 162:0 163:1.85167 164:0 165:0 166:3.77617 167:2.23026 168:0 169:0 170:0 171:0 172:0 173:0 174:0 175:1.00786 176:1.44817 177:0 178:0 179:1.7148 180:0 181:0 182:0 183:0 184:0 185:0 186:0 187:0 188:0 189:0 190:0 191:0 192:0 193:0 194:0 195:0 196:0 197:0 198:2.00248 199:0 
